9996 16
. -0.047925424 -0.01727082 0.024833124 -0.24372452 0.06850187 0.060620464 0.035870545 -0.021366198 0.035556894 -0.14997353 -0.02545416 0.081436574 0.0037222758 -0.068905726 0.0092267785 -0.03202153
영화 -0.06285113 -0.005004861 0.008187775 -0.28017315 0.087881796 0.0807889 -0.013626135 -0.07656779 0.028514862 -0.38239554 0.010070096 0.005693028 0.011916329 -0.06908889 -0.07672959 -0.07789325
다 -0.059456684 -0.028422195 -0.05646133 -0.1625804 0.05712779 0.07897087 0.015142192 -0.0041842717 -0.042088237 -0.15512994 -0.035236333 0.07629678 0.0015019854 -0.06393655 -0.064865336 -0.07099003
고 -0.00040653697 0.009409512 -0.018968016 -0.12805034 0.053450577 -0.033516098 -0.06377671 0.005080061 -0.008488458 -0.11704799 -0.011619765 -0.035117872 -0.00016712007 -0.082109846 0.038406044 -0.022273678
하 -0.018571714 0.0008277857 -0.023655288 -0.059488617 -0.039470945 -0.03559303 -0.027326804 0.037722375 -0.046957295 -0.042574752 -0.053259235 -0.0068770666 0.003873177 0.0015730963 0.02741414 -0.037563466
을 0.021829706 0.026525823 0.049019672 0.09467746 0.01573494 0.039776936 -0.007154397 0.053158667 -0.030288655 0.011862507 -0.03198765 0.046301145 -0.02043976 0.020706026 -0.015079112 -0.0069201505
보 0.017084202 0.017408578 0.014665197 0.006163478 0.039682943 -0.026081398 -0.039534353 -0.007229908 0.03467856 -0.0562825 0.01803897 0.0106966635 0.010677389 -0.044740893 -0.032280937 -0.07567816
.. 0.009049204 -9.328067e-05 0.035808787 -0.14370003 -0.026312996 -0.04351707 0.06363274 -0.03784446 -0.00013928674 -0.06329677 -0.055824604 0.039897475 0.0058129136 -0.099250756 0.047354683 -0.06314051
게 0.015236218 0.007812443 0.0042082416 -0.12503856 0.07647626 -0.0062496895 0.016108867 -0.003900868 0.027499985 -0.124349594 -0.011649377 -0.03331919 0.017700985 -0.014423923 -0.04706051 -0.05767323
, -0.052054387 -0.02108304 -0.02814223 -0.07953815 -0.040421065 -0.0032811319 -0.00020898198 0.021984117 0.006949519 -0.12712258 0.027227473 -0.009263266 0.026745066 -0.02724872 -0.022897258 0.031459842
! -0.007388445 -0.044076905 -0.10791224 -0.29786146 0.052176356 0.054530557 -0.035559528 -0.09150013 0.08854329 -0.34813076 0.018468019 0.062411968 -0.026455771 -0.078245156 -0.11769909 -0.054129362
지 0.07733995 0.06606987 0.015386819 0.15935989 0.0059296144 -0.0865198 0.014245552 0.073213644 -0.035841417 0.19755189 -0.024538323 -0.048759025 -0.0071874578 0.055579107 0.0038239523 0.0006742988
있 0.08504468 0.0029926558 -0.054800384 -0.031032007 0.047706056 -0.04569181 -0.016480044 -0.011099096 -0.0023212354 0.030812498 0.049783003 -0.022867072 -0.008126268 0.044962317 0.0316581 -0.07189093
없 -0.06861373 0.03788961 0.092870906 -0.09449556 -0.09038316 -0.040256903 -0.08928714 -0.08865614 -0.101867 -0.07733799 -0.035064287 0.04559534 0.10775747 0.08180984 0.0055578225 0.11971869
? 0.008172383 0.05177824 0.033096753 0.03558645 0.025321808 -0.05818772 0.042614482 -0.011300113 -0.022670547 0.11670038 -0.06434346 -0.00028629374 0.047374494 0.04562862 0.024320034 0.052576892
좋 0.08850398 -0.06578099 -0.091155134 -0.27783805 0.054088295 0.031509474 0.059024412 0.019674107 0.17069834 0.13012192 0.081246205 -0.07369369 -0.036804896 -0.06448051 0.013085576 -0.14023824
나 0.03739173 0.026484603 0.019005338 0.0053688628 -0.012693318 0.0075495844 0.013126787 0.039734595 -0.050889015 -0.010444603 -0.03977486 -0.032219484 -0.00022827389 -0.030053677 0.010907371 -0.015228144
었 0.005798266 0.024148079 -0.03361528 -0.09123811 -0.027108127 0.051336948 0.060074884 -0.021265421 -0.0037364885 -0.09783623 0.02919247 0.03832044 -0.044445015 -0.06648462 -0.06242102 -0.0092666
만 -0.06696059 -0.016677398 0.0791412 -0.07018736 -0.015856447 -0.02152983 -0.026308905 -0.022194633 -0.0074462174 -0.072392836 -0.04963834 0.07088708 0.059848163 0.0025026607 0.049968228 0.02524138
는데 0.08199897 0.06983689 0.016742416 0.21268769 -0.044149816 -0.012546461 0.022780657 0.04478307 -0.11191862 0.28968155 -0.039189506 -0.012959386 -0.028410455 0.11351605 -0.0018296965 -0.037402686
너무 -0.026369214 0.007825609 0.00022837389 -0.2582142 -0.03048305 0.04016027 -0.047364857 -0.040138543 0.003913721 -0.13638948 -0.018180886 -0.004069663 -0.065187946 -0.09399137 0.014146355 -0.058257695
봤 0.06064027 -0.040040374 0.0005286827 -0.14978543 0.05732308 -0.02648236 -0.066925526 0.0052773096 0.03919642 -0.032901596 0.03509808 0.0011421426 -0.025599284 0.02562747 0.016978638 -0.07553259
적 0.033004377 -0.054537863 -0.016117979 -0.0690926 -0.01850029 0.01004063 -0.012315086 -0.064389534 0.05126276 -0.0948641 -0.0053246375 0.016048532 -0.021095034 -0.049279377 0.024269756 -0.01644943
안 -0.05601411 0.051135596 0.09443788 0.02803829 -0.0851116 -0.046133388 -0.035454232 0.0043229028 -0.10682827 -0.04028786 -0.08220037 0.048517916 0.08407881 0.017128093 0.04568807 0.010795092
정말 0.015139568 -0.013391371 -0.07272201 -0.10964362 0.074104145 0.0043736156 -0.00023590779 -0.0016207698 0.0130754225 -0.14796403 -0.007962373 -0.018355174 -0.068134405 -0.12464726 -0.050330345 -0.044768926
로 -0.011325767 0.07003822 0.025578672 -0.035704147 -0.022489252 -0.011874375 0.030432258 -0.003352297 -0.016749924 -0.040919974 -0.033400193 0.018685998 0.0025836166 -0.03484551 0.031831533 0.011893334
음 -0.08099117 -0.0027250915 -0.014207349 -0.3092389 0.09099511 0.0017905938 -0.018263714 -0.089711286 0.08261554 -0.263998 0.02870181 0.03628556 0.031309836 -0.105537035 -0.01534573 -0.07620871
것 0.04056311 -0.002903051 -0.009462208 -0.033127952 0.03808663 -0.050992426 0.018093485 -0.045245595 -0.037636966 -0.01823898 0.008215659 0.0017869403 -0.00588241 -0.012078263 0.0009849382 -0.048934996
아 0.015030415 0.033489283 -0.044642318 -0.0445109 0.034553614 0.01120092 0.030921651 -0.01333768 -0.041404776 0.054987468 -0.042981517 -0.012750322 0.026388114 0.030661898 -0.0008126212 -0.017772513
네요 -0.01495993 -0.03331801 -0.09894357 -0.38784286 0.061478257 0.062315974 -0.054664776 -0.0953367 0.06077832 -0.2970649 -0.00277267 0.0431654 -0.055084806 -0.072722234 -0.013360319 -0.07509779
재밌 0.14333546 -0.13505538 -0.1552518 -0.1663968 0.16110799 0.1266207 0.17146172 0.093480036 0.11533681 -0.16731508 0.12824918 -0.13540782 -0.097289525 -0.08016129 -0.095368795 -0.18045908
어 0.004446068 -0.000802016 0.037767153 -0.03120692 0.033043012 0.04289567 -0.011374514 -0.02215515 -0.014528359 -0.042321175 -0.0040405467 0.009013121 0.033497855 -0.025165835 0.0065236758 -0.04420812
같 -0.028093627 0.036416136 -0.043322753 -0.097380996 -0.02424239 0.00018796435 -0.016976403 -0.028297083 0.012165401 -0.06772482 -0.021866754 -0.030214813 -0.024384288 -0.029047905 -0.0016320243 0.007670485
점 -0.03964353 0.04341099 0.032743648 -0.0968234 0.036917508 0.025717204 0.015247394 -0.0035069645 0.024931427 -0.22534254 -0.038371086 0.057803974 0.030854793 -0.0019073102 0.012453652 -0.035273626
지만 0.13014705 0.004429832 0.09107728 0.53589743 -0.064918555 -0.048625764 0.0928288 0.09431058 -0.13787872 0.44210216 0.033002388 0.010339926 -0.048796188 0.17368968 -0.042458203 -0.030735666
진짜 0.07651334 0.001369751 -0.04184433 -0.055417676 0.038602944 -0.031481236 0.0039835665 0.06828915 0.017541317 -0.09507516 -0.0009844553 0.0136411805 -0.0147834 -0.072270125 0.027702799 -0.103869356
했 -0.05360635 -0.031426366 0.03456262 -0.10461992 0.009761529 -0.007502291 -0.029460052 -0.051092755 -0.010774511 -0.06635766 0.024968028 -0.0011084427 -0.002418367 -0.001245484 -0.03978399 -0.042118676
에서 -0.038053628 -0.023000216 0.042506844 0.013451006 -0.02788751 0.00016597916 -0.00016173691 0.071373805 0.023413802 -0.015184549 0.03564606 -0.026317678 -0.011722999 -0.014530469 0.039487638 -0.023631487
기 -0.063449316 0.02934962 0.063728325 -0.042392828 -0.04625597 0.030403338 -0.021600178 0.016193736 0.026011577 -0.008273093 -0.010440165 0.012196281 -0.014824782 -0.041673534 -0.04121255 -0.0043474087
네 -0.057283018 0.030665305 0.050618708 -0.09164235 0.04353765 0.002646728 0.02350239 -0.0024361976 -0.028194437 -0.0019200573 -0.029987616 0.027600314 -0.01237703 -0.08668164 0.04836267 -0.018262569
않 0.020508124 0.07187425 0.08501979 0.2867937 -0.05950887 -0.029101357 0.10667281 0.06141494 -0.11699818 0.25740495 -0.07287494 -0.010151473 -0.004309682 0.08745065 0.053166237 -0.025790865
거 0.021265332 0.03072513 -0.0027033826 0.013225333 -0.011019258 -0.06530511 -0.09121579 0.0010200052 -0.008078344 0.024494926 0.0116159385 -0.011935354 -0.0020511937 0.07002911 0.053251646 0.01652989
았 0.026651133 0.009641828 -0.0071777804 -0.021889357 -0.014612513 -0.055332392 0.0018743746 0.013181059 0.033048667 0.08165373 0.014823997 0.047620624 0.01750597 -0.004581677 -0.0071232207 0.02212937
수 0.0030096662 -0.05269017 0.010143413 0.045526553 0.02578902 0.030875687 -7.1353774e-05 -0.0027300506 -0.020930812 -0.005570079 -0.019292757 -0.0493108 -0.025106976 0.023230048 -0.05545494 -0.050741453
되 -0.034811866 0.00057130365 0.023720775 -0.1376988 -0.010743238 0.03290147 -0.008912364 -0.058699217 0.04321511 -0.0645385 0.027393624 -0.018588096 -0.03345711 -0.03789991 0.030562533 -0.07644635
면 -0.04842967 -0.0033765477 0.049023148 0.09877999 0.024392262 -0.018623665 0.024222292 -0.03511354 -0.0266921 0.016775034 -0.021316588 0.051685598 -0.03341083 0.01875493 -0.019187303 -0.006859614
ㅋㅋ 0.058238305 0.019940825 -0.038906746 -0.2072452 0.03398833 0.0011203603 -0.072074436 -0.025779393 0.09656937 -0.28860795 0.05315432 0.0503033 0.0077209948 -0.0042576897 -0.085793376 -0.062668994
말 0.043029267 -0.014599724 0.02791897 0.0010880684 -0.045946546 0.034998138 -0.047744635 0.0077207615 -0.037041493 0.05786234 -0.011185588 0.004708417 -0.0016785624 0.0498441 0.00897978 0.0076788887
연기 0.04246788 -0.056327373 -0.059781063 -0.21797629 0.012066842 0.05762731 -0.050044525 -0.06501551 0.04183117 -0.24916211 0.054283697 -0.036799468 0.00013671663 -0.07051699 0.033270374 -0.00459034
인 -0.013951512 -0.018080583 -0.031221768 -0.041827556 -0.022109212 0.04941097 0.01599014 -0.04481985 -0.017252786 -0.11385374 0.0019493299 0.02500372 0.032757018 -0.04110706 -0.024153078 -0.06729729
주 -0.005205014 0.033024378 -0.03270277 -0.17033023 -0.033603948 -0.037745375 -0.017596005 -0.015777307 0.07960153 -0.041780964 0.008051361 -0.036487434 -0.030391846 0.0131482715 0.030817986 -0.06339292
내 0.0068247183 -0.01712556 0.010324066 -0.03671856 0.015963972 0.02020238 0.015708482 -0.044288754 -0.027254578 -0.025319505 -0.034083772 -0.003481972 -0.0021872174 0.01931271 -0.039130397 -0.010181009
최고 0.14284648 -0.14186315 -0.20169362 -0.08692265 0.1377547 0.17903616 0.20046902 0.14568679 0.17672862 -0.21122523 0.15086316 -0.19832304 -0.15399538 -0.20515278 -0.13749707 -0.16469172
~ 0.02897304 -0.048131775 -0.117764086 -0.31248638 0.016606463 0.04708566 -0.13894716 -0.115237065 0.1185879 -0.27191687 0.021314811 0.07748416 -0.0480248 -0.049577396 1.05195795e-05 -0.027637465
평점 0.030217359 0.012565156 -0.005822645 -0.053950593 -0.019561248 0.025663001 0.021934059 0.00011422606 -0.037657283 0.077466555 -0.021558806 0.026849478 -0.006509463 -0.01370542 -0.020680804 -0.008550963
이런 -0.030631542 0.028251901 -0.030087648 -0.10685906 -0.0059963185 0.007932594 -0.056187812 -0.005874769 -0.040354207 -0.09424502 0.0066443747 -0.02605126 -0.00638138 0.0064247516 0.009347423 -0.011380261
던 0.03840199 -0.021714268 0.028080087 0.029817486 0.0032508057 -0.00030157057 -0.0010625822 -0.0006230141 0.007987129 0.008978687 -0.00088542147 0.045235552 -0.0025447279 -0.019090129 -0.04173333 -0.005421885
어요 -0.014711877 -0.08999942 -0.077087104 -0.37335035 0.10243328 0.0800748 -0.07543733 -0.14797767 0.09834714 -0.32385716 0.08500487 0.06773065 -0.006385186 -0.067370184 -0.115491144 -0.1198426
할 0.011391899 -0.04504689 0.04191034 0.009399422 0.028738122 0.03426646 -0.01091363 -0.022151094 -0.044802267 -0.014252143 0.030809825 0.033922095 -0.022571579 0.007764748 -0.047563013 -0.05361751
왜 0.0039483695 0.016103098 -0.0025195195 -0.020395264 0.039837148 0.017608654 0.00055038545 0.005311864 0.017578576 -0.08398146 0.016837254 0.033872798 0.0041731237 0.015736014 -0.030235961 -0.0063318494
겠 -0.053188715 0.03930252 0.023995405 0.003467595 -0.035622798 -0.024160817 -0.046888713 -0.047280055 -0.09817015 0.066288166 -0.059550185 0.03573059 0.07037573 0.09351343 0.06333402 0.024512146
1 -0.04646908 0.07514771 0.0776154 0.015713274 -0.06639164 -0.10739055 -0.0713045 -0.03154815 -0.12199685 -0.08799581 -0.042310692 0.0478952 0.063495725 0.10383059 0.06359382 0.06277487
스토리 -0.08115509 0.005317153 0.031864107 -0.060198653 -0.044579316 -0.044787932 0.0075234696 -0.0479541 -0.04060256 -0.12945285 -0.069660164 -0.026753044 0.067200154 -0.015628072 -0.014136236 -0.030210385
해 -0.04960929 -0.030579366 -0.020554272 -0.09949908 0.034904245 0.024462286 -0.009339428 -0.04774696 -0.043075297 -0.040590685 -0.028198423 0.03937994 0.02984463 -0.025085324 -0.03317389 -0.0026287236
습니다 0.0046238997 -0.0519592 0.004414819 -0.22436102 0.05017764 0.076128736 0.03129865 -0.116681404 0.074878216 -0.17773502 0.06861607 0.0060352376 -0.040516175 -0.033404086 -0.041827485 -0.035367362
ㅋㅋㅋ -0.009870028 0.0334757 -0.051656105 -0.068472005 -0.03306512 -0.02446965 -0.0006065846 -0.056712244 -0.021014307 -0.0159581 0.0430767 -0.0009820454 -0.01979644 -0.037625656 -0.05160135 0.025745729
... -0.066062994 0.004353634 -0.02246385 -0.18147558 -0.039635874 -0.021863362 -0.004806067 0.013358431 0.011632408 -0.12708159 0.019779533 0.062367354 -0.0029296083 -0.020826282 0.009136714 -0.04318951
드라마 0.033778973 -0.021340873 -0.03539635 -0.29549104 0.008266393 0.027545 -0.022014434 -0.033001933 0.13621242 -0.27559203 -0.0002678387 -0.018124232 -0.0110422755 -0.032739464 -0.07511221 -0.07157574
생각 -0.013802086 -0.04341774 -0.053640146 0.020064866 0.042130996 0.010858173 0.034114342 0.06385182 -0.042798575 -0.13158135 0.036132477 -0.0392354 -0.07032995 -0.06766847 -0.10062391 -0.09417521
아니 -0.028293949 -0.00070900354 0.094387315 0.13675088 -0.037073594 -0.09739245 0.03514162 0.0075017684 -0.14654383 0.13692528 -0.10346377 0.06792777 0.030862017 0.06454057 0.0064216866 0.0112368455
더 -0.08354732 0.0076327045 0.0042651976 -0.072347775 0.00088729843 0.0012080641 -0.0053507807 0.006850737 -0.012703958 -0.11382557 -0.0693659 0.021081917 0.017242806 0.07649457 -0.032687686 -0.041660696
그 0.04453162 0.019396514 -0.038432755 -0.031495713 -0.015199443 0.016219947 0.06361121 -0.0048077037 0.051970415 -0.0323779 0.009335318 0.033088665 -0.031011043 -0.012010967 -0.018343639 -0.035663575
싶 -0.030010894 0.014592759 -0.01723046 -0.19756489 0.018750634 0.037604142 -0.055917654 -0.08040629 0.09669052 -0.10839065 0.0064979265 0.00073722727 -0.04834911 -0.034620564 -0.02464774 -0.046803065
사람 0.03577431 -0.03858366 0.036554575 0.11814775 0.014894038 0.044458047 0.046029136 -0.014014656 -0.034053635 0.075936496 0.0101899635 5.7029516e-05 0.015976008 0.018269617 -0.03519847 -0.018518688
듯 0.0032924626 0.016705584 0.0028368672 -0.017119015 -0.022299426 0.025725963 0.012497694 0.03529998 -0.04726424 0.07799078 -0.056608647 0.037715774 0.040183786 -0.01942998 -0.017737625 0.0083406465
때 0.06600344 0.0002523835 -0.018699601 0.035086203 0.004260657 -0.01759357 0.04243824 -0.009383838 0.022393927 -0.0251568 0.06043039 -0.044978827 0.019605035 -0.02593602 0.0050430167 -0.07675407
감동 0.13270369 -0.11590115 -0.06550029 -0.23943497 0.07551021 0.07780356 0.051125664 0.032729924 0.12684658 -0.2773174 0.12576765 -0.08902716 -0.071104005 -0.05260606 -0.059381496 -0.116426244
함 0.017964277 -0.015347474 -0.046044327 -0.11443741 -0.032600198 -0.023950607 -0.026561137 -0.028422069 -0.006444716 -0.17247824 -0.0046083457 -0.0032441108 0.018233033 -0.04589537 0.026325488 -0.042805713
배우 -0.032679256 0.02969959 0.0048219454 -0.019641435 0.00197291 -0.016674455 -0.080885455 -0.027537383 -0.05465823 -0.089898184 0.032180913 -0.045341454 -0.016348327 0.08956272 0.017766315 0.029192965
본 0.0062110545 -0.056697696 -0.041616417 -0.090202495 0.04318951 -0.025081107 -0.00019200816 -0.0027279446 0.03326741 -0.1671105 -0.0030450146 -0.00081891555 -0.024969814 0.022459025 -0.036602493 -0.112847686
까지 0.011980949 0.00083701714 -0.025961677 -0.055341933 0.009093591 0.02611018 -0.067327894 -0.02326124 -0.02417178 0.07358161 -0.008809483 0.029734239 -0.015458071 0.02737222 0.03545337 -0.043874703
뭐 -0.105082266 0.030867219 0.089732125 -0.048513424 -0.083732575 -0.06781554 -0.03211005 -0.005756587 -0.02380754 -0.09919156 -0.047603156 0.014624385 0.100799516 0.039144035 0.04484983 0.060605615
알 -0.036539346 -0.023393508 0.03348488 0.05785652 -0.023698514 -0.011326007 -0.05936051 0.02189941 0.01379379 0.03117297 -0.0007545265 -0.036277764 0.06412018 0.0388336 0.04129289 0.03727492
만들 -0.008634971 -0.01394321 -0.020854015 -0.035526715 -0.041147232 -0.041690227 0.0038313037 -0.05923284 -0.01109183 -0.090130374 -0.055305425 0.055490706 0.06419519 -0.014089388 0.027296174 0.019671112
내용 -0.10856501 0.05110784 0.071462 -0.04590961 -0.009802868 -0.049232524 -0.03211755 -0.039619643 -0.0134514915 -0.07485162 -0.027351439 -0.0027039906 0.02881358 0.038145386 0.10497883 0.007899497
볼 0.038655657 -0.07876809 -0.059254993 -0.0199249 0.019899616 0.059165116 0.0588931 0.010219596 0.027668366 0.10173031 -0.0020818317 0.018662563 -0.03738798 -0.01196839 -0.041166354 -0.007972849
감독 -0.09073918 0.02872237 0.047198404 -0.14578846 -0.007896439 -0.04043293 -0.12390057 -0.10993543 -0.026877252 -0.1166932 -0.06644186 0.080914825 0.054153316 0.0039724763 0.08529611 0.035566255
보다 -0.016856307 0.010395618 -0.0015428343 0.03247876 0.03681723 -0.009280811 -0.003750537 0.079695016 -0.03770794 -0.04703602 0.055253994 -0.027216353 0.0052849585 0.022372244 -0.03935259 -0.08606957
라 -0.037238836 -0.016044881 -0.0053187422 0.10099829 0.02598076 0.037391104 0.039683834 0.055619612 -0.098507 0.07356 -0.01058953 0.018550918 0.022581432 0.07207683 -0.002410033 -0.029471572
그냥 7.648672e-05 0.06956024 0.014138542 -0.07104614 0.012528018 -0.024339361 -0.07940427 -0.072655 -0.06770296 -0.03218803 -0.070897005 0.0037008298 0.034308713 0.057147328 0.08033209 0.02973356
재미 0.010189398 -0.0053967596 -0.008662431 -0.18199149 -0.040132046 -0.0021162294 -0.032560315 -0.006328093 0.02855091 -0.19491716 -0.04151126 -0.051186863 0.015146052 -0.016680768 0.061014563 -0.022307912
시간 -0.04965192 0.018233014 0.07910261 -0.094087325 -0.03472319 -0.030070854 0.035923705 -0.042143345 -0.0072942176 -0.17157753 -0.046514444 0.0358701 0.037169952 -0.044516794 0.0067489943 0.051884513
지루 -0.08716158 0.13357173 0.21263121 0.057486553 -0.13533993 -0.0874784 -0.00027981162 -0.103770874 -0.24827024 -0.06627565 -0.16930923 0.14499979 0.09543353 0.13431484 0.085894875 0.13893762
중 0.034804564 -0.03621765 -0.039078053 -0.13560891 0.055352435 0.033851825 -0.0037202567 0.041172177 0.046168093 -0.18106364 0.048408423 0.011663888 0.0047934563 -0.02543291 -0.0032037415 -0.07282953
재미있 0.15814155 -0.15364058 -0.083693966 -0.14592883 0.11568438 0.07935233 0.07623512 0.1432285 0.17983381 -0.036589805 0.14891082 -0.169106 -0.0767556 -0.14900668 -0.07030918 -0.15352389
년 -0.010121921 0.0042606527 0.037242617 0.0012588783 0.026197243 0.00781279 -0.04719556 0.044110257 0.060372025 -0.061723888 0.014493256 -0.017066766 -0.04892625 -0.036955103 -0.010289625 -0.043302234
10 0.11442974 -0.08320325 -0.1298327 0.03602779 0.120815806 0.09018964 0.10062553 0.12900236 0.12377088 0.2966959 0.11902901 -0.14053628 -0.11217063 -0.03592525 -0.07468975 -0.113532566
였 -0.025654672 -0.029116577 -0.06407503 -0.06888002 0.05510527 0.013965867 -0.02662609 -0.063416876 0.043864805 -0.11746932 -0.0061735655 0.0021933443 0.021037633 0.006517045 -0.066565186 -0.05814706
잼 0.058525864 -0.08571467 -0.116022475 -0.2599104 0.09093632 0.055910762 0.0057438933 0.030916575 0.061315384 -0.36675018 0.04103767 -0.08238756 -0.06270513 -0.10618875 -0.080934085 -0.13686295
사랑 0.09615057 -0.09785689 -0.09771912 -0.07892263 0.057317533 0.011697094 0.051154047 0.0814871 0.11883748 0.019428555 0.024355005 -0.09262907 -0.091504976 -0.010109393 -0.09221315 -0.06431745
못 -0.04630573 0.020100739 0.071453355 0.0581873 -0.031839713 -0.071357645 -0.022116993 0.002154772 -0.08595441 -0.0019160577 -0.0543763 0.039260797 0.03216269 0.079087965 0.08090122 0.055742893
냐 -0.003866202 0.023888865 0.050225057 0.053872 -0.08216091 -0.059538867 -0.0025270404 -0.005085063 -0.12100779 0.0015127487 -0.06702262 -0.0007124753 0.058819547 0.11358138 -0.002115525 0.059982035
재미없 -0.15621498 0.23181345 0.19796439 -0.20375113 -0.21100405 -0.18369341 -0.2029396 -0.2347182 -0.17390473 -0.19015019 -0.21221396 0.2747577 0.21079399 0.13966967 0.17673576 0.17103137
쓰레기 -0.1477877 0.21906729 0.19091152 -0.13177142 -0.1751449 -0.20356993 -0.20958583 -0.18927737 -0.1863931 -0.19553207 -0.16440713 0.20871487 0.20557962 0.17012797 0.13711414 0.24738066
서 -0.023765355 0.0044373274 0.015481652 -0.019962098 -0.03672556 0.010762215 -0.03634773 -0.02766428 -0.048302818 0.07160688 -0.043070756 -0.032109685 -0.04817897 0.019001914 -0.03138989 0.0049345135
2 -0.01513397 -0.0026910636 0.048340708 0.091691524 0.0035273377 -0.0777331 -0.0125324335 0.038594153 -0.09933831 -0.03549645 -0.02343798 0.022860397 0.051320057 0.042005237 -0.031597912 0.06396307
라고 0.02595642 0.07503687 0.11263018 0.013467957 -0.054401655 -0.07126086 0.0025800935 0.049359765 -0.052178685 0.037501417 -0.03386174 -0.0051018083 0.056148898 0.13522966 0.014752196 -0.02074007
야 0.01460501 -0.012196527 0.06809858 -0.05117372 0.04165558 -0.034687344 0.01044075 0.007331975 0.0055734883 -0.063929714 -0.020774726 0.031869844 -0.012517019 -0.03280009 0.014825277 -0.038538817
니 0.014910092 0.014164052 0.052149586 -0.06477644 0.015296844 -0.04060142 0.051152274 0.028886417 0.009398475 -0.09761127 0.020354401 0.05358424 -0.021711923 0.004947261 -0.02141491 -0.0092404
면서 0.007664004 -0.016848603 -0.029283725 -0.035676368 0.006982636 0.036333777 -0.04754915 -0.012161284 0.09372179 -0.063052125 0.07363781 0.013732854 -0.022290394 0.0048391 0.0109469015 -0.027107254
번 0.02559974 -0.028166028 -0.0658014 0.007228246 0.028266454 -0.014849794 0.009353138 -0.011976753 0.042026103 0.050354816 0.034148265 0.018790606 0.029599056 -0.0061593354 0.029095486 -0.06472822
다시 0.033173446 -0.039778806 -0.08366129 0.06412384 0.029390331 0.03655594 0.06986696 0.108482935 0.020509161 -0.055334233 0.052469328 -0.037811503 -0.1069015 -0.03366855 -0.0544848 -0.044731364
나오 -0.035666034 -0.033976566 0.04049802 -0.097836256 0.036507796 -0.05238753 -0.038801055 0.013852985 -0.02453515 -0.07607304 -0.04298078 -0.0136172185 -0.0027596478 -0.021216922 0.021024002 -0.017583601
작품 0.05161605 -0.044443086 -0.08172497 -0.06079008 0.0018591706 0.046984226 0.036790624 -0.020134382 0.014517408 -0.17138004 0.03224534 -0.003838582 0.022507727 -0.06365825 -0.04211501 -0.042785328
이거 -0.02380694 0.020704618 -0.022615787 -0.06809575 -0.049553487 -0.00032567978 0.01494373 -0.06317028 0.045335982 -0.07355721 0.018062055 -0.018832427 0.0069608428 -0.015396551 -0.015949076 0.009978002
하나 0.021281341 0.04309881 0.06991141 0.036107153 -0.04406993 -0.045839537 -0.031512104 -0.0170247 -0.062055595 0.024582494 -0.007745215 0.016275076 0.007202603 -0.022253705 -0.030751962 0.021912565
줄 -0.042097677 0.034492593 -0.00037121645 0.10029486 -0.066563584 -0.00014267451 -0.005214805 0.020984052 -0.08184309 0.05941287 -0.040377952 -0.015941974 -0.020656947 0.06825063 -0.019554827 0.065738104
해서 -0.013777047 0.012742804 0.01713518 -0.02099932 -0.0020911964 -0.0051064393 -0.023113191 0.014521807 -0.039289612 0.04451731 0.028921671 0.013780528 0.052140497 0.010016632 0.038062662 -0.029226474
개 -0.06154279 0.042114243 0.047911085 -0.022306245 -0.0038090874 -0.001512164 0.010812824 0.023294255 -0.041279383 -0.07036572 0.027728362 0.023470536 0.027538031 -0.0034786887 -0.016545394 -0.038998324
남 0.040409654 0.0013949226 -0.013363464 -0.20726639 0.060500186 0.025038114 -0.017496051 -0.07492582 0.0067081423 -0.21092893 -0.03260644 0.027574271 -0.0038355433 -0.040438674 0.009284575 0.0025344316
정도 -0.033435978 -0.024814362 -0.014124198 0.044004682 -0.045297608 -0.03976245 -0.0065510576 0.019756742 -0.020672591 -0.051302973 -0.05291559 0.024404742 -0.02008634 -0.04601597 0.02963175 0.065912455
마지막 0.035454646 -0.026898067 -0.016403727 -0.0050116624 0.041296545 0.01947064 -0.006256358 0.038907923 0.048855744 -0.13926555 0.02888356 -0.04711862 -0.07931554 -0.06272483 -0.054503262 -0.08959939
끝 -0.057115633 0.046553675 0.06585493 -0.07338633 -0.007514046 -0.053567294 -0.057895027 -0.014825568 -0.054027274 -0.04413502 0.021089615 -0.013138027 0.06218077 0.0013754007 0.020390317 -0.013619926
이건 -0.07529531 0.0842133 0.047205247 0.07617765 -0.09719193 -0.123985805 -0.051449835 0.0015304672 -0.13713816 -0.011559607 -0.11308117 0.042768747 0.04079907 0.0703927 0.08546338 0.060885344
액션 0.06198031 -0.03859928 -0.028207855 -0.010016792 -0.011749083 0.035478435 -0.016420543 0.059913874 -0.025116075 0.055586886 0.06491164 0.009544234 0.00528062 0.017513093 -0.0026844705 -0.055373747
임 -0.02169509 -0.021148913 -0.0057203425 -0.15891172 0.01795415 0.0338668 -0.015377268 -0.06482707 0.03904991 -0.10560899 0.007979248 -0.036991455 -0.011205773 -0.034761414 -0.037027407 -0.07155898
ㅋ -0.010634948 -0.013545666 -0.10175956 -0.14158668 -0.015797395 0.02693872 -0.12004528 -0.018708771 0.053762067 -0.19674931 -0.0046378938 -0.001452344 -0.049999624 -0.058934197 -0.07192019 -0.047781795
3 0.0018423054 -0.010392897 0.059567533 0.025897542 -0.058456235 -0.044563927 -0.011287686 0.038627002 0.008126061 -0.06877877 -0.055166297 0.058763705 0.016884102 0.019037936 0.0096546225 -0.027566087
기대 0.044853766 0.03777155 0.018036844 -0.0657009 -0.033863638 -0.0040102876 -0.12036746 -0.044871964 0.05159653 0.081742905 0.047173806 -0.02538208 0.02368447 0.012015862 0.09156365 -0.050269824
입니다 -0.019932043 -0.011994513 -0.07806771 -0.28806755 0.017577864 0.10783379 -0.0035396977 -0.110166594 0.095925085 -0.23404159 0.0702058 0.03585788 -0.06458035 -0.046504747 -0.046557877 -0.035816513
건 -0.002585208 0.0069278073 0.04809008 0.08552762 -0.030592091 -0.013177497 -0.033403188 -0.06853944 -0.050339505 0.03523017 -0.034375843 0.06809674 0.04442076 0.047183413 0.029983144 0.02310542
라는 -0.022302544 0.0099203875 -0.010702275 -0.02228145 -0.015056058 -0.021908915 -0.01769085 -0.03410249 0.023548348 -0.07720429 -0.033488218 -0.01885019 0.04225986 -0.00822604 -0.05790499 0.015456818
분 -0.021061601 0.0499409 0.03312794 0.039320063 -0.06635605 -0.06354854 -0.0650747 -0.04008265 -0.068616025 0.11856146 -0.056552548 0.026350275 0.0952413 0.13145897 0.06843779 0.07514123
완전 -0.032070987 -0.04141841 -0.04298612 -0.11936076 -0.01782545 -0.020331673 0.016873911 0.029699912 -0.012491131 -0.2424341 -0.02475321 -0.02224422 -0.023895679 -0.07773114 -0.0008664088 -0.08204794
다는 0.0141687365 0.020932091 -0.00028257055 0.043886293 -0.03152086 0.0236717 -0.011424969 -0.022155063 -0.012918594 0.063790135 -0.008332635 0.050276678 0.028714798 0.0990116 -0.037530586 -0.027935887
참 0.00044438755 0.017989058 0.021708786 -0.03994986 0.024300585 -0.056375094 -0.0022504157 -0.0172695 0.018779319 -0.058304965 -0.040756337 -0.00038035327 -0.0011861474 -0.053467363 0.03558922 0.038675636
많 -0.018080642 -0.01765944 0.01592651 0.09340768 0.03487651 0.06450956 0.10598102 0.024496043 0.0016946068 -0.03726437 -0.013854288 -0.06401478 -0.0607792 -0.05258448 -0.08893108 -0.011357237
처음 -0.08023221 -0.022754658 0.06757071 -0.0095490115 -0.050227113 -0.030452985 0.054032266 0.050254546 -0.033049714 -0.20961626 -0.005130544 0.027263481 0.06292469 -0.01929535 -0.0123484535 0.03532178
장면 -0.027843367 0.030845586 -0.014856794 -0.02659472 -0.033434696 0.03610029 0.028467465 0.036268488 -0.00432111 0.03406188 -0.024126405 0.020421196 -0.04432738 -0.03996932 0.015273511 -0.03641019
대 0.032280743 0.037063845 -0.0016060302 0.1090481 0.010006348 -0.061120786 0.053932227 0.025138784 -0.04910043 0.12359167 0.01755401 -0.04633397 0.019066941 0.09280686 -0.015895875 0.017626949
아깝 -0.11826043 0.0752744 0.10920486 -0.19282499 -0.094595425 -0.033157557 -0.12038384 -0.081103675 -0.08697273 -0.10369775 -0.07864023 0.14019014 0.07746813 0.05458519 0.007508426 0.14706187
다가 -0.012159877 0.059917904 0.077817135 0.04870353 -0.048795536 -0.0009650241 -0.0072591975 -0.04450569 -0.072421275 0.003343958 -0.04198364 0.040385146 0.019110976 0.06005591 0.07278322 0.033373877
으면 -0.044234984 0.049199976 -0.024535963 -0.035560977 -0.017821467 0.027402429 -0.02598327 0.008474073 0.007829595 -0.03858057 -0.05627988 0.035069156 0.0043925536 0.04098841 0.006459764 0.00039754296
지금 0.022625765 -0.013138067 -0.036885157 0.06952747 0.017228398 0.015311112 -0.011136605 0.043552414 0.06114351 0.092978984 0.02327832 -0.0020721608 -0.015942123 -0.06897952 -0.07950467 -0.06364787
모르 0.035512846 -0.030531364 -0.01779386 0.0928573 -0.040813204 0.009272287 0.05918311 0.015846655 -0.026944095 0.0665059 0.005520704 0.02496741 -0.019220494 0.0010766123 0.006632195 0.02650673
이렇게 0.012064483 0.024254419 -0.03643271 -0.08270029 -0.042782437 0.022762485 -0.038768407 0.027839538 -0.0014594821 0.012210299 0.0012022071 0.00959452 0.038218185 -0.00937505 -0.008278573 -0.013785445
' -0.031564288 0.038623795 -0.018534472 -0.021116648 -0.0461437 -0.057887852 -0.050181244 0.027374847 0.012929222 0.034526 0.018698875 -0.034152064 0.033481654 0.021340646 0.06652576 -0.028972795
편 -0.006672546 -0.03746836 -0.008188911 0.029900014 0.06157502 -0.019936336 0.028644662 0.004435656 0.0030039705 0.020658424 0.05196455 -0.041967932 -0.02314189 -0.009278455 -0.0035878983 -0.047229316
일 -0.022883674 -0.01193886 0.018808328 0.03009763 -0.05515261 -0.049901295 -0.014716089 0.0076824888 -0.059559107 0.044947863 0.02622659 0.001366965 -0.019517904 -0.0221139 -0.005913557 0.026747836
돈 -0.052080017 0.112209216 0.1381345 -0.11581188 -0.084647894 -0.10480701 -0.10496535 -0.12601484 -0.12024331 -0.10241464 -0.09812783 0.089159995 0.085069425 0.13739607 0.04784459 0.09879918
이게 -0.08382725 0.04391404 0.041744336 -0.04611587 -0.08967381 -0.013277383 -0.07142334 -0.010340915 -0.013905664 -0.12677434 -0.0099055935 0.042996462 0.054214425 0.036219027 0.083980896 0.025248507
성 -0.024577398 -0.02035998 0.027161438 -0.0023971207 -0.01860042 0.0075740814 -0.05137726 -0.06853544 -0.009536039 -0.05483804 -0.04622404 0.010362043 0.050072856 -0.016711025 0.05900099 0.0048948987
느낌 -0.03211852 -0.01603482 0.065600425 -0.12812242 -0.05431375 0.041595936 -0.045828983 -0.0075947926 -0.027861003 -0.13720761 0.028350657 0.041993327 0.07052007 -0.03689701 0.04467298 -0.027557986
시 0.013592692 0.03148206 -0.033064175 -0.013111466 0.024815645 0.028535219 0.0067143673 -0.016987327 0.018767208 0.023934087 0.022342313 0.013871887 0.035475742 -0.05818548 -0.02378308 0.021233939
이야기 0.043178506 0.033478443 -0.05124611 -0.051811233 -0.012134451 0.036814936 -0.03581537 -0.047354586 0.06688143 -0.093653835 0.0354669 0.04020912 -0.023137365 -0.027206331 -0.06204325 0.0026920128
최악 -0.2815206 0.31327027 0.25897068 -0.3932179 -0.26598626 -0.31994188 -0.38272846 -0.40454245 -0.24883576 -0.34095547 -0.29397422 0.3899515 0.33692312 0.29005066 0.3160511 0.38435403
된 -0.01125613 0.025255628 -0.0240751 -0.04958906 -0.023777198 0.04395968 0.017902775 0.018488577 0.028997978 -0.062481098 0.012477797 0.04067331 0.012825094 0.006087931 -0.012184695 0.027714074
봐도 0.03980102 -0.05262889 -0.10914777 -0.23549813 0.099224195 0.07500796 0.07284199 0.029355632 0.059065368 -0.30308425 0.0455428 0.014138649 -0.07673839 -0.08594377 -0.03810791 -0.07603069
님 0.06577837 -0.054973137 -0.01627201 -0.11169834 0.022017071 0.015712013 -0.04533807 -0.018108157 0.042975355 -0.12330655 0.0053967796 -0.045325093 -0.0100086015 0.010800966 -0.06797581 -0.031690024
어서 -0.06529913 0.023148041 -0.04136549 -0.03950605 0.03399818 -0.008993487 0.059198797 -0.012230632 0.03252891 -0.087919645 -0.04074548 0.009997925 0.022052255 -0.057333417 -0.037660867 0.026052454
애 -0.07106159 0.011342618 0.01916053 -0.10551629 -0.061604418 -0.053345274 -0.022813426 -0.04090266 0.02850379 -0.053634632 -0.002921633 0.051553465 0.04225605 -0.020330157 0.0053034355 0.004352961
전 0.04336647 -0.041927665 0.033274483 -0.05194369 -0.008535799 -0.043168485 0.034882702 -0.034516998 -0.020567032 -0.042664494 0.041837487 -0.016929729 0.03034555 -0.043948192 0.026828112 -0.043724287
넘 -0.0030133994 0.0026249809 -0.048635874 -0.07105082 -0.022458227 0.04046177 0.019684372 0.0057636844 0.061804656 0.011182392 0.024900392 -0.0115619125 -0.015315178 -0.051905483 0.040563017 -0.026239455
ㅠㅠ -0.0053347624 -0.04139164 -0.030245865 -0.17599736 0.052339025 0.06397983 -0.02342118 -0.016524158 0.13251612 -0.1529519 0.041736744 -0.004564006 -0.034128953 -0.0485849 -0.069597796 -0.084670566
인데 0.027845846 -0.019246994 -0.013700483 0.0018229468 -0.0022597758 -0.021313159 -0.0123005 0.03135818 0.008078798 -0.05381999 -0.036410127 0.055592157 0.05917608 -0.039278183 0.037372302 0.012344772
다고 0.013468193 0.06814337 0.06529091 0.24695387 -0.07362041 -0.10160701 -0.0010027494 0.023057872 -0.096979864 0.2888357 -0.008911786 -0.0019829322 0.028822765 0.19122502 0.01095592 0.051303737
이해 0.0077861375 0.008560754 0.04256165 0.009820325 0.013289953 -0.026812436 -0.019023266 0.05631987 -0.009816541 -0.00043519412 0.009920682 0.017366808 -0.030738486 0.022834651 0.014230506 -0.037252862
별로 -0.1656442 0.15294659 0.21283111 -0.14874466 -0.15910739 -0.11602971 -0.1417556 -0.19136056 -0.23406278 -0.16322333 -0.18985835 0.18827944 0.15121716 0.118379466 0.13753639 0.17584544
그리고 0.022849495 -0.07771015 -0.00511117 -0.066337235 0.044087157 0.050564103 0.02200825 -0.024229143 0.073654935 -0.04667893 0.012381907 0.0043872143 -0.037944272 -0.008373699 -0.031600483 -0.057851255
명작 0.13654761 -0.16633584 -0.1477744 -0.11994926 0.14679395 0.2091942 0.14231361 0.19093783 0.23453236 -0.14533728 0.146984 -0.20735016 -0.17892136 -0.13091484 -0.15668172 -0.18091725
여자 0.033959392 0.07610167 0.009047726 -0.01628264 -0.028175171 -0.04347079 -0.05988554 -0.046507817 -0.055346217 0.08257482 -0.034833882 -0.012946762 0.053991433 0.012144761 -0.026425514 0.033126187
^^ 0.08938605 -0.103598006 -0.071913764 -0.057705697 0.06269101 0.08135821 0.024946004 -0.09039876 0.1031571 -0.10354507 0.020112853 -0.0055432753 -0.048163164 -0.039884496 -0.06821454 -0.12741646
역시 0.019642998 -0.075683884 -0.018307688 -0.09584568 0.0631286 0.03247778 0.04129852 0.046440925 0.06405545 -0.10041293 0.019726729 -0.027352737 -0.013441129 -0.035247043 -0.02890038 -0.038026534
난 0.0856632 0.003382484 -0.049097046 0.047893465 0.0049048676 0.02235648 0.026135532 0.08469869 0.026469396 -0.008071614 0.044269834 -0.06199781 0.011004992 -0.0339979 -0.030936163 -0.09919567
이상 -0.036426984 -0.0052738884 0.028131573 0.0070649963 -0.0023356488 -0.017783036 0.0004349967 0.017210657 -0.03626129 -0.027663825 0.011965547 0.030498024 -0.00610628 -0.013370344 -0.053604424 -0.035985254
또 -0.00021150295 -0.016204279 -0.0713681 -0.07038354 0.06872513 0.08211444 0.02540334 0.023013333 0.061190825 -0.12136412 0.05197885 -0.028137704 -0.07026036 -0.060225647 -0.04269532 -0.11464265
걸 -0.06249404 0.049188636 0.0068388716 -0.032716084 -0.022694858 -0.068854496 -0.01723965 -0.06438118 0.0186324 0.035024527 0.014799915 0.016773425 0.033962104 0.026471084 0.015550171 -0.004642927
한국 0.065715745 -0.036705412 -0.04908555 -0.005605031 0.0062600197 0.0036540502 0.0212559 0.017200671 0.007121209 0.053519204 -0.01297785 0.016227936 -0.014799643 -0.0150567945 0.0037159016 -0.010280621
는지 -0.029353833 0.020512173 0.045883648 -0.04427999 -0.021214271 -0.055609614 -0.07620625 -0.039777797 -0.0270726 -0.11104294 -0.022444135 0.038595956 0.03681944 0.0788682 0.04381819 0.02197073
많이 0.03187289 0.04205695 0.014038671 -0.07358654 -0.013330054 0.011615174 -0.019142535 0.011048017 0.005047434 -0.04705569 -0.038080342 0.03716153 -0.031175729 -0.059562977 -0.02363325 -0.0063701
에게 0.04943452 0.023685494 -0.061043795 -0.046318438 -0.02583563 0.0075821634 -0.03494749 0.025766486 0.05260656 -0.08348426 0.007762896 -0.01789955 0.034148254 -0.024313753 -0.02628644 -0.034208395
부터 -0.0429851 0.039730623 0.04903166 0.07602031 -0.014823609 0.0098940255 -0.053133823 0.044014495 -0.06973059 -0.018422272 -0.06280127 -0.01633457 0.0028063478 0.048404936 -0.0023193497 0.042455938
만든 -0.05329256 0.0061273184 0.019834688 -0.024436777 -0.048903223 0.024847366 -0.01728979 0.0015438652 -0.014741551 -0.046446852 0.033814657 0.009428944 0.0056859283 -0.02618313 -0.020675555 0.0035231083
주인공 -0.076792605 0.023015125 -0.009221243 -0.09677252 0.0014420687 -0.056980245 -0.08472068 -0.017524512 0.025476545 -0.06783085 -0.057576943 0.05148203 -0.0058545545 -0.0045434646 0.0016468726 -0.03703615
받 -0.016356984 -0.025713261 -0.030291837 -0.05536135 0.035890214 -0.016856851 -0.027473684 -0.024486713 -0.009679886 0.0011795113 -0.03784237 -0.04234733 0.012376008 -0.029618716 0.0047198436 -0.07324706
합니다 -0.019840997 -0.054242402 -0.06681664 -0.16895543 0.023227455 0.025968423 -0.016648931 -0.023723777 0.016673777 -0.046406794 0.04081702 0.018796492 -0.059291497 -0.0471851 -0.031770445 -0.07194822
우리 0.04453678 -0.020302424 -0.032242145 0.032495372 0.019367056 0.03460013 0.04073851 0.07417994 0.08910271 -0.04740488 0.050555814 -0.05244802 -0.08291401 -0.0533735 -0.04899452 -0.13098419
두 0.030272692 -0.027210005 0.028502885 -0.03875244 -0.0095071765 0.0063570687 0.03594766 0.038867466 -0.0155389635 0.020601451 0.022254039 -0.024789486 0.038510352 0.07601178 -0.026282806 -0.006915937
살 0.0019904436 -0.038477123 -0.05508248 -0.036298603 -0.013022373 -0.01708126 -0.0033446834 0.037210807 0.06307292 0.06403921 0.0018975798 -0.05770543 0.01928068 -0.07695855 -0.06054114 -0.04375841
!! -0.027728854 -0.038012315 0.005967909 -0.12129657 0.0048088604 0.003796411 -0.10800377 -0.12084201 0.038265605 -0.17931594 0.024841882 0.053076454 -0.03230963 0.031500656 -0.057637256 -0.023754057
길 0.0016086935 0.0315236 -0.0470455 -0.075489454 0.034909453 -0.023870694 -0.041731253 -0.013009317 -0.011309613 -0.07442125 0.027284956 0.06661926 -0.021812491 0.024971204 -0.03468381 -0.022235772
엔 0.0027510128 -0.043462034 -0.0034405922 0.048639707 0.014481405 0.024632633 0.033476036 0.03625418 -0.07513477 0.042960968 0.0020277235 0.052699257 0.06269274 0.08858728 -0.027953587 0.0010073016
괜찮 0.08096384 -0.09186359 -0.09321291 0.048011575 0.08897383 0.09081136 0.059456963 0.020230215 0.11055942 0.05054595 0.12780973 -0.14303401 -0.12045496 -0.121548705 -0.103918076 -0.07992131
기억 0.059588116 -0.015031288 -0.044317443 -0.1491009 0.04140952 0.048555426 -0.013033456 0.009632189 0.040391073 -0.10853257 0.027671805 -0.07710883 -0.06246697 -0.031190833 -0.045007687 -0.079305455
연출 -0.015089993 0.021108514 -0.0041137678 -0.12550709 0.010671649 0.025785692 -0.027361816 0.009623432 0.009036697 -0.12063925 -0.038540512 0.008523361 0.012990456 -0.028141465 -0.002837986 0.0030050022
한다 0.042447355 -0.0146730095 0.0082139615 0.0007381714 -0.022443565 0.041534916 0.05089275 -0.022092227 -0.023686403 0.04254247 0.031042423 0.0030663204 0.022061264 0.026112419 0.012372313 -0.029744659
때문 0.022803627 0.055322398 -0.031180063 -0.050488096 0.036947735 -0.05159576 -0.0681474 -0.021434182 0.016615141 0.0001810449 0.035642117 -0.04861694 -0.034737136 -0.034005474 0.058977634 -0.018755088
이나 -0.047631565 0.010010875 0.017767087 -0.060230065 -0.0020713035 0.004439592 -0.010247007 -0.076325305 -0.041701805 -0.05652365 -0.088511296 0.071930975 -0.00036865252 0.024116399 -0.0048422203 0.0711783
ㅎㅎ 0.05778283 -0.121677525 -0.120060965 -0.2491623 0.04674521 0.04410689 0.0726072 -0.028419252 0.08583613 -0.2087161 0.06115835 -0.049546804 -0.03602562 -0.023964757 -0.0777303 -0.09991974
요 0.0028125679 0.0068342537 -0.10843252 -0.1589412 0.06414453 0.012449749 -0.051442143 -0.077551484 0.111109994 -0.1347442 0.051597767 0.037011404 0.011488764 -0.048311237 -0.07949084 -0.012895524
저 0.06422179 -0.02022161 -0.012882654 0.02290747 0.005899712 0.041250568 0.027196527 0.09607081 -0.050708897 -0.055063136 -0.03176327 -0.06022402 0.006191937 0.035330765 -0.009691193 0.0053155357
재 0.10252024 -0.07876426 -0.10955733 -0.15370166 0.05009661 0.013369679 0.061893936 0.031862892 0.08031744 -0.12337091 0.10236156 0.0066049383 -0.06699956 -0.02642745 -0.022880128 -0.058416713
꼭 0.042129584 -0.096262276 -0.10222842 -0.077568196 0.14707318 0.13975608 0.07589825 0.07273868 0.063542105 -0.10824505 0.13346602 -0.12767011 -0.10981161 -0.102670304 -0.0906695 -0.091516934
랑 0.008087617 0.057996918 0.045488905 -0.005820905 -0.00395835 -0.033357464 -0.021462342 0.00085769757 0.017754992 0.04604331 0.03192816 0.037294153 0.019552616 0.043914966 0.014548496 0.0016473158
며 0.00012514362 -0.012466493 -0.033792496 0.0048911353 0.016536484 0.010317385 -0.054482345 -0.0030268817 0.005446145 -0.028308885 -0.039845325 -0.01995711 -0.034058243 -0.016813638 0.037692018 0.020490492
현실 0.031200306 -0.016667306 -0.016152203 0.0979693 0.08555817 0.027833758 0.02776938 0.11547721 0.07929551 -0.015393246 0.036973525 -0.04486717 -0.108489834 -0.05594234 -0.08292438 -0.031117879
긴 -0.035568785 0.07603784 0.093314506 0.21484786 -0.06885978 -0.051445156 0.08693966 0.076749474 -0.11594512 0.14509636 -0.0748008 0.012107285 0.007032387 0.061431754 0.03833108 0.012889052
ㅡㅡ -0.06403953 0.048353195 0.07688376 -0.027703553 -0.106794536 -0.11943634 -0.03204471 -0.03325462 -0.114824526 -0.09724463 -0.053394105 0.11224235 0.07197388 0.043515544 0.080890074 0.0877447
무슨 -0.10730616 0.0755135 0.06921514 -0.113155365 -0.07356943 -0.103822954 -0.08748382 -0.105991825 -0.035450954 -0.06201993 -0.07123498 0.09470612 0.09977196 0.12707274 0.072523035 0.06859657
내내 -0.034880918 0.020510392 -0.022560243 -0.10584734 0.012569606 -0.025264578 -0.009964668 0.0046574795 -0.059128545 -0.05235059 0.02039976 0.02933144 0.031895556 -0.016984766 0.0110071795 -0.02830209
결말 0.03579424 0.02880604 0.001814146 -0.05923839 0.023515392 -0.01179092 -0.0057401103 -0.011874891 -0.025797248 -0.08561183 0.034029786 -0.019787824 0.010640987 0.0076616704 -0.019472545 0.007832946
죽 0.024990479 0.0064559556 0.0012871195 -0.016648896 -0.032086138 -0.012494801 -0.05049502 -0.029075196 0.02502269 0.022460718 -0.03936687 -0.0058122445 0.0047680037 -0.047542114 -0.042121105 0.026389059
남자 -0.037500806 0.020025434 0.022340544 -0.04400299 0.003382453 -0.022449106 0.016085353 0.046534944 0.05197025 -0.0424691 0.03207243 0.0053927866 0.011570083 -0.0075065326 -0.0074872845 0.018178854
세요 0.003687898 0.04456245 0.0032416945 -0.05732292 -0.012692029 0.006233712 0.006422725 -0.07056133 0.001775792 -0.017999027 0.024563944 -0.0035427387 -0.016652755 0.0063262163 -0.0033386685 -0.05628511
전개 -0.07134008 0.03282986 0.07844026 -0.005062666 -0.04415628 -0.072468236 -0.07891464 -0.068102084 -0.09281305 -0.025655303 0.0005346176 0.06904932 0.07859811 0.05334537 0.015376806 0.02478073
마음 0.054462984 -0.10244851 -0.09804455 -0.015474884 0.037234925 0.07117836 0.06602711 0.054493144 0.0041750073 -0.055772845 0.05079263 -0.09769461 -0.041173298 -0.037818693 -0.017923212 -0.10755467
소재 -0.007920433 0.106935084 0.074611984 0.05052101 -0.071450144 -0.1239143 -0.01782938 -0.021577304 -0.07262104 0.046200752 -0.034047015 0.084050104 0.01782556 0.091057666 0.06997199 0.08226494
속 0.03886049 -0.024578577 -0.0024784307 -0.08506017 0.041465916 0.027228732 -0.0013193861 -0.03852167 -0.015960256 -0.071855165 0.0067681167 0.010457633 0.034362223 -0.014501304 -0.016323159 0.017570538
공포 -0.024537453 0.010104604 0.06466563 -0.12663867 -0.031557627 0.00871666 -0.083536655 -0.02374462 -0.026319651 -0.09274931 -0.07888738 -0.014065436 -0.0038410856 0.073020086 0.088894226 0.002749477
아서 -0.01707231 -0.030933673 0.06141396 -0.02557891 -0.053157557 -0.017414397 -0.027850097 -0.050467398 0.014692901 -0.060992338 -0.054318897 -0.00010359641 0.0008381861 -0.01146435 0.05373181 -0.025990797
다른 0.01941696 -0.0007812169 0.0046770074 -0.0056661903 0.045029566 -0.022196822 -0.00028880493 -2.5228597e-05 -0.006610749 -0.047641065 0.026242739 -0.020201882 0.047595635 0.0013204392 0.0053827236 -0.012940508
씨 -0.05143856 -0.011116354 0.035750654 -0.07505628 -0.026606813 0.042170756 -0.026899941 -0.029110057 0.04903207 -0.061117213 -0.028686969 0.04396298 0.0044041495 0.031204607 -0.039056446 -0.008421664
인생 0.08789887 -0.03462072 -0.037666403 0.116091244 0.06413493 0.044242002 0.121118985 0.05105453 0.055398136 0.09206987 0.06223792 -0.08686113 -0.0957669 -0.03662774 -0.047247183 -0.06767825
~~ -0.043884926 -0.0010715751 -0.046131857 -0.21411738 0.02362478 0.07532391 -0.062626 -0.03062707 0.09095561 -0.22089572 0.044059765 0.03032545 -0.005558987 0.0050466754 -0.016209768 -0.082623124
짜증 -0.15982385 0.1917046 0.122955054 -0.19802834 -0.1434191 -0.12048942 -0.117613144 -0.105907485 -0.13874628 -0.15480196 -0.16223328 0.1747924 0.08628411 0.11704252 0.08696117 0.14725189
짱 0.09362756 -0.15902142 -0.14463484 -0.2453754 0.14492454 0.12067032 0.024786923 0.04535423 0.13303924 -0.2270807 0.16689885 -0.11229997 -0.16803905 -0.069888644 -0.06508406 -0.14856891
뿐 -0.08283615 0.061817333 0.029509155 0.09123667 -0.044044785 0.004332182 -0.043252688 0.025212822 -0.0718775 0.072620705 -0.043996718 0.030258924 0.06561256 0.011109151 -0.017835576 0.08785992
은데 0.05262912 0.022407407 0.04027555 0.12455762 -0.025608037 0.02450563 0.0034074008 -0.026187247 0.039858688 0.20249383 -0.027476978 -0.0310911 0.032775324 0.079263374 -0.028352786 -0.003893038
별 -0.031442434 -0.0015292622 -0.023560513 -0.050438795 -0.06371669 -0.029617986 0.036039796 -0.04757332 -0.059020627 -0.1092174 -0.06985666 0.019152516 0.006375989 0.029370978 -0.02679503 0.01896744
아요 0.020107094 -0.035029195 -0.028901067 -0.18486257 0.08576823 0.06587809 0.032736804 -0.061203826 0.013618237 -0.08026166 0.03533119 -0.022645663 -0.048698477 -0.029887993 -0.096590504 -0.09802541
유치 -0.1465663 0.1304206 0.14340046 -0.05404034 -0.111553445 -0.06821133 -0.09858951 -0.12039842 -0.14461479 -0.12172394 -0.1480807 0.17760657 0.15172648 0.12787117 0.080387495 0.17686611
가장 -0.015139563 0.0023592669 -0.006701838 -0.03867615 0.054749455 0.03227222 0.01929974 0.05819868 0.04633173 -0.17782454 0.0010610046 -0.005089389 0.017142728 0.008803395 -0.03729226 -0.005350074
필요 0.104715794 -0.11437265 -0.11279346 0.1319167 0.1069112 0.10022922 0.13939196 0.12553057 0.12587824 0.18234655 0.0704575 -0.11820451 -0.11918779 -0.048951946 -0.09490251 -0.114085615
음악 0.062486745 -0.06478914 -0.044889566 -0.007828519 0.03905401 0.07540707 0.07262242 0.011153096 0.0005230509 -0.018476276 0.002072449 -0.06503836 -0.012297321 -0.1051421 -0.08380188 -0.013136174
) 0.0033731959 -0.01213174 0.016268041 0.041748993 -0.020625554 -0.0178924 0.032751624 0.03318211 0.0314139 -0.04473003 0.0071910797 -0.009244665 -0.035318 0.03351419 0.025857145 -0.06332475
일본 -0.040852837 0.035794422 0.044423763 -0.04354451 -0.02824253 0.0064022113 -0.018791512 -0.045546386 -0.038556878 -0.007875255 -0.076730706 -0.0060678637 0.023316655 0.05939132 0.021435963 0.055767816
낮 0.14516087 -0.17825341 -0.11431255 0.062009964 0.10214049 0.12824726 0.091648966 0.1201549 0.08357067 -0.043971412 0.10155846 -0.15174328 -0.1492435 -0.16117267 -0.12155551 -0.18462762
아이 -0.030947216 0.032982476 0.022448968 -0.13950028 0.016424417 -0.023551958 -0.03752893 0.007530841 0.07534528 -0.08692466 0.035942305 -0.004214266 -0.054245293 -0.031075174 0.009103379 -0.02414753
;; -0.028090885 0.019517202 0.032396827 -0.05836658 -0.05010037 -0.05640103 0.009265511 0.0076389546 -0.042886533 -0.007693395 -0.045969505 0.007522024 0.045981683 -0.01004854 0.05735265 -0.0020917412
오 0.0031033163 0.02761542 -0.03315632 -0.005545574 0.04563377 0.017837157 -0.01598854 -0.044915885 0.044197224 -0.106209144 0.025784314 -0.04604434 0.045410797 -0.03895925 -0.051944036 0.009681832
반전 0.029979404 -0.018019501 -0.06902786 -0.015872134 0.023309303 0.032047033 0.052925177 0.050237916 0.0028307198 0.083890066 -0.011007297 -0.03674604 0.012597117 -0.0703834 -0.002387933 -0.053539865
수준 -0.14901915 0.06301136 0.11846519 -0.042208076 -0.061987065 -0.12982011 -0.06304702 -0.043739352 -0.10212911 -0.06778376 -0.08563907 0.08575001 0.12559456 0.10660065 0.07289922 0.10134299
다니 -0.046666592 -0.032487206 -0.019542558 -0.022261787 -0.050975673 -3.3781813e-05 0.012075483 0.022455454 0.030693924 0.07193615 -0.053036723 -0.024573034 0.028817115 -0.032595493 0.011951512 0.06296496
웃 0.021810003 -0.03634841 -0.034450844 -0.03596941 0.04615398 -0.018297663 0.037800305 0.04365769 -0.017708885 -0.09788542 0.029260196 -0.03316612 -0.054386444 -0.0540707 -0.043646533 0.0057937056
매력 0.057767544 -0.04778555 -0.09260002 -0.05375691 0.05943006 0.06331086 0.010037275 0.020455657 0.036352627 0.06457516 0.10065611 -0.05037835 -0.048938688 -0.06100597 -0.0724679 -0.08375017
맞 0.016436148 0.044989094 -0.018909017 0.023913711 -0.056322977 -0.078935206 -0.07079387 -0.06613508 0.0062255403 -0.008789792 -0.06344736 0.047290917 0.0066817896 -0.0031209139 0.08777567 0.0033097917
인지 -0.070089586 0.0032973164 0.044813093 -0.058359817 0.0071583656 -0.019666143 0.033738587 -0.053270012 0.012379683 -0.12902196 -0.043951374 -0.0110420305 0.01479842 -0.0679751 0.004691853 0.035148423
가슴 0.048832644 -0.06637009 -0.0971115 -0.14537685 0.11792473 0.04956825 0.04890512 0.038541816 0.077403165 -0.20929481 0.12560964 -0.10382611 -0.13185462 -0.1597662 -0.096865356 -0.09184577
없이 0.067453556 0.03179453 0.020221638 0.081672154 -0.0178791 0.006084982 0.04620976 0.02727792 -0.08158025 0.1145353 -0.048876524 0.03925286 -0.03635699 0.0361682 0.013785335 0.016968403
원작 -0.033964876 0.04171318 0.06223601 -0.06968082 -0.0923855 -0.082487494 -0.009983724 -0.042495638 -0.10984133 -0.010961453 -0.043818913 0.049315643 0.11050186 0.099273436 0.07229288 0.002956778
ㄷ 0.017224092 -0.0502539 0.008024791 -0.021566821 0.044589855 -0.032323282 0.027501713 -0.011720708 -0.012414385 -0.07835743 -0.017943127 0.005379349 -0.020415252 -0.029651389 0.028978897 0.019131415
인간 0.029191738 -0.051552624 -0.019175678 0.18625051 0.020306302 0.0042737876 0.08553645 0.050134487 0.017040621 0.16417249 0.026313988 -0.0358234 -1.628063e-05 -0.0071188216 -0.039273873 -0.040141214
데 -0.023026098 0.02949081 0.022922855 0.020834925 -0.015053986 0.03601686 -0.0029858802 0.020098478 -0.019621631 0.026864965 0.037894573 0.052001283 -0.033109456 0.010880539 0.02465163 0.039015394
굿 0.17561477 -0.17667267 -0.20814918 -0.16975796 0.16296306 0.13882247 0.19220963 0.08473676 0.1668466 -0.21965675 0.10991807 -0.13834521 -0.15144676 -0.12378744 -0.13879612 -0.1970487
ㅠ 0.019455692 -0.03202407 -0.0048879785 -0.12449425 0.0046059587 0.018888429 0.036220275 -0.064003944 0.07725306 -0.16092958 0.0085064005 -0.027238633 0.020406589 -0.06498321 -0.030368598 -0.03150818
높 -0.029410863 0.0420031 0.09756994 -0.033405814 -0.118845694 -0.12314255 -0.105212905 -0.060337055 -0.047397356 -0.063096985 -0.074139856 0.06582334 0.10107459 0.07603491 0.13333623 0.06926362
밋 0.08653895 -0.11990246 -0.11728254 0.0010140414 0.059430286 0.09241088 0.03021804 0.06169111 0.03795038 -0.03544681 0.041941755 -0.074577935 -0.08963727 -0.11500693 -0.111958265 -0.119495235
( -0.03987667 0.04211957 0.014460495 -0.019562831 -0.027755735 -0.020179095 -0.048562974 -0.009749336 0.0066123307 -0.02904368 -0.013179555 0.051918425 0.030550497 0.06662959 -0.009382989 0.026582435
만드 0.01587673 0.034828134 -0.027954256 -0.13953774 -0.047109194 0.0052202903 -0.031345416 0.014868934 0.049567576 -0.0656646 0.015402647 0.03333357 0.028984373 0.010658394 0.043293968 0.014532549
급 -0.06707286 0.013847882 -0.02190626 -0.0679612 -0.011726367 0.030236565 0.012067038 -0.026838854 0.0052844696 -0.08548677 0.0031129757 -0.01525713 0.015577353 0.0052151876 0.048148468 0.045685124
눈물 0.098075144 -0.1508992 -0.14306855 -0.12710801 0.061622653 0.061162695 0.08504299 0.04977292 0.10916169 -0.1522462 0.1187754 -0.12758276 -0.1418049 -0.06966448 -0.09805538 -0.13555133
보여 0.001459208 0.0011951745 0.046029102 0.003536432 0.039376743 -0.0042374204 -0.03756526 -0.00677467 -0.020454152 0.010157827 0.011115956 -0.021196611 0.02303505 0.032543268 -0.019000404 0.008469493
준 0.028389504 -0.0077562956 -0.011931441 -0.07021238 -0.018935174 0.0116957165 -0.044199657 -0.027485121 0.016133534 0.00025791526 -0.042807583 -0.010582741 0.03157736 0.05701842 0.065532655 0.007325576
찍 -0.07181084 0.0163516 0.081620246 -0.06644727 0.010312265 -0.0504498 -0.099243194 -0.03503638 0.020375218 -0.090346195 -0.08042276 0.04810546 0.04089001 0.084397085 0.007076281 0.04823723
인가 -0.021572996 0.02326776 -0.020560453 -0.022250462 -0.05221555 0.02754694 -0.011094468 0.012631017 -0.022791548 -0.06361301 0.0026176518 0.039241273 0.010261934 -0.02094946 0.035552137 0.0021283454
노 -0.20971306 0.20700216 0.19299622 -0.22290476 -0.18177387 -0.21305123 -0.21949264 -0.22045596 -0.14913046 -0.19133537 -0.21019623 0.20303461 0.24612264 0.2224812 0.15951289 0.18694913
을까 0.012094594 0.006804604 -0.031298693 -0.077843234 -0.023903279 -0.035882425 -0.015075291 -0.08002368 -0.011571365 -0.03931393 -0.0052587166 0.044764746 0.012025183 0.046883587 0.029751083 0.0051041134
용 -0.056626685 0.02032381 0.045912202 -0.086456925 0.028460987 -0.013613809 -0.07930341 -0.02561225 0.0036076459 -0.12157155 -0.04983786 0.055884127 0.039293807 -0.0027063678 -0.017905602 -0.014251
코미디 -0.010144876 0.016016962 0.0070281397 0.003359044 -0.0005327384 -0.050618432 -0.026988488 -0.010024489 -0.021434193 -0.02512178 -0.025583073 0.030033907 -0.014709883 0.016055545 0.05025637 0.028624438
마 -0.02015853 0.04513909 0.080536395 0.0142516885 -0.04434644 -0.06580597 -0.034339026 0.0012559736 -0.017998297 -0.061734818 -0.04159571 0.011406934 0.08587083 0.009622745 -0.012068958 0.06850776
화 -0.014626863 -0.0049894657 0.04159661 -0.032823782 -0.001301259 -0.033748772 -0.034007847 -0.012701187 -0.07338577 -0.018025458 -0.0087142605 0.06431215 0.08622243 0.0678429 0.067029975 0.0060206475
신 0.035406474 -0.05623054 -0.03029222 -0.07019189 0.018424692 0.014555608 -0.004592147 0.018476482 0.10491471 -0.0028995106 0.0054172347 0.0018724091 -0.023612823 0.008815455 -0.016967874 -0.042034008
모든 -0.010544854 -0.028361678 -0.030279133 -0.050538003 0.08400998 0.06847477 0.060146805 0.05512183 0.028363146 -0.13492545 0.037778575 0.018920245 -0.051102523 -0.026124833 -0.017520614 -0.07122953
쓰 -0.01202007 -0.01032053 0.05512693 -0.04744876 -0.049035214 -0.041728288 0.016315734 -0.01939424 -0.03457486 -0.04841444 -0.048710026 0.0316521 0.036239713 0.061030712 0.037343375 0.013935933
여 -0.044822246 -0.0051906873 -0.014611256 -0.0706893 -0.024525816 0.007318374 0.021817653 -0.033391006 -0.022724744 -0.038700335 0.014797177 0.01591146 0.04429701 -0.037265692 -0.038184028 -0.014962677
5 0.037708014 -0.0024052407 -0.05132021 -0.044445496 0.061554935 -0.021910788 -0.06530324 0.025877416 0.06427207 -0.13876168 0.07552527 0.010402674 -0.05484967 -0.04089188 -0.018489137 -0.007500549
아직 0.013215396 -0.014367554 -0.012012982 0.013912206 0.045229357 0.0030999016 -0.016000198 0.039870013 0.05400254 0.06699667 0.10130652 -0.09556791 -0.037938006 -0.06252175 -0.058463015 -0.007944762
추천 0.11581453 -0.05586694 -0.07394438 -0.18710703 0.0940467 0.09539198 0.06670083 0.01249114 0.12087474 -0.12863427 0.09507638 -0.047715724 -0.07864211 -0.11680661 -0.08659128 -0.101054974
처럼 -0.00583345 -0.030216228 0.042300608 0.013164165 0.021693902 -0.0005521893 -0.012227659 0.0057693343 -0.03452446 0.017344737 0.04530312 -0.021990448 -0.01971831 0.03666099 0.024398081 -0.051375404
눈 -0.041037038 -0.0179222 -0.014080172 -0.024839636 -0.011576707 -0.04347976 0.012713632 0.039704844 -0.05529035 -0.017569702 0.012988049 0.049614605 -0.010106941 -0.00020904552 -0.016235 0.04688715
아닌 -0.04620692 0.06923372 0.1060351 0.09417649 -0.058672607 -0.0771821 -0.014813408 0.03244638 -0.07127107 0.026553908 -0.10658436 0.019761294 0.043257155 0.021324193 0.041099437 0.0078060473
자체 -0.078288026 -0.0071493927 0.021978762 -0.104506 -0.00058495096 -0.04487622 0.01571992 0.00976812 0.017799517 -0.1042007 0.011623548 0.038606208 0.056797944 0.026157852 0.029815627 -0.009545121
울 0.08472153 -0.12910396 -0.15642907 -0.046904366 0.063218795 0.13071395 0.11647717 0.06655267 0.124987625 -0.14448008 0.09568697 -0.08230076 -0.12838408 -0.12946409 -0.10566409 -0.1275015
몰입 0.067568995 -0.02122522 -0.021118728 -0.07863181 0.04777603 -0.004419939 0.018256797 0.069707245 0.07254645 -0.056944977 0.03515295 -0.040311996 0.012672127 -0.083462805 -0.05457031 -0.035128232
4 -0.046569157 0.0016816019 0.048418 0.050827786 -0.055061746 -0.05273535 0.034592472 -0.0372796 -0.028623091 -0.013650466 -0.05012662 0.06883261 0.062801495 0.044558853 0.05933355 -0.03701099
대박 0.13779867 -0.13463406 -0.07143083 -0.06946323 0.11891784 0.16066384 0.13371025 0.040312815 0.15382989 -0.009063481 0.09223811 -0.07188359 -0.11080351 -0.12994726 -0.11902997 -0.13394353
몇 -0.03794251 -0.0172511 -0.07565033 -0.09741871 0.04228633 0.043044217 0.022324426 -0.060561508 -0.0089375805 0.028813297 0.008723039 -0.033762902 -0.025047526 -0.09258951 -0.0103129465 0.026880391
스럽 -0.034131475 -0.051971305 0.027728746 -0.033484496 0.042303722 -0.031545576 0.023142967 -0.03140662 0.010505112 -0.10833956 -0.021987455 0.05301025 0.0032117548 -0.0056107566 -0.013984015 -0.02003805
실망 -0.20564105 0.2003638 0.14430147 -0.09048441 -0.18964021 -0.12179498 -0.14455707 -0.15255132 -0.13351406 -0.12009224 -0.18440779 0.20030095 0.13377815 0.10105908 0.1452178 0.22101076
는다 -0.06147218 -0.0103956405 0.022348687 -0.06283762 0.023234228 -0.034057286 0.01159232 -0.03940732 -0.020929718 -0.047697198 -0.009226367 0.033138614 -0.033153445 -0.083767205 0.02264378 -0.040399004
대한 0.048713125 -0.06128925 -0.0064652776 -0.022367315 0.01849741 0.015667299 0.06626705 -0.02177065 0.09575493 -0.07714384 0.0026977852 -0.07326788 0.0006733411 -0.054927368 -0.027793612 -0.095536105
죠 0.036676396 -0.066451006 -0.03228043 0.033215586 0.016682124 0.06857739 0.034519687 0.018070893 0.009230611 0.10356625 0.07785933 -0.01725049 -0.06616822 -0.061038975 0.006236074 -0.013950849
란 -0.04904822 -0.02570987 0.042316608 0.024149064 -0.020246359 0.029625064 -0.027135486 -0.037263446 0.04166968 -0.0877001 0.027158799 -0.04116887 0.01407814 -0.030458732 -0.027505536 -0.016442584
그런 0.0065350467 0.016694061 -0.009057906 0.006138775 0.05666601 -0.032749858 -0.0046393336 -0.009418719 -0.014396038 -0.022025576 -0.025448851 0.02873008 0.008937904 -0.0106275715 0.027506128 -0.024161868
솔직히 -0.026370928 0.027956791 0.00030077752 0.0193409 -0.07052726 -0.06115515 -0.016356185 -0.020890918 -0.094303444 -0.054176185 -0.0047460245 0.02244492 0.008496498 0.037565146 0.029313087 0.008043094
캐릭터 -0.021732759 0.08612308 -0.031799775 -0.110324204 -0.004009505 -0.023165237 -0.053578235 -0.012872792 0.03340322 -0.030335998 -0.032480408 -0.014905582 -0.017027713 0.024911106 0.024272494 0.010642886
ㅎ 0.07239691 -0.008844831 -0.050238445 -0.2699602 0.09523363 0.10323135 0.02473384 -0.095150605 0.09766451 -0.3580724 0.057991482 -0.009984869 -0.08143797 -0.06546497 -0.08205492 -0.066881
모두 0.09263429 -0.053058837 -0.0171319 0.046073344 0.054245993 0.050108302 0.012469265 0.038192417 0.059060004 0.08754292 0.079070106 -0.0015194518 -0.020088986 -0.04416879 0.01154116 -0.089207664
아주 0.073826954 0.014252755 0.027081635 -0.037434995 0.011222933 0.019787582 0.053811137 -0.018474579 0.060311273 -0.047579136 0.024576597 -0.047828373 0.017177062 -0.015344119 -0.026467659 -0.030251155
- -0.038822565 0.019244224 0.0043515144 0.027874928 0.057604194 0.027347397 0.06058688 -0.020986015 0.01770884 0.041662093 0.02047453 0.02158597 -0.027929679 0.023901 -0.0012414212 -0.021417705
가족 0.033724952 -0.07887176 -0.047763493 0.014363059 -0.00069360546 -0.0094515495 -0.03550497 0.057633292 0.01011798 -0.0034144795 0.03021144 -0.033675663 -0.0035979648 -0.03159223 0.013475344 -0.03896925
여운 0.17842734 -0.18930846 -0.19827297 0.031225147 0.22582032 0.15261443 0.19152452 0.15669534 0.23580663 -0.13984016 0.14793998 -0.1623369 -0.19780871 -0.20261088 -0.13705531 -0.14116603
건지 -0.051284365 0.08162792 0.023384042 -0.017277598 -0.053268332 -0.04137018 -0.016707687 -0.049381 -0.029518247 -0.08578382 -0.07611361 0.013745143 0.022815937 0.08459593 0.03611221 0.012202805
전혀 -0.041280273 0.024427509 0.041724663 0.0449109 -0.07012994 -0.05736831 -0.038890302 -0.0261848 -0.067607306 -0.007082763 -0.075972274 0.069511324 0.05238389 0.10648258 0.059202127 0.084681265
연기력 -0.020829428 -0.04479162 0.035490185 -0.09838454 0.02071397 0.020604016 -0.046503704 -0.049491342 -0.025334029 -0.09924084 0.043267947 0.017692298 0.000460376 0.015193813 -0.004225436 -0.005970616
나라 -0.00022147718 -0.0048215888 0.046755653 0.03799705 -0.0078091235 -0.030282227 0.019627085 -0.01582619 0.009096435 -0.08738198 0.005926657 0.00013038923 -0.015890257 -0.0011699308 -0.03448783 -0.051182024
후 -0.06801305 0.02161484 0.09620323 0.0010394454 -0.030439299 -0.021440145 0.0385776 -0.038481873 -0.10774829 -0.00045056353 -0.027717317 -0.027019963 0.074975975 0.06541377 -0.03438936 -0.009801473
될 -0.012724307 0.048807748 0.032471772 -0.03829863 0.019274967 -0.025547126 0.013899646 -0.02026376 -0.02691199 -0.10953169 -0.008748881 -0.017268078 0.037331425 0.054951426 0.017251644 0.0070326393
다면 -0.046797246 -0.010506583 0.043841958 -0.008768365 0.025685053 0.010235468 0.0368049 -0.014827157 0.037073605 0.0089254575 -0.044672083 -0.038364686 -0.008343135 0.009411089 0.022916833 0.0525839
뭔가 0.020007221 0.021495026 -0.0014779061 0.02961002 -0.027183121 0.01448039 -0.04823645 -0.0034059074 -0.02341442 -0.030495757 0.050845977 0.01917478 -0.02615761 -0.048983008 0.0265248 -0.062693335
그래도 0.014091617 0.020528592 -0.052960843 0.026548337 -0.021543553 0.023401057 -0.0050017745 0.024985729 0.065903254 0.10511167 0.019488383 -0.051009774 -0.015466381 0.027383883 -0.0069039892 -0.05414173
; -0.04674509 0.030518854 0.002846771 0.038352728 -0.013958611 -0.05507222 0.0020341664 0.0357128 -0.032962795 0.045110166 -0.003385065 0.031399745 0.009543258 0.032817416 0.021883583 -0.009498578
시리즈 0.0020970122 -0.07309416 -0.011537495 -0.06907754 -0.023232646 0.044727374 0.03309635 0.058353275 -0.028352993 -0.03936653 -0.019170893 0.008433117 -0.048935857 -0.021708926 -0.02157517 -0.050562494
근데 0.05233475 -0.055446457 -0.044576775 -0.05880564 0.034160424 0.018112347 0.06678888 0.051578082 0.024500724 -0.08256943 0.057752553 -0.033399347 -0.047586832 -0.07467007 0.011787779 -0.02468015
작 -0.055417754 -0.004510175 0.0143625885 0.007941838 0.022547772 -0.04914978 -0.011742477 0.022347627 0.0061016134 -0.034406383 -0.007918597 0.03080849 0.020134714 -0.021397127 0.05122045 0.04171273
표현 0.0766988 -0.03186686 -0.08168713 0.045148578 0.049353555 0.08825629 0.032323577 0.06918251 0.05592218 -0.0035697843 0.07847043 -0.091239266 -0.031041808 -0.075850904 -0.023913354 -0.06679539
모습 0.0021963122 0.011885506 -0.058582343 -0.029022519 0.04447188 0.03104938 -0.011286944 0.06551491 0.010524401 -0.10778163 0.05822431 -0.038731318 -0.06377822 -0.0726869 -0.06446947 -0.008292567
공감 0.024920173 0.031499896 -0.017728923 -0.05237582 -0.016347881 -0.0042371964 -0.029879298 -0.016848011 0.074245214 0.014925698 -0.009263245 -0.044360314 -0.048075538 -0.010627441 0.02476576 -0.047501035
계속 0.0101272 -0.046988025 -0.084932715 -0.09725436 0.071272835 -0.005584677 0.0049676746 0.048712116 0.058691435 -0.058528315 0.025368314 -0.02242909 -0.0033513152 -0.058718093 -0.023825439 -0.015604411
먹 -0.047731474 0.012189357 0.0076972824 0.021996416 -0.006497996 -0.060435552 -0.03601928 0.027423268 -0.048212197 0.013337008 -0.023904014 -0.018647358 0.035944246 0.0914025 -0.012183404 0.0014598093
"" 0.030264566 0.053612232 0.057729475 0.01454488 -0.036287658 0.0033397994 -0.045199763 -0.021170521 -0.025273131 0.051311538 -0.008364478 -0.00645024 -0.033495784 0.044663236 -0.030204626 0.027145702
제목 -0.01538391 0.007962034 0.040314592 -0.011108017 -0.060390577 -0.012321776 -0.03555458 0.034276325 -0.025150424 -0.05930174 0.016894238 0.040798772 0.021824216 -0.013807184 0.05734613 -0.0436785
7 0.033767767 -0.013342246 -0.009576907 0.10171807 0.064318635 0.07096724 0.048210036 -0.0062818676 0.034570776 0.102480255 0.02479405 -0.04757312 -0.03146771 0.008982537 -0.073757395 0.02330914
이랑 -0.02476072 0.04869703 0.03372868 -0.05932291 -0.05163266 -0.017712763 -0.057141848 -0.030700423 -0.05260402 -0.023367532 -0.0022654324 0.017725188 0.0006504949 0.042157214 0.0026516789 -0.0028916758
극장 0.014638845 0.07152433 0.08524626 -0.033697173 -0.059372943 -0.038001973 -0.044611737 -0.028331582 -0.046678018 0.017728541 -0.05451245 0.009895339 0.07759902 0.047151286 0.020759242 -0.011231765
치 -0.013906058 0.057449497 0.06067353 -0.015030497 -0.079297334 -0.048300717 -0.033548515 -0.025933553 -0.024632603 0.010045704 -0.01537952 0.068307154 0.05229453 0.056816775 -0.0035097213 0.1072431
비 -0.0060677403 0.07510264 0.08564171 -0.011801605 -0.031021284 -0.09862331 -0.058852103 -0.036468294 -0.013082219 -0.13328725 -0.03247989 -0.0031868543 0.083669744 0.09595019 0.039909385 0.054290883
이걸 -0.05866832 0.04145988 0.086885974 -0.034797486 -0.09601702 -0.08617618 -0.107598044 -0.044323403 -0.06457584 -0.08245263 -0.05767831 0.10374352 0.11448735 0.111501835 0.06690716 0.10360467
진 -0.03920661 -0.0005032085 -0.0015365011 0.11575283 -0.040046036 -0.0073165037 0.01050297 0.029665228 -0.096849136 0.21152732 0.018933691 0.03337876 -0.032523077 0.053958014 0.0067387912 0.038468458
바 -0.049950674 0.1118209 0.038060132 -0.09017972 -0.11182887 -0.046462264 -0.1584018 -0.11389028 -0.08688138 -0.055217475 -0.086147405 0.12849085 0.04268895 0.15276445 0.1191432 0.094154105
대사 -0.004860182 0.0022495973 0.026697312 -0.07373779 -0.016940545 0.04326315 -0.060600813 -0.030921165 0.040307768 -0.12580293 -0.01382561 -0.005873895 0.011722359 -0.0382412 0.017238844 0.027786424
부분 -0.037423726 0.023124225 -0.0029219342 -0.013276158 -0.00087249035 -0.048492156 0.021377176 -0.007245321 -0.028093753 0.023245573 -0.008308817 0.017372943 -0.005373372 0.06122925 0.02434235 0.03916321
그렇 -0.049297255 0.11188808 0.05409134 -0.0004337569 -0.03577526 -0.03852928 0.011425838 -0.039336853 -0.11665641 0.009362827 -0.08368384 0.067709856 0.06961733 0.12495901 0.034230832 0.092165075
개봉 0.0019871686 0.054526813 0.05662904 -0.07025014 0.013835205 -0.022294415 -0.057917837 -0.02285161 0.02838237 0.002148861 0.014619642 0.06291288 -0.015158336 -0.042008992 -0.011147762 0.06511781
0 -0.054004226 0.10046249 0.008211276 -0.17659096 -0.09088725 -0.06787107 -0.1638509 -0.1879198 0.047576662 -0.16309445 -0.09727401 0.04031668 0.076649286 0.040445387 0.070145935 0.12561692
OO -0.013081509 0.08303582 0.0072188703 0.03780921 -0.06163152 -0.037982732 -0.038265485 -0.028817099 -0.089002885 -0.023753628 -0.0411887 0.046576705 0.07279268 0.077340975 0.06931429 0.025531637
대단 0.03527324 -0.041395668 -0.045866027 0.012734316 0.05646451 0.10713747 0.05546552 0.05810728 0.042574856 0.0024423662 0.05214989 -0.093349434 -0.04852772 -0.07867633 -0.08438872 -0.030784266
어디 -0.027939105 0.011338786 0.00080265594 -0.013044299 0.039551266 -0.010715238 -0.04406408 0.011352686 -0.015157851 -0.02114007 0.022637824 0.017802779 -0.0063758576 -0.0003507948 0.025045544 0.026052054
작가 -0.06385752 0.06588963 0.060472295 -0.13319525 -0.03939209 -0.036425397 -0.07201228 -0.083482474 -0.016120456 -0.04369767 0.011263955 0.0488067 0.07962238 0.015902651 0.060675237 -0.01738285
된다 -0.03281658 0.0028970544 -0.01013313 -0.014799139 0.070870385 0.035767112 0.057875067 -0.011918162 0.014609542 -0.12598723 -0.00012766541 -0.013417163 -0.007743662 -0.06364553 -0.060965143 -0.043438725
아쉽 0.06640784 0.015771437 0.023928618 0.12706634 0.034193523 -0.0224675 0.077522136 0.08623608 -0.008049402 -0.059053537 0.0033104937 -0.042230036 0.036517937 0.0077810227 -0.06599338 -0.073932484
기분 -0.051062047 -0.024876812 -0.028330997 -0.15224749 0.02022651 -0.054910954 -0.021339087 -0.07803291 -0.039498318 -0.08687784 0.0041855113 0.06656272 0.05087247 0.017284175 -0.026334768 0.036678314
제 0.039860234 0.029129416 0.0062521305 0.07250933 -0.050649982 -0.048347514 0.019260153 0.030073065 0.009456464 0.07666385 -0.034473225 0.022658555 -0.0022066697 0.009088731 0.037377603 -0.0100704655
진심 -0.046012532 0.005705653 0.0019065812 -0.028256897 -0.029290283 -0.030140825 -0.015740626 -0.053511776 0.011993882 -0.053992983 -0.047845144 -0.0036095998 0.019351196 0.010808848 -0.0045748972 -0.035145126
타임 -0.007786243 0.04136712 0.0031883863 -0.06603413 -0.014484259 -0.019864492 0.005462481 0.017519552 -0.0409496 -0.10732422 -0.01294338 -0.015221764 0.026597658 0.012313904 -0.010421502 0.038873997
/ -0.03486872 0.0014911693 -0.008136831 -0.027602753 0.015993837 -0.004456321 -0.039613016 -0.03189726 0.016065221 0.07043476 -0.0048485287 -0.023482794 0.012371088 0.02197629 0.049441185 0.023681315
웃기 0.034999255 0.038039338 -0.006801572 -0.025193967 0.014018965 0.04183127 -0.028460236 0.018204207 0.008632152 -0.076818824 -0.00078187906 -0.025741661 -0.063459374 0.0013053735 0.0082062045 -0.042796046
보이 -0.021606127 -0.0013544037 -0.021807978 -0.04535898 0.010734736 -0.033879858 -0.012310538 -0.045244697 0.010269604 0.07361112 -0.047553107 -0.023520904 0.028911494 0.05463609 0.0871675 -0.0031363226
놓 -0.024185404 0.023876756 0.09794127 -0.010872406 -0.001406833 -0.03906968 0.017135814 0.025557462 -0.11223851 -0.002954781 -0.013635637 0.017147986 0.026360849 0.008219836 -0.024084542 0.003004407
해도 -0.04060686 0.052625123 0.0454832 -0.010717157 -0.011729666 -0.089476705 -0.03385473 -0.006443262 -0.0055135936 0.0465118 -0.05146303 0.014682196 0.0011502671 0.057724394 0.035394195 0.02653162
이제 -0.04078433 0.06934045 0.020442508 -0.1125258 -0.043714363 0.008417736 -0.03683298 -0.006701621 0.041528665 -0.006562016 -0.06806404 0.08003521 0.000395886 0.009867883 0.02511539 0.035603978
물 -0.059346426 0.022556653 -0.02302413 -0.0026876158 -0.043494735 0.014462219 0.057426166 -0.016569268 -0.0474608 -0.0054558357 -0.056323066 -0.021128703 -0.019012313 0.015964927 -0.017064093 0.027934613
봐야 0.022124723 -0.033579856 -0.09827164 -0.09247524 0.07502738 0.03319221 0.025346205 0.056288444 0.07609199 -0.07030993 0.04713678 -0.049449712 -0.01615927 -0.015013102 -0.008946084 -0.111608386
막장 -0.10326459 0.1454522 0.18872422 0.007115843 -0.11633343 -0.07798954 -0.08908712 -0.05014145 -0.124414 -0.05423933 -0.10914816 0.10864733 0.12057145 0.13265921 0.10550353 0.08595111
삶 0.04962538 -0.063290894 -0.022768281 0.1137955 0.040388964 0.098920666 0.047686186 0.13358001 0.11126348 0.15982488 0.051738687 -0.08281704 -0.09856979 -0.046466205 -0.08743656 -0.048293177
친구 0.02391468 0.0049244366 -0.030960623 -0.05130878 0.010623887 -0.06515067 -0.053760476 -0.06992571 0.038256787 -0.00035579 0.02256048 0.04791754 -0.023113662 0.055953145 -0.0007453391 -0.005995145
잔잔 0.037620366 -0.028933857 -0.02507989 0.022180464 0.107742816 0.077781245 0.03492812 0.10154969 0.051675618 0.04783195 0.039396163 -0.08018109 -0.101511545 -0.04284379 -0.08583664 -0.08288705
조금 0.041036926 -0.042446576 -0.040254977 0.03628067 0.055066906 0.011278158 -0.006587532 0.09048965 -0.016918628 -0.046584737 0.04868724 -0.048105408 -0.007890286 -0.043053254 0.00048035855 0.010277361
씬 -0.01392838 -0.025105884 -0.016621014 -0.0422564 0.04353716 0.051578626 -0.014368982 0.029253341 0.052442703 -0.08652366 -0.011141692 0.031517603 -0.00685101 -0.06610715 0.018290196 -0.005761099
딱 -0.073989734 0.048745196 0.00022414955 -0.05996954 -0.014454877 -0.010863635 -0.08311807 -0.10523192 -0.042823583 0.015274404 -0.055453714 0.018173106 0.051986277 0.013150402 0.049511507 0.039604463
영상 -0.032754768 0.0261551 -0.062324103 -0.029890405 -0.042719986 0.026842603 -0.016083619 0.017725367 0.035751488 0.03031076 0.004418068 -0.02284405 -0.00080029236 -0.032933105 0.006236457 0.0035206268
억지 -0.0901765 0.08317477 0.17055753 -0.13906446 -0.15136535 -0.1266249 -0.11587204 -0.11996673 -0.18218432 -0.14162908 -0.09807968 0.1570225 0.10937364 0.08306941 0.055155866 0.08869925
찾 -0.044648822 0.018900733 0.013654223 0.0041942154 -0.04067365 -0.037881188 -0.045015298 0.038280282 0.018083408 -0.08906841 0.032951362 -0.00043176705 -0.024168117 0.014193373 -0.0366562 0.048571005
요즘 0.03388964 -0.061019108 -0.1079976 0.10291893 0.11649207 0.10187226 0.13999555 0.09455584 0.12659207 -0.008380198 0.08824439 -0.045556962 -0.046092138 -0.07087485 -0.05623908 -0.112022415
같이 -0.0290462 -0.024440592 -0.006764436 0.06748282 0.009762892 -0.03981808 -0.053268563 -0.0040505254 -0.038182776 0.01061479 0.020556143 0.0323283 0.056061365 0.017396526 0.030895887 0.029204413
중간 -0.08942256 0.043627307 -0.004516877 0.0012617888 -0.0010882111 -0.030037276 -0.07157531 0.0016900306 -0.02213173 -0.12654981 -0.021261012 0.073713206 0.09064638 0.04321603 0.013174755 -0.0033547923
" 0.020881793 -0.03365694 -0.046420187 -0.0067999796 -0.0450583 0.0042854617 -0.06300603 -0.011338001 0.033086028 -0.002947039 0.0576677 0.018516447 0.032327544 -0.021668784 -0.018194292 0.024532773
구 -0.022981767 -0.046354342 -0.042897783 -0.078287534 0.006899882 0.025806194 -0.053065017 -0.05646734 -0.004699651 -0.11166497 0.04845594 0.018603887 0.025936892 -0.016485643 0.0064631444 -0.045920514
라도 0.010459709 0.024289448 0.03563043 -0.021698749 -0.012699729 -0.018800417 -0.057920665 0.0024692435 0.00035228307 -0.047684934 0.015057609 -0.027063146 0.04058537 -0.016499206 0.04288571 0.051908787
스릴러 0.013813885 0.011056374 0.0006363032 -0.08482724 -0.024698952 0.045780633 0.037802253 -0.011614103 -0.0025399884 0.023318043 0.016261987 0.029378364 0.00015102453 -0.012393788 -0.060405415 -0.02564803
가지 -0.019249788 0.0012728398 -0.044489995 -0.08531314 0.020144658 0.03399642 -0.06442314 -0.005470853 0.017221136 -0.05161246 0.004771892 -0.0048656566 0.002568674 0.0054103816 0.01923067 -0.02610008
8 0.05513427 -0.073907875 -0.025288094 0.15763406 0.015794894 0.022405881 0.074036404 0.12607874 0.09164881 0.122314185 0.05459172 -0.10073985 -0.09541697 -0.041271277 -0.034863923 -0.018136272
믿 0.044824947 -0.07666822 -0.028218044 -0.07258567 0.00602652 0.0071205487 0.043371845 -0.002027788 0.0947383 0.029708423 0.008037379 -0.014856746 -0.04765622 -0.061055858 -0.043236353 -0.06697072
싫 -0.1033878 0.076447174 0.06729474 0.02674265 -0.100499764 -0.093501724 -0.033369187 -0.07940397 -0.16295336 -0.06037635 -0.09345834 0.11213224 0.06643751 0.13572265 0.061330814 0.11426295
.... -0.02510802 0.026542192 0.0772801 -0.06679518 -0.030155793 -0.061043277 -0.054882094 -0.010750885 0.019971875 -0.09052205 -0.015021915 0.08614033 0.07391588 -0.024862986 0.013724393 0.004048987
나왔 -0.06469623 -0.020899462 0.021055216 -0.046444852 -0.0013966359 -0.020271705 -0.04659826 -0.01081442 -0.0029762876 -0.00030861367 -0.04005237 -0.026156899 0.03614466 -0.1192586 0.013509509 0.008932215
아까운 -0.15334861 0.09252596 0.08782047 -0.20674166 -0.062459856 -0.050380737 -0.11711614 -0.13487129 -0.09868823 -0.15605097 -0.12919813 0.121758364 0.08493528 0.03790169 0.06700932 0.07602309
긴장감 0.06535367 -0.046465024 -0.081708334 0.026229175 -0.014356047 -0.01842242 0.074272335 0.023430714 -0.005535267 -0.013340388 0.011902477 -0.028592499 -0.020381715 -0.0011439938 -0.056907 -0.05841258
점수 -0.040588733 -0.012959743 0.07013821 -0.01994879 -0.04332235 -0.0019099133 -0.009619227 -0.0542984 -0.009726464 -0.033762038 0.0057241004 -0.018882614 0.071839705 0.057014152 0.07667762 -0.015125986
개인 0.043225653 -0.023630546 0.0113063 -0.011487719 -0.06152216 -0.038803656 0.022496296 -0.047916207 -0.045345377 -0.03363869 -0.021687457 -0.008740881 -0.028618168 -0.020881794 -0.008566941 -0.0024619794
제대로 -0.015717814 -0.021306494 0.019541401 -0.010528021 0.040102314 0.012039128 -0.037433956 -0.02292169 0.0059133596 0.0719573 0.05012049 -0.0030309402 -0.070326455 -0.01500977 0.004349367 -0.05399604
부족 -0.09352102 0.023518741 0.103474684 -0.05004252 -0.09474711 -0.09420871 -0.022487197 -0.089261696 -0.050750673 -0.04143745 -0.0235904 0.088856295 0.095839255 0.02763206 0.016925106 0.055499412
이유 -0.06714361 0.024214173 0.0012501911 -0.09068132 0.017524028 0.021630613 -0.01777384 -0.011045142 -0.041845106 -0.1312745 -0.06372175 0.016654534 0.049507264 -0.020720022 0.04717624 0.015226763
노래 0.02369139 0.015115619 -0.010070796 -0.04387572 0.01407054 -0.011726035 0.010157523 0.050109696 0.076648325 0.025394522 0.005081798 0.028970705 0.0119722495 -0.026330952 -0.042878803 -0.012605588
만큼 0.0011029006 -0.039030805 -0.045209058 0.077720314 0.012377198 -0.010264019 0.028842518 0.027850362 -0.041690554 0.03290894 -0.03282135 -0.050845925 0.038320787 0.026922178 0.00033121248 -0.04947196
라면 0.04729232 -0.029863771 0.040535636 -0.046522465 -0.0012358377 0.020961868 -0.005047145 -0.033872068 0.017843686 -0.023425119 -0.010110872 -0.036394235 0.022017406 -0.013832255 -0.04356242 0.030302446
시작 -0.035688594 0.03137365 -0.028189281 -0.109729014 0.003810752 0.031073198 -0.065573335 -0.073044024 0.032583542 -0.19984649 0.025943814 -0.0040273075 0.025322404 0.024299812 -0.028988078 -0.013034427
구나 -0.05749519 0.024084695 0.019226473 -0.034344796 0.024911813 -0.04162699 0.012070869 0.012563976 -0.042439204 -0.00044216024 -0.049678013 0.056313016 0.026631404 -0.041408807 0.055575393 -0.043123063
잇 0.071636096 -0.084081784 -0.097725086 -0.071660064 0.040093746 0.03811693 -0.044073228 -0.024368694 0.021323929 0.012476766 0.07603456 -0.008705068 -0.06615428 0.010328079 -0.053738445 -0.06455185
특히 -0.0044086254 -0.044168726 -0.08566508 -0.06610667 0.06731007 0.041516025 0.07847372 0.014489914 0.045119338 -0.17647785 0.019409703 -0.02114485 -0.017215272 -0.06385 -0.026474107 -0.08399064
한테 -0.043350697 0.02987296 0.028412865 0.03514935 -0.055035554 -0.023489013 -0.05599941 0.022568993 -0.016656367 0.0065054987 0.008781166 -0.0046943836 0.086330704 0.040463712 0.05505473 -0.025358552
날 -0.018986555 -0.05742948 0.021880716 0.046549104 0.046773583 -0.029457208 0.020810356 0.014821403 -0.00430543 -0.010886143 -0.0049905623 -0.057256557 -0.000457712 0.0010597302 -0.03721355 0.014096011
려고 -0.04010354 0.022889215 0.068520784 0.018310534 -0.02068946 -0.009210378 -0.057901826 -0.046115834 -0.046753574 0.031964164 -0.05789834 0.03508908 0.0559585 0.102412835 0.096693076 0.029426903
제일 0.005150234 0.02703426 0.025705095 -0.014071826 -0.040201504 0.05282201 0.052715454 0.017433539 -0.043117683 0.008419021 0.0026146309 -0.027029382 -0.020562846 -0.022539945 0.025247587 -0.008054166
아름다운 0.08222906 -0.08269001 -0.100116655 -0.04524944 0.08935485 0.13227738 0.09616336 0.097648606 0.077000774 0.045153607 0.120029934 -0.09830173 -0.12201305 -0.109360866 -0.074502304 -0.056414973
시대 0.0032504017 0.031362098 -0.019639736 0.107664615 -0.03091856 -0.03859336 0.021615552 -0.008933855 -0.036919765 0.08501036 0.01468753 -0.017456442 0.029083405 -0.002550762 0.01773961 -0.017928293
ㅜㅜ 0.03720949 -0.0143614365 -0.029734211 -0.23763898 0.06520009 0.044958353 -0.0072188647 -0.053562835 0.045849428 -0.22353819 0.016142651 0.0018608063 -0.023177637 -0.041754942 -0.07383404 -0.019204265
어떻게 0.028467493 0.018720997 -0.0013515006 0.008191911 0.014271299 -0.033273056 0.0125751225 -0.039788138 -0.007413401 0.09119723 -0.013692549 -0.016337238 0.050677624 0.025599534 -0.0030378895 -0.0058905794
엔딩 0.0057478114 0.011858994 -0.0020078432 -0.040541533 -0.009864457 0.037899308 -0.025698725 0.030961016 0.017693037 -0.06400414 0.008258708 -0.031292148 -0.062402338 -0.027930224 -0.0054259235 -0.008896757
당시 -0.0068519143 -0.043164004 0.042004917 0.010329284 0.0036271173 0.0034275516 0.02512344 -0.024020769 -0.025826378 -0.027964724 0.013695636 -0.025583131 -0.045243587 0.03267618 0.04365261 -0.025702624
하지만 0.073587924 0.03664482 -0.015288012 0.23464511 -0.016978893 -0.024690427 -0.005558233 0.021230431 -0.038659554 0.17431772 0.017027324 -0.018420458 -0.014646705 0.04631547 -0.04016607 -0.01910135
나름 0.011232859 -0.007517127 -0.06428985 0.04369024 0.07052337 0.031077532 0.0057953885 -0.024207065 0.06791398 0.095017314 0.05265704 -0.016397117 -0.08336679 -0.06500855 -0.0041540978 -0.033775333
봐 -0.04457376 -0.0044418355 0.008198453 -0.045213874 0.024457725 -0.03520166 -0.075918525 -0.008592569 0.01678136 -0.03359919 0.024914555 0.0056472663 0.032834128 0.034823786 -0.0056658615 -0.0025021178
무섭 0.026368916 -0.011622157 0.015800066 -0.11131424 0.03951575 -0.05781702 -0.007457032 -0.050529666 0.011182372 -0.020706473 -0.02697746 -0.050090645 0.015335788 -0.02048629 0.046761926 -0.0060262475
나온 0.017149907 0.029608736 -0.015228794 -0.060242806 -0.036843687 -0.007358448 -0.033890203 0.029552298 0.017056175 -0.103516586 -0.00081599783 -0.018638792 -0.007737505 -0.043771975 0.04031694 0.01473149
명 -0.007020702 0.015870184 0.07733559 -0.019429773 -0.044118304 -0.060747754 -0.038772147 0.015743263 -0.008691392 0.070302926 -0.0012567397 -0.008023533 0.053052567 0.02362964 0.05069583 0.048409004
사 0.017584424 -0.039241325 -0.0009542978 0.06839072 0.025866935 -0.020961326 0.06290642 -0.016890218 0.046417054 0.13804075 0.021050477 -0.079777375 0.013567249 -0.02308052 -0.035784926 -0.0018958697
니까 0.106378116 -0.0053920606 -0.04330428 0.057996627 -0.00095144985 -0.013216629 0.06106133 0.044484362 0.0031583167 0.10576872 0.069524705 -0.012901966 -0.017571623 -0.004085777 -0.08497521 -0.08131079
오랜만 0.023511354 -0.058961872 -0.097307496 -0.044641986 0.119232416 0.030310573 0.09182347 0.01258634 0.060999088 -0.22628848 0.095290355 -0.06885091 -0.022812027 -0.07668749 -0.114803754 -0.07875358
이것 -0.023607519 0.04089966 0.02263778 -0.1214286 -0.022534586 -0.048348486 -0.045038693 -0.03954004 0.02750103 0.0032356388 -0.0010098503 0.02279099 0.038071238 0.012993395 0.023175737 0.053086404
해요 0.032271456 -0.03057892 -0.045775324 -0.23131037 0.023332337 0.016364587 -0.025547715 -0.011481889 0.10564621 -0.13533121 0.010285869 0.000530732 -0.057790097 -0.08995648 -0.00069622655 -0.01332574
9 0.14729157 -0.12486885 -0.052411664 0.1464714 0.059765726 0.06148096 0.06967778 0.083302945 0.12705849 0.18982317 0.1423984 -0.11361754 -0.10886734 -0.10824838 -0.05382331 -0.06208515
팬 0.017047398 -0.025741355 -0.0024750452 -0.025390707 -0.06754674 0.01585534 -0.07519902 -0.012723348 -0.023615107 -0.040686805 0.011763367 0.028915385 0.041838206 0.07604443 0.07224421 -0.027185805
차라리 -0.24803592 0.24297088 0.22723395 -0.2703812 -0.22679792 -0.24289995 -0.2115184 -0.22119063 -0.19039293 -0.26602578 -0.17275725 0.26899025 0.23120871 0.1935461 0.24576245 0.2289076
절대 -0.031510234 0.037162066 0.0024363652 -0.019616544 0.027031023 -0.054490827 -0.016373903 -0.0501297 -0.056276165 -0.04125636 0.0033928843 0.010684431 -0.00560088 -0.015462149 0.012860449 0.0026109603
세상 0.062426303 -0.07484695 0.0039033638 -0.016375037 0.07987389 0.027713194 -0.0061524543 0.07052195 0.03835562 -0.15642825 -0.0006589548 -0.021697303 -0.04291123 0.023760935 0.00049318897 -0.02945476
세 -0.0426345 -0.038660217 0.028101232 0.008379518 0.005657647 0.0135616455 0.02399675 0.031688742 0.0030494935 -0.012943915 0.019918019 -0.030205177 -0.0018788222 0.036473256 0.041201573 -0.00084789726
못하 -0.05884501 0.06320902 0.070963286 0.008170076 -0.076899365 -0.053010546 -0.01251253 -0.05612801 -0.085546225 -0.08262757 -0.053374596 0.06000107 0.13232423 0.04798059 0.10944724 0.071214005
의미 -0.01604865 -0.045860235 -0.04422844 -0.057284154 0.04019604 -0.03933239 -0.0070167603 -0.0037292945 -0.03181721 0.06568133 -0.00924221 0.013779941 0.010233361 -0.056378804 0.0096200155 -0.038062602
던데 -0.016458372 -0.0048381817 -0.0688015 -0.14428777 0.061239157 0.027135547 -0.02549897 0.0021359692 0.064442456 -0.24814928 0.069373004 -0.015633823 -0.003858212 -0.019918261 -0.032243527 -0.06350712
봄 -0.066196576 -0.048352603 -0.050190426 -0.15562612 0.03416319 0.020174041 0.003044501 -0.05322151 0.034169238 -0.265844 -0.023624046 0.03033907 0.059868492 -0.057005312 -0.058502097 -0.035800688
욕 -0.080198154 0.10003282 0.12039408 -0.06096311 -0.100676745 -0.07065771 -0.09082559 -0.027859092 -0.07882147 -0.10027024 -0.12318276 0.12755449 0.05209489 0.0964063 0.067426234 0.1121575
훌륭 0.18044235 -0.08623819 -0.1235608 0.005359367 0.09543614 0.11285464 0.08656744 0.086428784 0.14483708 0.110556126 0.101693094 -0.15855576 -0.1637276 -0.080885515 -0.13423875 -0.18035452
너무나 0.013509817 0.009826231 -0.068730436 -0.06239539 0.039302163 0.026859766 0.03975605 0.032252505 0.017686896 -0.107656606 -0.020831864 -0.06063547 -0.07433097 -0.043338165 -0.04917113 -0.017589891
강추 0.09700632 -0.09050107 -0.14647223 -0.10651935 0.16541696 0.0996798 0.08228755 0.031184858 0.07972243 -0.09058988 0.11724396 -0.08203111 -0.078407265 -0.0779809 -0.117630415 -0.08640479
감 -0.044339433 -0.008198829 -0.001577885 -0.0330109 -0.06756125 0.020835033 0.015270352 0.0027494002 0.008883356 -0.10013571 -0.038929757 -0.0036357488 0.029232072 -0.017569134 -0.001008434 -0.013079889
됨 0.033867642 0.022436209 -0.046140496 -0.045906063 0.036359817 -0.012946732 -0.012425858 0.0030931304 0.030548064 -0.06284607 0.03549667 -0.0045478847 -0.055995055 -0.06026836 -0.06474248 -0.077986225
ㅡ 0.03234014 5.0878298e-05 -0.018747099 -0.14879556 -0.0641942 0.030222047 -0.09720943 -0.065451235 -0.018862646 -0.12891278 -0.054825347 0.05753153 0.042259943 -0.034281034 -0.017304817 -0.016992182
따뜻 0.119175404 -0.1126977 -0.09494083 0.0117922025 0.075433016 0.07927227 0.111033626 0.06299147 0.17416506 -0.011695364 0.13005887 -0.11769067 -0.093686745 -0.15761755 -0.13847952 -0.14844967
빼 -0.05630728 0.057181966 0.07894206 0.023505514 -0.055622578 -0.0760188 -0.07184446 -0.03045257 -0.03458486 0.0141693195 -0.041109122 0.005747742 0.00048826286 0.08896317 0.02789841 0.006482328
느끼 0.042410873 -0.03457097 -0.040088527 0.05271699 0.07089205 0.013285253 0.06919047 0.033660278 0.02161888 0.0014648865 0.06440789 -0.008506473 0.02347011 -0.0010191678 -0.061441418 -0.0417815
해야 0.029867647 -0.047292996 0.022280997 0.026822565 -0.016639382 -0.01141754 0.016307276 0.00078195834 0.018119851 0.051290262 0.0063057 0.044763625 0.03733458 0.06467749 0.0074158986 -0.056782912
드 -0.061077185 0.022597874 0.0044337483 -0.19197628 0.04089215 0.06354617 -0.005208214 -0.04471907 0.007725988 -0.15698078 -0.0002335604 -0.03628568 0.0020303377 -0.06332364 0.03540485 -0.030417778
도대체 -0.05328339 0.124270655 0.08849286 -0.08504656 -0.025747506 -0.08100629 -0.122201025 -0.09595498 -0.10738326 -0.051909488 -0.08737055 0.12675536 0.032200355 0.03831067 0.12523639 0.082793705
어야 -0.017424367 0.032577295 0.057895605 -0.03230845 -0.021489635 -0.07762899 -0.06713281 -0.07610333 -0.07149932 0.008736871 -0.056335494 0.0022000633 0.079928465 -0.02743255 0.026968798 0.08339989
답답 -0.05959977 0.13099653 0.16038066 -0.11547264 -0.10848242 -0.06034311 -0.10284507 -0.039550927 -0.09273404 -0.122203715 -0.14665698 0.13156989 0.053107694 0.09072393 0.09021852 0.05937478
마다 0.0059104464 -0.013527027 -0.026199672 -0.08922867 -0.0016474675 -0.011613583 -0.011168362 0.03607019 0.014974478 -0.030791584 -0.006217354 -0.051266313 0.016131185 -0.05907637 0.02748666 -0.024718033
준다 -0.08961374 -0.0049477313 -0.022809125 -0.21934183 0.0011827886 0.017108077 -0.05191262 -0.028331416 0.022375703 -0.20919687 -0.05512599 -0.0074724904 0.050075587 -0.02745352 0.02306841 0.037868157
글 -0.009571452 0.016459461 0.020378929 0.0553819 -0.022210484 -0.05072845 -0.049086116 0.0073550562 -0.014515273 -0.040215485 -0.031755906 0.022186762 0.02303175 0.048853274 0.034272954 0.04072666
전쟁 0.045277506 -0.050047684 -0.04238277 0.09480333 -0.025181698 0.04910194 -0.0024322243 0.053491976 -0.04870783 0.0030858435 0.004993299 -0.026299013 -0.025342885 0.024252798 -0.06254656 0.02092961
놈 -0.05843436 -0.010802699 0.047981806 0.12809342 -0.06864758 -0.0316469 0.036389835 0.003676274 -0.07701791 0.079457596 0.017605029 -0.0022891173 0.038775522 0.047705553 0.045274395 -0.016754111
설정 -0.0746392 0.02384058 0.08428635 -0.08315306 -0.048185274 -0.10308311 -0.06556255 -0.07607751 0.0077966596 0.023061732 -0.033392645 0.08553492 0.013614997 0.010470286 0.07340468 0.10816623
무엇 0.02882748 0.0023968478 -0.019949967 -0.10428056 0.021087293 0.07444662 0.007453819 0.02645174 0.044903044 -0.16277647 0.0017639515 -0.017325033 -0.066144146 -0.03965637 -0.030059779 -0.052954514
수작 0.18339604 -0.19964688 -0.1950713 0.0067562275 0.26816964 0.20087512 0.24265479 0.20980258 0.2179053 -0.15809977 0.1702115 -0.18731774 -0.23509596 -0.20412692 -0.17949402 -0.23348811
만화 -0.010541736 0.028711991 0.047142755 -0.033589635 0.006488504 -0.031632498 -0.030617842 -0.037240673 0.05856623 -0.08976432 -0.019317742 0.050690666 0.003840494 0.07171697 0.039063122 0.032596238
흥미 0.03960364 -0.027326822 -0.011997271 -0.06541305 -0.01134039 -0.0059265536 -0.035953157 0.024195129 0.025488498 0.017982354 0.014496238 0.017516425 0.012997574 0.054267824 0.02405686 0.020289324
그저 6.381521e-05 0.061559245 0.09190955 0.016950248 0.0058412156 -0.03636671 -0.0032632528 0.035633918 -0.13854825 -0.05074491 -0.0032356672 0.07609521 0.07880828 0.035828296 0.006047114 0.014886157
감정 0.050067086 -0.034247506 -0.04825049 0.030741932 0.0068070907 -0.008411275 0.060537916 0.057593606 0.061628558 -0.05987467 0.022062024 -0.049414646 -0.049590055 -0.009184505 -0.017397162 -0.02725881
미국 0.024722625 -0.03366339 0.036762867 0.08885692 -0.030513594 0.018421596 0.059021402 0.025734555 -0.04612835 0.03268256 -0.014280124 -0.025690148 0.06360044 0.07401921 -0.024671013 0.050040122
신선 0.11306887 -0.106180295 -0.043965224 -0.06442362 0.10287071 0.032025594 0.077723965 0.050783396 0.08005456 -0.041461423 0.053744324 -0.10677361 -0.082272135 -0.06317442 -0.0590591 -0.035674367
행복 0.1326255 -0.1196745 -0.05429305 -0.039577357 0.13680828 0.05923611 0.095261976 0.03829193 0.053597502 -0.006924419 0.10795484 -0.11081549 -0.124866046 -0.09219123 -0.036215585 -0.13588543
뻔 -0.07662354 0.006510293 0.021853903 0.041976724 -0.042684 -0.06863561 -0.046769325 -0.05238668 -0.092527986 -0.0158844 -0.05049303 0.066880606 0.062092777 0.096165195 0.00037470672 -0.007806696
형 0.07059089 0.021781897 -0.055591628 -0.039013017 0.0016169434 0.04862262 -0.039475355 0.0243311 -0.0038951936 0.015549805 0.00882283 -0.05262226 -0.026548993 0.0113464175 0.0098211365 -0.020595599
앞 -0.005456233 -0.033514675 0.012555619 -0.0043168045 -0.012676537 0.02639904 0.01906045 -0.042818744 0.042348254 0.08491068 0.0060673733 0.024490075 -0.02146939 -0.05596318 0.03441753 -0.043162376
허접 -0.21990916 0.22467521 0.15426767 -0.21828876 -0.13808163 -0.1263663 -0.24522051 -0.1901683 -0.20408678 -0.24430047 -0.15054098 0.21258281 0.141988 0.18897247 0.1772317 0.15200633
어도 0.031207705 0.02382747 -0.022207065 -0.012948041 0.045929793 0.008397537 -0.062002707 -0.002812805 0.012458637 -0.09083177 0.0015428986 -0.012387291 0.00012458029 0.05657859 0.021757849 -0.020461388
군 -0.06421201 -0.018739909 0.078683354 0.054538354 0.014164292 -0.08486027 0.0042518615 0.01789337 -0.03212979 0.055736087 -0.06876144 0.052388433 -0.014490895 0.024810847 0.07709328 -0.007977894
시절 0.04154099 -0.067053914 -0.041925948 -0.101439245 0.015947983 0.092224516 -0.005637675 -0.01712845 0.009685597 -0.17689295 0.018898351 -0.0037508914 -0.049907267 -0.009926509 -0.003812635 -0.041906893
관객 -0.03453207 0.07981365 0.123092145 -0.03937018 -0.039939657 -0.047692373 -0.03115863 -0.03925934 -0.12148625 -0.0039611054 -0.04155492 0.06987244 0.067085035 0.07316405 0.10491082 0.086079046
배경 0.07202783 -0.03043091 -0.021707267 0.07915094 -0.00040838314 0.0520904 0.057555534 0.014522677 -0.025236605 0.022532087 0.004504537 -0.031193933 -0.026316497 0.040300105 -0.0175488 -0.004996113
6 -0.008590089 -0.036327783 0.028585773 0.1553976 -0.013348196 -0.015031049 0.05222746 0.0048414334 -0.05842604 0.13424738 0.035575125 -0.060076784 -0.020062009 -0.008795892 0.01786027 0.014388621
초반 -0.03844115 0.013013007 0.041966535 0.035075143 -0.00551599 -0.02567982 -0.008706974 -0.0018378329 -0.01618413 0.0010645249 -0.05980277 0.019096348 0.00075536 0.027151765 -0.02156359 0.03824554
사실 0.100699924 -0.019907804 -0.061162688 0.0694561 0.0014804541 0.054947887 0.04506744 0.054393616 0.016360922 0.081217304 0.026214523 -0.08348123 -0.014233676 0.007938481 -0.09049725 -0.0909758
웃음 -0.03700262 -0.005099136 -0.0012030858 0.05284654 -0.027014123 0.018683221 0.049062807 0.050677378 -0.05931091 0.031434912 -0.0028128952 0.0030435643 0.033776514 0.02782322 0.047368504 -0.047766164
답 -0.0018751558 0.0414432 0.009158594 -0.0910863 -0.060688827 -0.008727581 -0.06072445 -0.05979389 -0.038507182 -0.075164884 -0.015259352 0.0074631185 0.002636302 0.041686513 0.05299924 0.03247619
엄청 -0.03157847 -0.047701295 -0.025154902 -0.04545348 -0.014432667 0.03521605 0.035592735 -0.04918655 0.019929638 -0.06507873 0.013215374 -0.027412284 0.0031183292 -0.03623109 0.010309267 -0.058780298
더라 0.01283398 0.044478342 -0.01089372 -0.030438801 0.0016399398 0.010531196 0.0012720759 -0.03474452 0.0049478468 -0.024783278 -0.047051 -0.014398234 -0.029137533 -0.043976054 0.014341076 0.039368287
라니 -0.039596584 -0.02908815 0.015100649 0.06368793 -0.023280859 -0.02409215 0.10053873 0.09358114 -0.06652118 0.08921189 0.013278528 -0.04225375 0.006269835 -0.06386208 0.006090837 -0.00050875597
질 -0.05316109 0.07440015 0.09015937 -0.096371345 -0.060926862 -0.08973289 -0.018461417 -0.035496667 -0.0490246 -0.017412392 -0.018668182 0.037896324 0.08340139 -0.0008345008 0.061487637 0.078112245
자신 0.046359286 -0.0053259274 -0.024714403 -0.0457681 0.06577043 0.006086765 0.017492458 -0.010772695 0.053719778 -0.0089748055 -0.01602864 0.020298135 0.031733144 -0.056639437 -0.012242887 -0.07378215
추억 0.03589847 -0.07058199 -0.06026087 -0.097920984 0.110547796 0.06517136 -0.0063383137 -0.032187413 0.06381804 -0.04567924 0.05972851 -0.05166272 -0.07413418 -0.07819111 -0.014312292 -0.05426966
캐스팅 -0.0024514408 0.044699695 0.06513354 -0.04374789 -0.03277371 -0.051798113 -0.09045251 -0.08843375 -0.041556515 -0.017670894 -0.06937073 0.0697566 0.085733466 0.063391514 0.11534608 0.039754596
첨 -0.055284422 0.038532652 0.03885819 0.0016672297 -0.0035790652 -0.06342369 -0.060455997 0.0116754295 -0.008011817 -0.11432392 -0.012829068 0.008911674 -0.0069157924 0.061684042 0.025527488 0.028807865
멋있 0.04838801 -0.13419229 -0.1591379 -0.11624925 0.07392311 0.13423075 0.09318275 0.07895327 0.1644494 -0.029573506 0.08493535 -0.068597876 -0.11891368 -0.08692963 -0.11925242 -0.10208752
류 -0.065274484 0.08126788 0.026295753 -0.09071443 -0.077244 -0.057907097 -0.044778317 -0.033426803 -0.04607642 -0.035253692 -0.013574401 -0.0058543608 0.03875035 0.014203554 -0.00080937415 0.06923851
어색 -0.10213107 0.15611687 0.087931156 -0.17766978 -0.12570761 -0.09551513 -0.0787314 -0.1420521 -0.08576325 -0.10887755 -0.15035917 0.16338404 0.07749833 0.07931396 0.07081296 0.10728403
시나리오 -0.028096773 0.1045243 0.036846288 -0.03479467 -0.06246277 -0.09082609 -0.03708441 -0.0489616 -0.09135959 -0.09943444 -0.06360516 0.0369061 0.09697049 0.011960472 0.10729928 0.07247817
머 -0.02687439 0.0681841 0.045335338 -0.13729186 -0.030558081 0.02150263 0.01205412 -0.011232692 0.01740626 -0.10402148 -0.06796127 0.056434233 -0.009044468 -0.02090902 0.052175265 0.01904346
밖에 0.04218991 -0.020428201 -0.056775272 0.06232329 0.054569315 -0.014028693 0.010221204 -0.03206908 -0.014106725 0.052481428 -0.025796948 -0.036441777 0.0324753 -0.010845708 0.0006693098 -0.02382102
OOO -0.11218017 0.10214331 0.09486282 -0.054320015 -0.117718354 -0.10953587 -0.0720544 -0.11314533 -0.14711282 -0.121993914 -0.09452559 0.120864116 0.1125742 0.027452715 0.085149884 0.06978709
슬프 0.08156444 -0.09751721 -0.07504664 0.14969347 0.13752897 0.08779571 0.09850608 0.12129362 0.06325462 -0.00803889 0.14409375 -0.11957236 -0.11471112 -0.12925749 -0.1158463 -0.1815645
정신 -0.010361829 0.019038023 0.04800424 -0.03731548 -0.06286543 -0.062377147 -0.00992771 -0.026730584 -0.05194983 -0.014751299 -0.039519638 0.06336358 0.038744193 0.0620898 0.02056034 0.073988825
분위기 0.049290635 -0.0077422806 -0.019190889 -0.08439796 0.04812153 -0.023356877 -0.056203816 0.034959707 0.004721302 -0.013879074 0.042625654 -0.028056148 0.03799399 -0.010136755 -0.00026998986 -0.038334418
소름 0.04589318 -0.105538584 -0.1359274 0.021133346 0.059742812 0.13326265 0.06752904 0.098684035 0.10157404 -0.08497076 0.08149137 -0.08711867 -0.10025194 -0.12794183 -0.048003003 -0.11786753
멋진 0.07043894 -0.13082281 -0.090970114 -0.10021748 0.114793226 0.07531101 0.15534928 0.042013016 0.12557364 -0.075494014 0.09325416 -0.14693803 -0.15749152 -0.124507934 -0.12291622 -0.15092508
힘들 -0.016425347 0.038809106 0.06458762 0.023526821 -0.046077088 -0.050459724 -0.036493964 -0.039222736 -0.11675697 -0.07800701 -0.05766094 0.030792423 0.053752672 0.022445744 0.06030048 0.046757746
오늘 0.04944691 -0.041201357 -0.03527767 -0.0020596404 -0.0260173 0.03080804 0.03771485 -0.015309477 0.062147353 0.018720312 0.0574535 0.025773311 0.022277955 -0.043035127 0.005461675 -0.07197681
어이없 -0.19640923 0.12876712 0.16844681 -0.1844216 -0.11985761 -0.1950103 -0.12803318 -0.17097302 -0.17564397 -0.15991312 -0.16986322 0.13370427 0.20210299 0.17806657 0.17427646 0.118362695
봐서 0.013628936 -0.0681221 -0.045496512 0.018387895 0.015076186 -0.02726655 0.06872592 0.036324978 0.01776103 0.049947996 0.00013905475 -0.026584372 0.023110162 -0.02146832 0.025405409 -0.08205302
잡 -0.026931984 0.036112502 0.022016658 -0.05771453 -0.02491482 -0.023000307 0.035166025 -0.013316988 0.050313164 -0.030827813 0.017519094 -0.019566182 -0.007381817 -0.022856222 0.032675914 -0.02173542
구성 -0.031037634 -0.021815876 -0.019434325 0.01665242 0.022294773 -0.042297047 0.061247073 0.04988753 -0.046167515 -0.043083765 0.00760345 0.0125952475 -0.015628828 0.017409096 0.010874725 -0.01688278
엄마 0.008070554 -0.07417586 0.0023986385 -0.01816064 0.0750185 -0.010095322 0.027749399 0.03532571 0.05391349 0.03906605 0.0667137 0.012940904 -0.012181857 -0.0110608945 -0.04676525 -0.06238913
함께 0.049509276 0.0066471705 -0.031051595 -0.023424806 0.0068608792 0.023448255 0.045871206 0.059942607 0.06463415 -0.08429023 0.0008785408 0.0060317935 -0.002656779 -0.059563078 -0.039323702 -0.007939003
문제 -0.07134396 0.033178765 0.016760616 0.01707648 -0.100988105 -0.060454205 -0.035008408 -0.0090833185 -0.11093474 -0.027800372 -0.030766092 0.053138882 0.096121356 0.05594613 0.0836639 0.089599855
위해 -0.00909077 0.026329525 0.07066059 0.10599957 -0.07888983 -0.05706357 -0.03414341 0.017424967 -0.0024024355 0.02107339 -0.061912272 0.06798214 0.072842084 0.07353246 0.04020698 0.079561636
졸작 -0.23182459 0.17810844 0.22505654 -0.12594533 -0.22496252 -0.21903934 -0.114112884 -0.19359364 -0.19223398 -0.09307548 -0.23394963 0.22110291 0.21817832 0.18054126 0.17799515 0.16349876
잊 0.048833158 -0.068210594 -0.11488573 -0.060383506 0.111846544 0.09184741 0.055604823 0.1053648 0.17565534 -0.086607866 0.15981804 -0.12031728 -0.118072964 -0.13433799 -0.099705696 -0.06977177
이딴 -0.23296203 0.2060743 0.21161877 -0.27844298 -0.24507254 -0.24134307 -0.27433765 -0.23689276 -0.18357909 -0.2585211 -0.23633406 0.23263577 0.26049232 0.24536183 0.1670592 0.19859466
등 -0.0014745191 -0.028236099 -0.08653868 0.014815484 0.040683236 0.026519196 -0.008315 -0.035400342 0.035618547 0.037262227 0.062133525 -0.031587414 -0.06425958 0.02169593 -0.04939952 -0.038617145
집 -0.0063156737 -0.03296937 0.035712264 -0.035578128 0.020977914 0.02318509 0.033556707 -0.015165177 0.027547337 -0.047490355 0.004343723 0.0062136604 0.024659168 0.0016829523 -0.027505495 -0.01062586
유쾌 0.18162712 -0.12344922 -0.085418604 0.01912078 0.12829784 0.090392105 0.13948795 0.154973 0.17648841 0.017351843 0.1457132 -0.12539846 -0.14480193 -0.109527245 -0.1103789 -0.12701489
뻔한 -0.16021848 0.08939233 0.10350015 -0.14383483 -0.090533905 -0.037074313 -0.046331543 -0.05396329 -0.13387547 -0.10838237 -0.090279065 0.07878028 0.118314125 0.07977645 0.12607236 0.098865286
킬링 -0.013720745 0.0120785 0.010206866 -0.068957716 -0.038385883 0.020579573 -0.006983761 -0.035330486 0.04111612 -0.097280115 -0.031747196 -0.051028565 -0.006857262 -0.010380402 -0.02237544 -0.038531687
스러운 -0.012918205 -0.09684956 -0.038624685 -0.10394307 0.06363304 0.03047173 -0.0147707295 -0.022533633 0.061877333 -0.10875467 0.0675953 -0.004726828 -0.018136343 -0.09329795 -0.020686187 -0.10081292
결국 -0.054985702 0.025698883 0.039889857 -0.03784944 -0.059598297 -0.034603886 -0.06891651 -0.04107635 -0.014243987 -0.015201454 -0.025852876 0.074337594 0.011687972 0.043392356 -0.0058419844 0.013225711
