9996 16
the -0.0427106 0.06432034 0.03637147 -0.02432655 0.0358816 -0.014269998 -0.075969845 0.00848927 0.01672076 0.0016023077 -0.03275479 -0.003275482 0.028604927 0.020937448 0.03927054 -0.010127113
and -0.0089329425 -0.0013674909 0.022848113 -0.07296967 0.084802516 0.0030932198 -0.12389111 0.07297837 -0.0097756935 0.054931104 -0.03869517 -0.09336722 0.012997117 0.018890852 0.063095056 -0.017845249
a -0.018331235 0.040010225 0.026006695 -0.015027124 0.108301 -0.07921351 -0.113997884 0.09572978 0.0025870565 -0.020026764 -0.009335264 -0.087027356 0.019707391 0.0018688922 0.11304247 -0.034678943
of 0.02244411 0.01175263 -0.038845316 0.02757849 0.047322914 -0.022800034 -0.103559375 0.059534546 0.024254963 -0.018360099 0.009102052 -0.033729445 0.039735124 -0.013901873 0.016948087 0.0025581026
to 0.016092336 -0.011265946 0.0036289722 0.024599168 0.06579331 -0.026550397 -0.060603846 0.08139098 -0.029683191 -0.02694304 -0.022976566 -0.07186317 0.022377476 -0.032706045 0.067633316 0.0017928396
is -0.07211699 0.028849253 0.049163576 -0.004756613 0.05614953 0.023824204 -0.09382273 0.15413116 0.04090915 -0.036983557 -0.024940008 -0.0984511 0.0019735848 -0.0014174278 0.10150317 0.035822224
br 0.028676407 -0.0024900553 0.03349545 0.03085326 0.10215183 -0.026811969 -0.13102908 0.0982529 -0.0037636852 -0.0022256617 0.0023333798 -0.055161964 0.034768146 0.02990376 0.08408085 -0.030458095
in 0.0041899993 -0.027045526 0.018025212 0.01141937 0.010367533 0.01393302 -0.07685289 0.029926695 0.008657543 0.033509545 0.015439261 -0.079364 -0.023135273 0.027211523 0.050885115 -0.026028821
it -0.040991545 0.020542525 0.047150493 0.0021077024 0.10391412 -0.034738775 -0.095631726 0.15700938 0.024957595 0.038079202 0.010204707 -0.065036476 0.007349527 -0.054510765 0.10334713 0.055179205
i -0.014422371 0.012894523 -0.045474127 -0.0036930875 0.09998572 -0.019054886 -0.046845153 0.10716259 -0.011515558 -0.012160032 0.0083860895 -0.052430544 0.011725111 0.06687081 0.05515321 0.032692827
this -0.04129605 0.042499818 -0.0033956878 0.049485955 0.06598234 -0.018287236 -0.06370788 0.047874857 -0.046289124 -0.00041990937 -0.012520025 0.010258088 0.044553854 -0.044154197 0.09688235 -0.015613753
that -0.030417249 -0.02359617 0.008789321 0.03180741 0.041826848 0.035956804 -0.025822418 0.03921688 -0.06020496 0.036578413 0.0011720471 -0.06922569 0.007381756 0.039216418 0.04526045 -0.011513749
was -0.034761388 -0.039099246 0.012241846 0.023621442 0.010140065 0.029025454 0.012520244 0.020112727 -0.06759408 -0.06912438 -0.060435217 -0.019362569 0.047100022 0.0041196137 0.08680242 0.0077257496
as 0.018056164 -0.0011626778 0.04683893 -0.020350272 0.03805206 -0.0014376108 -0.06265472 0.063316144 -0.027336951 -0.037064336 0.03588984 -0.028598592 0.037116833 -0.026377551 0.0019895583 0.039772306
for -0.017133938 -0.013804945 0.016919274 -0.013304148 0.04131749 -0.0005854403 -0.09577473 0.11777955 0.01958274 -0.07495769 -0.03709497 -0.06504231 -0.015300591 0.0020567684 0.0426455 -0.063932694
with -0.051631 0.002233332 0.002277574 0.038129386 0.040574618 -0.030912187 -0.044674687 0.087434135 0.033661302 -0.03523932 -0.017679675 -0.06627879 0.024893729 0.018580478 0.012196947 -0.04231807
movie -0.0279314 -0.030471059 -0.056276392 -0.012004168 0.102063954 -0.028514829 -0.06420821 0.064731695 -0.0028949892 0.014142391 -0.057956662 -0.024768949 0.0074319066 0.001316398 0.106527865 0.04224418
but -0.023794333 0.031955633 0.0035179325 0.034243524 0.059045993 -0.024928184 -0.038784314 0.07253402 -0.02359125 -0.015939323 0.05370945 -0.045624364 0.03274668 0.0065892837 0.04861832 -0.0143142715
film -0.07897613 0.018982956 -0.023391347 0.035353776 0.046799958 0.011370724 -0.060188096 0.055734057 0.04419356 -0.040184457 3.276208e-05 -0.016505376 0.0025039942 -0.04647534 0.09877973 -0.0028709183
on -0.00063023984 -0.04273833 0.018919 -0.046092782 0.040234588 0.011135982 -0.13564979 0.07005094 0.012399371 -0.0028632686 -0.03568282 -0.06766476 0.040719274 0.039881505 0.008969065 0.04484761
not 0.024979169 -0.028239543 -0.06067206 0.032324955 0.039538812 0.044015862 -0.027083937 0.062536426 -0.0669356 -0.01361481 -0.028926812 -0.020983445 0.0041079395 -0.02775716 -0.05093605 -0.041883074
you -0.01645489 0.015030018 0.011726896 -0.0013903524 0.0861891 -0.042411998 -0.10428265 0.027961582 0.043804146 0.038578447 0.048572283 -0.04452444 -0.006838638 0.03722651 0.080077164 0.040523622
are -0.008161805 0.022964578 -0.041645408 -0.024835462 0.043396533 -0.0035679517 -0.00055030937 0.07179522 -0.009597727 -0.0685061 -0.040186208 -0.05868075 -0.0047028107 -0.020076687 0.07269738 -0.015447389
his -0.015551896 0.036107734 0.065151274 -0.03075557 0.04534971 -0.04770643 -0.033001766 0.05240519 0.056262407 0.081324756 0.009323539 -0.09908005 -0.06338336 0.051319223 0.008526653 0.07025395
have -0.012247074 0.014344839 0.0013641006 -0.0018395532 0.1081978 -0.024018938 -0.035307948 0.003289753 0.04743628 -0.032485332 -0.028513463 -0.043706566 0.025522497 0.058811814 0.015249526 0.015168756
he 0.0063543213 0.047356643 0.04908513 -0.038261604 0.0510492 -0.045305602 -0.04896653 0.033684712 -0.028795104 0.036562923 -0.0118744895 0.0030201913 -0.026109522 -0.019824121 0.008953326 0.046611514
be -0.033468414 -0.0030338 -0.038807813 -0.009764528 0.03800795 0.008562489 -0.050955083 0.056338154 0.02703357 0.025796913 0.026741369 -0.009196371 -0.0040984014 -0.0006945459 0.042488653 -0.024579197
one 0.0008484648 0.028386455 0.047053065 0.004635788 0.048577905 -0.013731116 -0.04689947 0.1513627 0.043706622 -0.025543792 -0.0011355438 -0.0983277 0.02273398 0.010384586 0.091701165 0.005285498
all -0.01491508 -0.0032038495 0.065357886 -0.035367373 0.010044754 -0.01784155 -0.16428006 0.07233615 0.019834734 -0.026818959 0.033975974 -0.033738796 0.028545333 0.03698607 0.06952377 0.0016453913
at -0.02439646 -0.0161811 -0.0038988777 0.02721385 0.09468807 0.0015976044 -0.022292852 0.0053236666 0.031600114 -0.008917029 0.016634997 -0.052923266 -0.008332808 -0.011619524 0.009749969 -0.0021332337
by -0.027669188 -0.01085201 0.0018898604 0.021588359 -0.00029293296 -0.031356774 -0.03649184 0.08059615 -0.029148411 -0.026148826 -0.07335826 -0.0069873272 0.0068141795 0.0084748445 -0.019808298 -0.008778876
an -0.015572156 0.026374385 0.02698638 -0.032673802 0.042965543 -0.05499394 -0.0578716 0.019408427 -0.035980336 -0.021603903 0.01907322 -0.026922973 0.029094143 -0.00021125539 0.040375527 0.009707477
they -0.017752273 -0.03393032 0.027663648 0.007794637 0.07992421 0.00060597673 -0.067701615 -0.02978305 0.03531914 0.00601893 -0.018255385 0.028216885 0.00888343 -0.019756204 -0.04555575 -0.026541857
who -0.044610914 0.043417167 0.009600581 0.004427272 0.08110452 -0.028659612 -0.066639766 -0.03754413 0.008434799 0.0019627074 0.042070657 -0.019543538 -0.07081511 0.032250714 0.036787413 0.041108962
so -0.02161281 0.022356285 0.024112036 -0.006618947 0.11450374 -0.008421893 -0.05351047 0.03549857 -0.028222023 -0.019466681 -0.030291913 0.03207131 -0.027995475 0.03781588 0.080428876 0.013060992
from 0.037362505 0.03438991 0.0073024756 0.020389296 0.05062476 -0.012050786 -0.08959985 0.03411624 -0.047405932 -0.038491864 0.017351659 -0.032174703 0.027867386 -0.0311254 -0.005547192 0.0038471553
like -0.018537033 -0.02558672 0.035732437 -0.0037474004 0.07868834 -0.053053394 -0.0839714 0.011465112 -0.04592292 -0.03264093 0.0125657795 -0.03842122 0.019898484 -0.032023266 0.023283022 -0.02767013
her -0.047314268 -0.02009037 -0.0036855717 -0.042030342 -0.0109477015 0.020652846 -0.055360995 0.019612592 0.065862924 0.011866249 0.019404797 -0.008682091 -0.06330685 -0.0060775094 -0.012054711 0.040012456
or -0.009231681 0.0015544825 -0.015708048 -0.023048405 0.017514681 -0.037486043 -0.048457075 0.012842023 -0.062268753 0.033017322 0.029934078 0.0016784099 -0.027814208 0.05133215 0.05980797 -0.027730828
just 0.03337756 -0.041845728 -0.022818515 0.021412075 0.09587644 -0.013569831 -0.08844711 0.10370846 -0.036109395 0.0058378787 -0.04285813 -0.007249587 -0.001954362 -0.009062509 0.08167033 0.012448177
about 0.0025093632 0.03214162 0.016898138 0.000102716265 0.06188027 0.04275053 -0.02854732 0.019811055 0.0054071955 -0.063199274 0.0020171702 -0.024488987 0.0058244863 0.023310494 0.0330423 0.012500904
it's -0.03338975 -0.0037485615 0.04582163 -0.017592274 0.08722485 -0.008553193 -0.113577925 0.08136485 0.021648018 0.0019312105 0.014595931 -0.06520915 0.039415162 0.030623414 0.030174568 -0.019654911
out 0.0009983076 -0.009022974 0.05273293 -0.050561935 0.13218741 -0.02555441 -0.13709487 0.08900255 0.01768604 -0.0035724763 -0.043651376 -0.00496752 -0.015761198 -0.030653546 0.057676997 0.0033086531
has -0.040292136 0.027893955 -0.031676497 -0.027223367 0.0009909449 0.031868253 -0.008344295 0.044928763 -0.016007189 0.021359306 -0.034919996 -0.039334826 0.037855692 -0.0068764687 0.06865465 0.035626404
if 0.055805773 0.005505246 -0.013308294 0.06973477 0.03685544 0.013871534 -0.114671834 0.020989427 -0.038822625 -0.0021351199 -0.032606035 0.017833084 0.015921716 0.011468642 0.032074206 0.0032864185
some 0.0010349825 0.032657873 0.041075926 -0.017214613 0.087631956 0.032049686 0.0068285395 0.021414911 -0.039440203 0.004521143 -0.023899192 -0.08125873 0.025224209 0.033466298 0.06900084 0.034398146
there -0.00052895694 -0.020463962 0.009495481 0.0050603133 0.07227653 -0.0012110869 -0.019882306 0.037079796 -0.040671032 -0.017776435 0.009198581 -0.016787913 0.03559386 0.03406737 0.085893795 -0.036930047
what -0.07022257 0.015630126 0.045276213 -0.06219178 0.068414666 -0.083485685 -0.071298614 0.025164973 0.051108893 -0.01153842 -0.006595788 -0.02715297 -0.054324877 0.07689695 0.08574833 -0.005357591
good -0.08821822 0.03151587 0.015684443 -0.06745267 0.108703464 -0.0756964 -0.09608681 0.0363888 0.018218324 0.003186101 0.009950225 -0.058943186 -0.07569433 0.02213496 0.047520395 0.028283788
more -0.060398616 -0.021072973 0.040014144 -0.014389217 0.028216606 -0.07628842 -0.08119735 0.07283956 -0.020194154 0.040505297 -0.039759383 -0.094222106 0.039456304 -0.02901446 0.005187886 -0.031931914
when -0.02725564 -0.046304 0.048976082 0.023486258 0.013560037 -0.008629251 -0.04579716 0.034227986 0.012354776 0.011890736 -0.026345637 -0.046496015 -0.03277844 -0.016124932 0.019848704 0.024126304
very -0.009079024 0.02303928 0.08298913 0.012530673 0.11256793 0.011368319 -0.061926734 0.090041146 0.012431266 0.01987495 0.043806292 -0.097320154 -0.067948304 -0.021683145 0.122849986 0.0047862045
up -0.048667323 0.043358993 -0.031592753 -0.003640692 0.05194262 0.0019725305 -0.051730476 0.074923635 0.022983465 -0.010396954 -0.022963276 -0.02058751 -0.023652764 -0.034378916 0.053271208 0.016988667
no 0.05171821 0.0051353574 -0.09446777 0.007658438 -0.008026341 -0.002674446 -0.058152854 0.022588527 -0.07941495 -0.07253007 -0.026510214 0.07397203 0.042271767 -0.002693907 0.0045513925 -0.0572953
time -0.03261708 -0.021473963 0.038053453 0.024289582 0.035305057 -0.00728662 -0.12054011 0.14154872 -0.014897503 -0.011573938 -0.059519336 -0.05000689 0.016338117 -0.030250594 0.039936416 0.029937051
she -0.03967208 0.034475036 0.0046366956 0.013883422 1.7140585e-05 -0.027086547 0.011985628 -0.024472047 -0.013150988 0.064545214 0.0032722363 -0.013556932 0.01936231 0.017317735 0.038824726 -0.033699058
even 0.004034629 -0.04406139 0.0028675916 0.051726695 0.013572782 0.020189093 -0.06364362 0.021126725 -0.051689804 -0.016879387 -0.08893232 0.028794078 0.012619682 0.0005830235 -0.032660916 -0.09049828
my 0.0016799499 -0.011348261 0.04001866 -0.035084277 0.035366613 -0.019643277 -0.10547161 0.075047694 0.041642092 0.040517315 0.015525706 0.004787207 0.030659314 0.058443815 0.03982175 0.036131788
would 0.01422671 0.02375248 -0.018748548 -0.0046131588 0.05812165 0.0057558944 -0.062506944 0.039449245 -0.0686751 0.0031641622 0.0066781207 0.035731975 0.07972898 -0.027947992 0.042833578 -0.034690578
which -0.021528952 0.021910546 0.031361617 -0.03092604 0.022975734 -0.061495304 -0.11786649 0.036933888 0.033816908 0.025760565 0.028467612 -0.045064244 -0.067016676 -0.013586063 0.0058236234 -0.016744327
only -0.01603135 -0.06143335 -0.022965012 0.03327905 0.035826355 0.018038297 -0.048076537 0.007951067 -0.0563153 0.0040834807 -0.05506371 -0.0107724015 0.013153961 -0.02001635 0.025587378 -0.063965656
story 0.005127551 0.029446058 0.03153041 -0.03904017 0.005744075 -0.05295312 -0.0859795 0.03216861 0.057524405 0.03873255 0.061146077 -0.038637232 -0.031483456 0.07800253 0.07157865 0.0035144766
really -0.026913509 0.044789974 0.007054959 -0.0039712014 0.05159547 0.0018139929 -0.06361898 0.031827312 -0.009673746 -0.016485903 0.008930556 -0.0029206388 0.040468376 -0.041165706 0.054774757 -0.043366343
see 0.024231099 0.056452215 0.03461392 -0.055560555 0.0279118 -0.055283133 -0.102606386 0.045726746 0.035803452 -0.041176792 0.03187437 -0.07823712 -0.041486647 0.011974004 0.017629132 -0.0018023564
their -0.035261493 -0.029527485 -0.032246638 -0.007451386 0.038239107 -0.022227833 -0.059796646 0.03339318 -0.015980667 -0.041007563 0.023957353 -0.04797246 -0.042443767 0.02278438 0.04047649 -0.008860262
had 0.07119632 -0.021219578 -0.074019946 0.06117914 0.044853415 0.03848034 -0.050472945 -0.02774936 -0.056027643 -0.0024578443 -0.014239158 0.021007566 0.043366674 -0.0074672163 0.057262205 -0.027421113
can 0.042403758 -0.017929092 0.030458914 -0.023642588 0.072813466 0.03000945 -0.045910746 -0.0057008276 -0.0027832985 0.007972863 -0.0048513655 -0.060015082 0.059994742 -0.02436455 0.024057202 0.0145495385
were 0.034244396 0.015973108 0.005194556 0.03958789 0.088448115 -0.014257131 0.06286074 -0.01506881 -0.06090014 -0.04650599 0.036532033 -0.004562439 0.049636483 0.044962216 0.0855642 0.013327719
me -0.02798763 -0.009793976 -0.014145162 -0.02862577 0.09439988 -0.06272426 -0.07705576 -0.0118532395 0.060875323 0.04622389 0.011492262 -0.06112747 0.02694387 0.07059696 0.07373737 0.028746506
well -0.072422095 0.07868154 0.06542127 -0.034725577 0.057754345 -0.09548601 -0.16640644 0.0621435 0.075757205 0.021381425 0.055876497 -0.13975511 -0.06354562 -0.016492316 0.034153365 0.01652141
than 0.011423732 0.022623178 -0.03324446 0.0016572627 0.08242772 0.03246249 -0.059893124 0.012155656 0.021510338 -0.013772745 0.001959649 -0.0022238875 0.0043540024 0.030441405 0.05337502 0.037401482
we -0.06360073 0.012055943 0.020098386 -0.033523753 -0.009839389 -0.06258082 -0.022882061 -0.0075944127 -0.008553955 0.0014390821 0.0051506534 -0.04184108 0.020252023 0.041090377 -0.043558218 -0.035656344
much -0.0073614093 -0.05273199 -0.06497039 0.057890568 0.0058508753 -0.0019747796 0.014429442 0.017215 -0.013110846 -0.010555181 0.006711247 0.015997635 0.053203378 -0.056485757 -0.022315847 -0.0018777603
been -0.014538015 0.012267077 -0.072044566 0.05643405 -0.013896461 0.0094803795 0.010200777 0.0086539965 -0.07271749 -0.04320916 -0.072966784 0.0008493134 0.04556704 -0.04645394 -0.04437691 0.0039631096
bad 0.03567686 -0.076625474 -0.13590762 0.083283 -0.10969479 0.07199469 0.04922396 0.10750141 -0.08513022 -0.034235805 -0.12966342 0.09331325 0.08523231 -0.09160234 -0.06879278 -0.13510914
get 0.0026502856 0.0438594 0.013194014 -0.028987372 0.06261956 -0.057204194 -0.10961068 0.018590009 0.026524354 0.0188647 0.03574265 -0.02882124 0.035666026 0.0028946411 -0.012942559 -0.043979287
will -0.05865404 0.063832976 -0.023039332 0.030712664 -0.023140445 -0.06373221 -0.12707503 0.06581537 0.036168918 0.019675016 -0.0022196188 -0.103737414 0.018325245 -0.05011976 0.030890862 -0.04209623
do 0.040192693 -0.029572414 -0.04798994 -0.031456452 0.10069277 0.0037403414 -0.11066841 -0.012277369 -0.019358432 0.0032012337 -0.01615966 0.054474358 0.04881017 0.055386998 0.01470005 -0.02311716
also -0.04963837 0.07376574 0.03423817 -0.015696114 0.05085989 -0.10223148 -0.043310367 -0.010156866 0.03097675 0.071033046 0.06717323 -0.09257287 -0.037927005 0.07242854 0.043616284 0.07142042
into -0.027276188 0.040751778 0.010206046 -0.04436674 0.033262756 0.027759064 -0.041926075 -0.013659964 0.017954852 0.049439866 -0.04572809 -0.022890871 -0.007425513 0.039512046 0.052739583 0.03603675
people -0.027695239 -0.04345018 0.0016501677 -0.019732596 0.008178865 -0.021310339 -0.011517083 0.04171574 -0.0026634203 0.008212898 0.03897476 -0.0219301 -0.020034835 0.04269231 -0.01222644 -0.04899617
other -0.037667893 0.035150103 0.027461683 -0.04418343 0.051212136 0.014213819 -0.09783046 0.015613429 -0.041063707 0.052632723 0.021911616 -0.08302791 -0.020332167 -0.035910133 0.021449687 -0.027021691
first 0.036366582 -0.023992337 -0.041353334 0.014486111 0.053332675 0.021458749 -0.012737729 0.07189907 0.03694889 -0.0133371595 0.0014400512 -0.06328102 -0.030195495 0.031874295 0.050204985 -0.014803607
great -0.100438446 0.14160998 0.16803965 -0.11179052 0.100618824 -0.15304248 -0.1262377 -0.02997689 0.14352782 0.14206968 0.08261886 -0.10330124 -0.17339368 0.14489716 0.098859906 0.12508495
because -0.025680263 -0.048932564 -0.037996683 0.041529547 0.025865614 -0.03636598 -0.062003728 0.020877976 0.025357304 -0.0009574504 0.004645109 -0.04648288 0.025330389 0.0039819544 0.029641215 -0.028250787
how 0.008893732 -0.051183674 0.0010066966 0.033619445 0.02111191 0.010577898 -0.016587764 0.05370922 0.0028401022 0.011766128 0.00091609114 0.005390587 0.03265169 0.05085353 0.024204677 -0.0055091805
him -0.0070951837 0.03677177 0.056012765 -0.01639052 -0.028443402 -0.033117086 -0.083042406 -0.051764373 0.038640037 0.011162391 0.010091923 0.015856901 0.027761081 -0.013491931 0.024836337 0.0017468559
most -0.09760641 0.10011521 0.0648471 -0.03537565 -0.0033020503 -0.08784334 -0.07052482 0.044511035 0.009212991 0.073289394 0.044236653 -0.04553875 -0.08494441 0.0683403 0.102731034 0.016428044
don't 0.00505318 -0.0073110173 -0.06629342 0.019585378 0.02386052 -0.025897719 -0.07227163 0.0385458 -0.043748066 0.017707113 -0.045134805 0.0009122705 -0.0128063895 -0.020702956 0.008934843 -0.023778949
made 0.011307191 -0.025918769 -0.03668773 -0.015524343 0.08585282 0.01977996 -0.07534238 0.022748254 0.025759935 -0.025326457 -0.04811695 -0.07660179 0.028814586 -0.018814316 0.041768204 0.025232501
its -0.038355526 0.013889505 -0.007591956 -0.074199 -0.008017308 0.006950891 0.0024651447 -0.017810745 0.050538614 -0.021285411 -0.0013749808 -0.080099344 -0.010908634 0.010133073 0.06064213 0.053963166
then -0.021568868 0.014294365 -0.042425834 0.04889561 0.08616443 -0.0031085983 0.024838714 0.030470505 0.04578497 -0.032354582 -0.04896213 -0.0058460985 0.013100592 0.020422911 -0.03339215 0.03329961
way -0.021150906 0.03260039 0.009102105 -0.03348936 0.06495271 0.030368911 0.007500238 0.02780749 -0.018559743 0.05351635 0.013117529 -0.028933879 -0.017259909 0.030078927 0.01620766 0.015568786
make 0.00244104 0.03728654 -0.06309919 -0.004506499 0.06177426 -0.021353478 -0.014675192 -0.03440042 -0.034736697 -0.048710875 0.012429974 -0.014079613 0.05683459 -0.035261262 0.03665356 0.02119581
them 0.027290802 -0.03948243 -0.05243869 0.008120376 -0.018090913 -0.019376155 -0.07042914 -0.025307069 0.012677694 0.027752839 0.0068426607 -0.032555714 -0.026834318 -0.017980756 0.04666717 0.03628806
too 0.020870848 0.034099102 0.019666377 -0.013601048 0.03686477 0.017115757 -0.04429124 0.067443475 0.007245733 0.009347983 -0.021720024 0.044809397 -0.008049354 0.0456571 0.05679029 0.04383934
could -0.003695286 0.0051968503 -0.010631625 -0.0055759265 0.114230625 -0.05635878 -0.06766431 -0.0071869395 -0.032298923 -0.017728478 -0.016414283 -0.030085322 -0.0315313 0.0367439 0.038032908 0.012199412
any -0.002433218 0.029376436 0.017453104 0.057982 0.018884873 0.023523305 -0.097122654 0.032595325 0.017199298 -0.01615527 -0.031447325 0.014836811 0.0236334 0.01949312 0.059605792 0.0037855061
movies 0.036442783 -0.009659371 0.002270445 0.032927632 0.05435753 -0.02546665 -0.119830646 0.0821015 0.030209795 -0.049587544 -0.04207381 -0.041404217 0.026089592 -0.06886142 -0.0051884055 0.0047930954
after 0.031237338 0.033799384 0.012399905 -0.047219526 0.004351345 -0.059879724 -0.06756752 0.015821688 0.04451115 0.0013816374 0.0382071 0.03341474 0.021701738 0.03434708 0.04680743 0.027962176
think 0.009491452 0.013232653 0.029029455 -0.054644052 0.056201596 0.015457042 -0.04533375 0.03158564 0.052998107 0.036097493 -0.012722059 -0.08337554 0.03111256 -0.030940853 -0.009862177 -0.031241408
characters -0.020274034 0.022365345 -0.00178835 0.028884599 -0.03522081 0.030568369 -0.057640053 0.102432385 -0.02584115 -0.021142293 -0.014882467 0.040217586 0.044664547 0.025677893 0.053715535 -0.00941791
watch -0.08065978 0.058410536 0.01772528 0.020183792 0.051903315 -0.07787233 -0.102387145 0.122421965 0.03767003 0.027561352 -0.030265909 -0.062038824 0.033446025 -0.041316826 0.08696773 0.010939906
two 0.023773342 -0.014554301 0.0015025127 0.07072565 0.033766206 0.00860218 0.016948998 0.017100101 -0.02403436 -0.054829836 -0.05703927 0.00024876467 -0.00030219514 0.026181368 0.04489267 -0.04735932
films 0.016017258 0.042792134 0.006425774 0.002496662 0.030891385 0.019443277 -0.045997813 0.030078158 0.010794189 -0.029911213 -0.060587917 0.025206849 0.06674011 0.019572912 0.036746927 0.017129337
character 0.0056094658 -0.032703854 -0.0049265614 -0.0073882807 0.028405074 -0.0051363828 -0.022614772 -0.021195853 -0.029391397 0.040786322 -0.019391378 -0.014730851 0.016635234 0.039173327 -0.003799018 -0.045962777
seen -0.037250035 0.091974154 0.05303033 -0.038448308 0.061488833 -0.057216313 -0.09354179 0.062039122 0.08461084 0.070033625 0.041090023 -0.079375416 -0.024054153 -0.012984099 0.028324643 0.014920881
many -0.052910473 0.0005592585 0.008658156 -0.072281115 0.0153935775 0.005077101 -0.08989836 0.042710803 0.041126292 0.04567283 0.035853103 -0.039637007 -0.0023303854 -0.022630364 0.029083105 -0.012796285
being -0.041408174 -0.032969143 0.0037010184 0.04342688 0.014167303 -0.029280605 0.037281137 -0.029606787 0.008928081 -0.050067544 0.029526787 0.0032587997 0.0100848945 -0.026309941 0.041351013 -0.030277165
life -0.08367959 0.04224637 0.09511882 -0.076721184 0.06738024 -0.0083416775 -0.07231334 0.009468102 0.0151221575 0.04713835 0.08500576 -0.046006124 -0.065280326 0.020020958 0.09951956 0.019264376
plot 0.036325138 -0.014296271 -0.018617244 0.041896686 -0.014415264 0.020271484 0.026000414 0.09031035 -0.018289963 -0.017812358 0.00065440877 0.025631158 0.006457094 -0.0070641977 0.02215802 -0.04447125
never -0.059865985 0.059548073 -0.018430421 -0.03403035 0.028542805 0.032815564 -0.020766273 0.0152240535 -0.03223414 -0.025201214 -0.0037413312 -0.06898919 -0.013888606 -0.009431387 -0.009201723 0.02893832
acting -0.047917828 -0.049645953 -0.03175336 0.042426858 0.06010271 0.043198396 0.007993104 0.06445717 -0.035341088 -0.029922502 -0.059399974 -0.0032850686 0.035418324 0.010454698 0.0027926585 -0.023845552
little -0.019104026 0.05623089 0.054308943 -0.034503546 0.0012230498 -0.01153528 -0.04132385 0.012529681 -0.05295438 -0.026359467 -0.026683897 -0.011932072 0.010838062 0.0023908017 0.014763434 0.028680937
best -0.12492602 0.07397517 0.09358116 -0.083407246 0.15722235 -0.10078159 -0.1313707 -0.01809529 0.07684757 0.10442475 0.1501488 -0.16980603 -0.10593864 0.058380183 0.15171234 0.075108774
love -0.12522066 0.11393992 0.13862875 -0.12185861 0.074040964 -0.0759122 -0.18031795 -0.096023984 0.052388236 0.11584421 0.08519518 -0.16506879 -0.11523763 0.053183533 0.07005866 0.09464563
over 0.038028736 0.019023782 -0.03565563 0.04847801 0.076503426 0.041341867 -0.042953447 0.053116668 0.017428096 -0.023949213 -0.017012116 -0.0064362567 0.0419876 -0.029932506 0.02003186 0.0012923597
where 0.06447817 0.014390952 -0.06071587 0.028984558 0.012777041 -0.02400087 -0.026964393 0.041937172 -0.005975139 -0.03208068 -0.014099042 0.036989268 -0.016981807 0.040538102 -0.036197513 -0.0039838473
did -0.034232628 -0.042513978 -0.05863251 -0.041347504 0.07786272 -0.061060954 -0.043814596 0.047690414 0.011809733 0.005987112 -0.020132376 -0.031925634 0.033666905 0.012453408 -0.023159647 0.017749084
show 0.012155738 0.0101659885 0.053970896 -0.013087465 -0.025164602 -0.029017877 -0.048772097 0.08721064 0.0051357015 0.009806496 -0.033775702 -0.05133869 0.04914892 0.00039135176 0.0030115317 -0.04413213
know 0.009623653 0.01741686 -0.005551987 -0.042686116 0.07760437 -0.039076243 -0.03346928 0.00016518048 -0.014275531 0.06347488 -0.0037142409 -0.073845476 -0.03831703 -0.014960734 0.014114223 0.010828989
off 0.0332787 -0.009288102 -0.012872487 0.05595585 0.037463814 -0.032491814 -0.07928904 0.065298 0.034094654 -0.035738133 0.005891784 0.0091773495 0.06350798 -0.03988469 0.05495999 -0.015279946
ever 0.041546162 0.025964007 -0.031661958 -0.0044475733 0.007845834 -0.00337623 -0.08820248 0.12581155 0.013552803 0.016744867 -0.06253723 -0.04733021 -0.010705355 -0.019317629 -0.028045513 -0.025529208
does -0.044828795 -0.015833903 -0.04057328 0.03473419 0.03399725 0.01748739 -0.01792163 -0.00402607 0.03531393 -0.039058663 0.02710596 -0.021490531 -0.04904421 -0.021731246 0.011853558 -0.025029128
better 0.057674866 0.0011738664 -0.006071772 -0.0028729076 0.07086392 0.058087558 0.07086891 0.11059753 -0.017490523 -0.04728374 -0.015429029 0.0516457 0.0023732232 -0.06700733 0.0027679615 -0.05917412
your -0.0010503258 0.039434202 -0.039344486 -0.03604219 0.09245551 -0.06363426 -0.1775273 0.116834566 -0.045582272 -0.0212564 -0.060592264 -0.029210068 0.044356342 -0.01813965 0.017681818 -0.026234493
end -0.048226647 0.0363699 -0.015086738 -0.0024990272 0.06905202 0.016781412 -0.0710619 0.05410171 -0.047580115 0.024631474 -0.013185303 0.022649454 -0.0037861867 0.0026540756 0.023506073 0.031192638
still -0.04919604 0.09087343 0.09811755 -0.08729419 0.07884714 -0.0027033149 -0.09883283 0.015727865 0.061998487 0.073754534 0.037643526 -0.10235267 -0.03997483 0.032626975 0.07000515 0.03952563
man 0.00018429823 0.0022776914 -0.009346619 0.02776648 0.01239867 -0.013064827 -0.026868332 0.071673445 0.017101217 0.017705359 -0.0490635 -0.061430335 0.028772231 -0.066025525 -0.02168165 -0.022975767
here 0.04675467 -0.049867224 0.016226161 0.0016852943 -0.008228631 0.03690048 -0.02967898 0.01600167 -0.010258793 -0.015520491 -0.042677414 -0.06732592 0.048510216 0.0007711686 0.04719152 -0.014635939
these -0.037746258 -0.001391462 -0.0023171837 0.01190851 -0.0111499755 0.017266056 -0.044056125 0.027427746 0.043939594 0.039523162 -0.028237484 0.01254824 -0.04695528 0.047335137 -0.017739411 0.011124223
say 0.061728287 -0.024388576 -0.026876044 -0.014073267 0.042050395 0.020136239 -0.012940926 0.039901935 -0.003192686 0.008874627 0.0018629171 0.0565163 0.072223276 -0.013996991 -0.0571575 -0.059012815
scene -0.07944233 0.06867032 0.01962596 -0.037350226 0.021333452 -0.029109478 -0.045704145 -0.015333684 0.06133033 0.013610829 -0.023504103 -0.09300235 -0.059597675 -0.012473708 0.09196842 0.061154988
while -0.0055443035 -0.012925417 0.043338574 0.010947683 -0.014943513 0.029045986 -0.065422624 0.035604816 -0.006044592 0.05596287 0.056748256 -0.07493644 0.008570592 0.014001637 -0.029178064 0.04450767
why 0.037077464 -0.022469657 -0.015491199 0.004946027 -0.02548133 0.009072767 0.023498734 0.06987371 -0.010480428 0.00061614485 0.0010871212 -0.018962394 -0.0016837283 -0.0395934 0.056927886 -0.026788453
scenes 0.04055494 -0.051157977 0.030001137 0.015007325 -0.058568437 0.03142109 -0.014297291 0.03972862 -0.021247856 -0.040898923 -0.033717968 -0.042008042 0.0002544119 -0.01297484 0.026928997 0.00882927
go 0.014505742 0.0063156094 0.011788904 0.029303348 0.044728186 -0.020506008 -0.09911588 0.065135136 0.013510646 0.005310505 -0.014166297 -0.0084930295 0.0012754494 -0.027189504 -0.02313508 -0.05352597
such 0.027355652 0.030044423 -0.012475597 0.028917193 0.03341624 0.03939653 -0.06982641 0.044544388 -0.014872909 0.02627062 -0.024025068 -0.0059991456 0.017856507 -0.031577736 0.010607457 0.04122058
something 0.04762302 -0.05516153 -0.050300818 0.03594536 0.008163237 -0.006790612 -0.009338067 0.024938336 -0.05468715 0.027035508 -0.06627326 0.0064612236 -0.00023717657 0.020565975 0.00073545787 0.025885837
through 0.06418092 0.009081701 -0.021578137 0.0037934715 0.016345069 -0.028962962 0.010239026 0.014307427 0.020468457 -0.062388733 -0.01814676 -0.035477236 0.047045007 0.014533099 0.0012565914 -0.059587453
should -0.011433746 0.055112235 0.03561995 -0.054453067 0.06468989 -0.03938701 -0.139681 0.044254877 -0.02283114 -0.0216979 -0.04695555 -0.040276717 -0.010260748 0.040328044 0.11525959 0.015528124
back 0.014856738 0.018472001 -0.02779365 9.6242875e-05 0.018395996 0.041093383 -0.047525972 0.13252442 0.030207679 0.004050431 -0.07776387 -0.05847573 0.05875672 -0.025193613 0.020327898 -0.00043214124
i'm 0.021570267 0.007168568 -0.049922515 0.030688502 0.056188524 0.0012514743 0.004810356 0.0694184 -0.075350694 -0.021972539 -0.006736705 0.050985042 0.095077485 -0.04119456 -0.03914539 -0.012983381
real -0.05506642 0.06136983 0.02452095 -0.043326117 0.0035494661 -0.038794193 -0.079723746 0.08782538 0.039429024 -0.037357945 -0.017028268 -0.028015736 -0.046269663 -0.0029123041 0.0700873 -0.034544192
those -0.0411876 0.030672437 -0.0033720338 -0.003621402 0.00910578 -0.073636554 -0.09673926 0.05072555 0.07427825 0.034952186 0.04438183 -0.10661094 0.024868017 0.019377317 -0.012384159 0.052180234
watching -0.03689616 -0.0058351867 -0.06446049 0.0017859627 0.07345046 -0.022671837 -0.14324765 0.11052923 0.026044676 -0.013052758 -0.06876423 0.022873612 0.042099938 -0.06222245 0.055059236 0.008882254
now -0.046589326 0.07060061 0.03446728 -0.06941176 0.05552798 -0.00033893 -0.12881397 0.07334581 0.067710884 -0.013443084 0.034690637 -0.025465872 0.0113569815 0.042425632 0.07799236 0.0051390547
though 0.020480305 0.022516211 0.042931795 0.017485337 0.0031532976 -0.03829904 0.012227256 0.043193296 0.02111375 0.017888198 0.012237747 -0.077125326 -0.046150908 0.034485377 0.039084207 0.047441583
doesn't 0.06838657 -0.027019462 -0.09112646 0.050010104 -0.0020353436 0.037435148 0.08639588 0.096976124 -0.039354634 -0.10542857 -0.045135796 0.045359794 0.045799468 -0.08226824 -0.024750495 -0.06911594
years -0.020892086 0.054729685 0.05777184 -0.008875338 -0.009705877 0.008793259 -0.01444393 -0.0061386023 -0.0012859381 0.053025484 0.0331709 -0.0068609184 0.033979252 -0.024897067 0.0017880292 -0.02219248
old -0.0505558 0.02742901 0.03685543 -0.023332076 0.03371835 -0.06107904 -0.08472753 -0.010604096 -0.0031397343 0.020059455 0.005701947 -0.011453107 -0.04390896 0.021285413 0.05042909 0.010954903
thing 0.02494041 -0.06743844 -0.04109361 0.05795661 0.03702283 0.042296264 0.046478227 -0.040766228 -0.090304345 -0.011313225 -0.03796734 0.04174172 0.04070336 -0.02821323 0.0072366833 -0.027771778
actors -0.005874913 -0.020141153 -0.04410784 0.03209738 -0.0055958726 0.00064135867 0.027912058 0.10678439 -0.08242375 -0.04713827 -0.058267903 0.055770177 -0.0009934306 -0.011802587 0.026330296 -0.06916744
work -0.047831807 0.030759241 -0.012042687 0.007115782 0.020865407 -0.018272493 -0.024927339 0.06786089 0.036109533 -0.0052008233 -0.04683831 -0.0006935409 0.025387827 0.011663797 0.034907598 0.046023626
10 -0.031647015 0.07403248 -0.0442719 0.029341275 0.15064187 -0.06415685 -0.23431867 0.24685572 0.0021545738 -0.04593014 -0.019914748 -0.13260673 0.0838698 -0.12889853 0.094393045 0.1570278
before 0.033275016 -0.029905532 -0.041940592 -0.019996801 0.016503962 0.01938089 -0.052069534 -0.021463985 -0.022774206 0.027991725 -0.0585777 0.01092358 0.06306751 -0.0023224165 0.067243576 0.020044971
another 0.01023738 -0.030003538 0.0237615 -0.01316505 0.07297683 -0.005296234 -0.066700585 0.050874043 -0.013268163 0.028967606 -0.016839914 0.027949372 -0.015103624 -0.015545623 0.026715703 0.021800844
didn't 0.055420958 -0.033874284 -0.10834154 0.034010332 0.010307689 0.080797784 0.03243465 -0.0072268886 -0.030965436 -0.07783489 -0.01877146 0.084895276 0.087261066 -0.0005900653 -0.07543563 -0.07012879
new 0.0016457131 -0.024763828 0.016954543 -0.03312754 0.026631515 -0.013826583 -0.06361421 0.03620514 0.05770425 -0.0044770604 0.021145986 -0.030756727 0.024597619 -0.047159944 0.0066681136 0.021685075
funny -0.062587135 0.011162677 0.03296459 -0.05417989 0.055519 0.0001906057 -0.0633064 -0.017359458 0.07074452 0.03712847 -0.0033053015 -0.03251615 -0.00031589714 0.06298177 0.06208844 0.03221519
nothing 0.100361936 -0.05116998 -0.04579605 0.03422883 -0.010615879 0.08837773 0.05713242 0.047356 -0.06356741 -0.07335994 -0.09477363 0.09579347 0.031973302 -0.066202104 0.014361379 -0.08766381
actually 0.01366945 0.02034179 -0.03320137 0.07112405 0.07251957 -0.03500695 -0.07849605 0.00538272 -0.049826775 0.026194237 -0.078602344 -0.010791672 0.023420822 -0.040552426 0.030497218 -0.05656058
makes -0.06036008 0.058073156 0.08041496 -0.09263519 0.104067974 -0.069635876 -0.10264672 0.009931237 0.065241665 0.074172 0.049572196 -0.04538824 -0.071884856 0.038306605 0.047472566 0.073065
director 0.028376348 -0.049934328 -0.04866112 0.07757538 -0.0016472256 -0.0018546584 -0.049527172 0.080844626 -0.02827826 -0.013238685 -0.08269739 -0.03610954 0.08292266 -0.09142393 0.032705937 -0.07949144
look -0.055136107 0.07845199 0.06659941 -0.025937604 0.06736186 0.009470843 -0.08225262 0.0933715 0.03303119 -0.041978545 0.023188164 -0.07801841 -0.0384421 -0.03260397 0.0345688 -0.017878747
find -0.040503476 -0.014315878 -0.03203297 0.0029081232 0.071427785 -0.06960244 -0.098872356 0.03579222 0.020507382 0.055834 -0.02291441 -0.049835764 -0.012500391 0.02994357 0.0684108 0.060607016
going -0.07000967 0.014774124 -0.020056248 -0.06503425 0.019852793 -0.035798065 -0.06702398 -0.06614941 0.049169783 0.020523798 -0.007487902 -0.008491689 0.0034802486 0.000603335 0.071555324 0.06780601
few -0.012039055 0.0075860457 -0.007387096 -0.044953793 -0.010737553 0.06956342 0.014903669 -0.029592134 -0.024458228 -0.054098308 -0.029771848 0.058475766 -0.022207616 0.049075138 0.03860313 0.00327166
same 0.018875122 0.018345354 0.0011385954 -0.04648287 0.09639357 -0.07456302 -0.089726426 -0.027294919 0.016716542 -0.017497368 0.009577253 0.051493466 0.038686294 0.018691408 0.059036102 0.019803496
part -0.0030639353 -0.033461712 -0.014167038 0.056209378 -0.029961005 -0.009778861 -0.03028244 0.017145429 0.007244581 -0.004861781 0.019929573 -0.027125826 -0.014561664 0.01955532 0.048870932 -0.05455064
again -0.046177264 0.033069115 -0.013964465 -0.003235964 0.035035435 -0.03473034 -0.10063424 0.09947078 0.011674084 -0.028928261 0.027680658 -0.06368433 0.05986334 0.0018098722 0.043905832 0.002762197
every -0.020864736 0.012055216 0.053603757 -0.022126324 0.08798009 -0.013292829 -0.083429694 0.057708986 0.049082935 0.005165259 0.009356194 -0.07377651 -0.0060166866 0.031009456 0.014722594 0.026500173
lot 0.0041766413 0.078537956 0.006526776 -0.011735947 0.062386677 0.002942558 -0.0823218 0.014301744 0.0014229644 0.050684568 0.07419855 -0.058755323 -0.065842554 0.05396812 0.0205931 0.08177782
cast -0.0067623015 0.014783306 -0.036708053 0.009551438 -0.0109953275 0.021992834 -0.052302174 0.075105146 0.04344557 -0.022160685 0.0120159965 0.01616171 0.047752578 -0.00681959 0.019474853 -0.061349608
us -0.04551252 -0.013585754 0.012884466 -0.008173039 0.022738732 -0.046987303 -0.030667843 0.03328941 0.017680867 -0.02884937 0.031256758 -0.014422793 -0.05460678 0.0125320135 0.054650944 -0.007230897
quite -0.027648961 0.03528395 0.045882937 -0.022325996 0.0073182215 0.015992608 -0.022707196 0.030760037 0.05088969 0.07170896 0.05478954 -0.07686362 -0.03961103 0.02758323 0.016809389 0.052004967
down -0.031429604 0.02405575 0.024120698 0.055552762 0.00021014104 0.012212208 -0.008577989 0.06777431 -0.008436259 0.0070906235 -0.05071512 0.018724311 0.013884068 -0.045516375 0.002606775 0.009452522
want 0.006867131 -0.06645056 -0.052915562 0.05491869 0.012358189 -0.03481315 -0.05428132 0.011108834 -0.034848385 -0.044520106 -0.021324478 0.0005620583 0.058984008 -0.00483804 -0.006436143 -0.009534175
world -0.07181215 0.015449105 0.003116159 -0.016948648 0.05371093 -0.070108525 -0.09716514 0.0033513212 0.048928335 -0.0052783866 0.050030027 -0.06810983 -0.057923965 0.020787556 -0.037708092 0.024695978
things 0.041455254 -0.030554412 0.012397136 -0.0076976945 -0.048842277 -0.043814108 -0.055173583 0.062313132 0.04017556 -0.006007074 0.02877428 -0.0049091238 0.007740215 0.040314425 0.025172787 0.009372615
pretty 0.021115525 -0.0831223 -0.051420912 0.051503476 0.028539311 0.031939644 -0.0336439 0.04929963 -0.0054666423 -0.083572455 -0.06160414 0.039812848 0.012896369 -0.00473305 0.053624224 -0.021026481
young -0.018015867 0.030255875 0.006158861 0.054498293 -0.024444904 0.00011324926 -0.047825284 -0.01470476 -0.008103899 -0.051975798 -0.02666902 0.04654164 0.054991018 -0.051451504 -0.054702833 -0.048596576
seems 0.052293252 -0.008437007 -0.07172472 0.02739769 -0.024040373 0.061033368 0.01440342 0.0396013 -0.07062482 -0.03085515 -0.0804853 0.01856481 0.05709086 -0.009685806 -0.04454861 -0.07473821
around -0.039095484 0.040207554 0.0006836957 -0.011019027 -0.038226735 0.040899575 0.0049593984 0.053479414 0.032222986 -0.028972281 -0.046651553 -0.015388611 0.0037090082 -0.028864995 -0.021151053 0.025728744
got -0.03882159 0.015086091 0.037780274 0.0106081795 -0.008395274 -0.012042843 -0.07893137 -0.048189122 0.032021612 0.030412368 -0.0013655307 -0.022302914 -0.02634167 0.03543616 0.0126068415 0.06507633
horror 0.058264732 -0.005507045 -0.01004376 0.050961617 -0.005240151 -0.020642117 0.03998956 0.04546248 -0.054577474 -0.03781281 -0.034801543 0.018008556 -0.018489908 0.032795046 0.07413155 -0.06680624
however -0.07298997 -0.010816102 0.025676452 -0.0440378 0.02293507 -0.01880087 -0.026806494 -0.066211514 0.017065395 0.018703554 0.0051579825 -0.011796641 -0.041566446 0.03432654 0.009068013 0.020132031
can't -0.017027052 0.03569489 0.037492525 0.02250117 0.039708834 -0.017897664 -0.105068736 0.039117377 0.02030583 -0.015249844 0.037525367 -0.029212499 -0.04284126 0.06045208 0.091890976 0.0009424816
fact 0.017271584 0.034227367 -0.046988394 -0.0026017523 0.032888506 -0.03288397 -0.014522518 -0.02510771 0.042831376 -0.03712442 -0.0002612161 -0.028747162 -0.0124821495 0.013638992 -0.013650438 -0.027406583
take 0.0013324134 -0.023178037 0.018524747 -0.009007929 0.041596804 -0.07497283 -0.018893983 0.045164026 -0.008493027 -0.03296722 0.02185057 -0.05957981 -0.017195785 0.03918994 -0.01526306 0.061807778
big 0.02195925 0.03830112 0.05233373 0.034408852 0.07878098 0.010335132 -0.060545437 -0.011661814 0.03169456 0.013001422 -0.014638269 -0.066182755 -0.011814494 -0.013128605 0.008252162 -0.017986646
enough 0.061982356 -0.10333639 -0.082149796 0.0780276 0.028785037 0.001838672 -0.0016527983 0.07811524 -0.017574655 -0.04759668 -0.0970079 0.0041019167 0.08630765 0.008052407 -0.028552847 -0.08199113
long -0.020765506 0.008904222 0.020857265 -0.0043219607 0.006947921 0.013883159 -0.0054848962 0.08360433 0.008975249 0.007348126 -0.018612117 0.059115585 0.0047052936 -0.036797214 -0.0377664 -0.082200974
thought 0.016889395 0.051569283 0.018635893 -0.04917736 0.06011161 -0.06599232 -0.034605723 -0.06005343 0.0010511882 0.052938912 0.060051095 0.014969253 -0.04004073 0.0585897 0.025308026 0.028534438
that's 0.03158591 -0.0062350812 0.0038603924 0.027376702 0.043254334 -0.03788145 -0.085975066 0.08593648 -0.03328619 -0.026380355 0.025945272 0.02161247 0.029321631 -0.022096045 -0.031994484 -0.023441229
both -0.107647195 0.084990956 0.057319265 -0.11602878 0.091436535 -0.077909335 -0.14438477 -0.008903377 0.0966022 0.046894122 0.12378034 -0.089041084 -0.056119666 0.052326053 0.10217263 0.09438241
between -0.05158498 0.058669917 0.11756267 -0.10546464 0.12419142 -0.029538704 -0.046642676 -0.04333956 0.03560862 0.026942575 0.030754466 -0.108204894 -0.08660025 0.07576844 0.06869324 0.040061973
series -0.074406385 0.017351752 0.0075163785 -0.023284333 0.06388981 -0.012142068 -0.0691842 -0.026474986 0.011197027 -0.023909107 0.0069850716 -0.07770597 0.022123054 -0.031521145 -0.021426821 0.0009254089
give -0.029551502 0.0049888133 0.022123 0.009061807 0.027041895 0.005903442 -0.0949968 0.05292576 0.01677592 0.028662706 -0.030574694 -0.031174287 0.04983187 -0.0043057795 0.004913657 0.02331292
may -0.013828255 0.026421951 0.020309027 0.0022732806 -0.00093441235 -0.004555766 -0.06602228 -0.012029062 0.08715135 0.07098389 -0.00062725815 -0.09267177 -0.004154308 0.024210112 0.06745196 -0.0047394778
original 0.07761403 0.016337335 -0.06519528 0.08678185 -0.0015401789 0.07541344 -0.00021840824 0.066447966 -0.038679857 -0.08685068 -0.017675834 0.041637197 0.007888193 -0.008195316 0.009551271 -0.04941954
own -0.06216207 0.023099205 0.055930603 -0.056078967 0.05356319 -0.06274733 -0.08040868 0.021075504 0.0027823076 0.016299538 0.081123106 -0.09391191 0.0023798356 -0.01906338 0.025681557 0.05261449
action -0.03818403 0.008683885 0.050689645 -0.01275428 0.079925835 -0.00419438 -0.085779384 -0.0125497505 0.08083774 -0.002791297 0.08159647 -0.07254906 -0.035728034 0.021961855 0.063948855 0.009717868
i've 0.009990535 0.018014263 -0.032005485 0.0077335886 0.06697092 -0.099183045 -0.038760267 -0.042586327 0.042843997 -0.015508214 0.009543842 -0.067325614 -0.024494518 0.071743146 0.022940146 0.07045171
right -0.04593272 0.022941396 -0.022971345 -0.018970182 0.009232524 0.023351207 -0.0021018705 0.015186055 0.049922902 0.05117562 -0.0007915703 -0.06540055 0.015394183 0.019445509 0.052768324 0.046075024
without 0.01505625 0.008585465 0.01999048 0.01117174 0.060119092 -0.0012438581 -0.062172603 0.012862467 0.051130902 0.03877211 -0.026452757 -0.03704844 -0.015774893 -0.001979001 0.01636404 0.005477616
always -0.06804823 0.08225507 0.10061188 -0.053011354 0.03626494 -0.033853702 -0.02908721 -0.052738976 0.031597067 0.028760381 0.025342315 -0.0696995 -0.014124636 0.050308358 0.019894704 0.0887594
times -0.07508527 -0.009131192 0.033317603 -0.024247814 0.08640985 -0.051141538 -0.0702853 -0.001268722 0.0026453289 0.06478118 0.060650032 -0.09830152 -0.04905745 0.023530144 0.054272126 0.051655747
comedy -0.039493795 0.018589154 0.044372655 -0.020239549 0.05263558 -0.046345264 -0.034995 0.09426515 0.074516706 -0.023922728 0.0006953615 -0.022790218 0.00024430477 -0.025799613 0.04874187 0.07420989
point 0.07920985 -0.08671178 -0.087055184 0.042134695 -0.049168415 0.05548868 -0.006474823 0.0049847104 -0.044270962 -0.034343943 -0.0114334095 0.068767644 0.058685455 -0.028072352 -0.0781823 0.015006492
gets -0.0032254811 -0.038217787 -0.061188884 -0.028226579 0.044340268 0.025771998 -0.040022194 0.0243061 0.0117398305 -0.022690045 -0.06842022 -0.045784645 0.055824455 0.022110814 -0.03548157 -0.025713308
must -0.07170694 0.022742298 0.06896344 -0.054058906 0.11534432 -0.10313004 -0.12497688 -0.023928793 0.083825946 0.08979027 0.03142682 -0.10594314 -0.09517282 -0.0033678678 0.07886741 0.033047725
come -0.0008970033 0.03988085 -0.0056026145 -0.011368077 0.063157976 0.018000113 -0.027356021 0.041086707 0.045922726 -0.034728635 -0.009088818 -0.06757458 0.03734624 0.005825552 0.012551127 -0.012770231
role -0.04916338 0.016555259 -0.024168024 0.03948155 -0.06483616 0.031996023 0.02755451 0.024132702 0.03926085 -0.04133589 -0.02348503 -0.043910727 -0.0025796876 -0.03687341 0.012581667 0.037670467
isn't 0.012563078 -0.019413715 0.0032659713 -0.012275489 0.047673404 -0.040959645 -0.03848757 0.037915464 0.0023914846 -0.005034823 -0.04702454 0.0056334496 -0.04072534 -0.0002819879 0.08768198 0.01771497
saw -0.001901859 0.00405068 0.026675658 -0.01810025 0.06679839 -0.04652481 -0.009444274 0.038063593 0.015030269 0.022551082 0.043384086 -0.036624044 -0.039999954 -0.00092020415 -0.0243224 -0.00588124
almost -0.070295595 0.038752917 0.042303294 -0.024107965 0.05218873 -0.0015790117 -0.05608804 0.0049412334 0.045458272 0.06989668 0.070575975 -0.078230895 -0.08071117 0.038859088 0.03219568 0.0063447687
interesting 0.02525428 -0.031373613 0.003868289 -0.0035048276 -0.036234226 0.010183764 0.03406072 0.059385397 -0.039674107 -0.08500582 -0.03196332 -0.026245026 0.049329188 0.008485307 -0.010827729 -0.07342564
least 0.072594054 -0.07783081 -0.033851665 0.020874878 -0.02575987 0.06470819 0.043191575 0.0032739951 -0.04486457 -0.064360164 -0.018915636 0.02513874 -0.011549646 -0.020970805 0.070452146 -0.022286296
family -0.07390512 0.10948448 0.034542836 -0.023107484 0.117236115 -0.14665978 -0.17138031 -0.0052934526 0.1263861 0.026222209 0.09856182 -0.09011893 -0.062239427 0.04213235 0.07140507 0.031857304
done 0.009716821 0.018143557 -0.029440824 -0.028420867 0.08981212 -0.019940572 -0.019301368 0.0072794133 -0.007328664 0.04687658 -0.0038045407 -0.06890503 -0.0010569396 0.008346877 -0.012310047 0.004669553
there's 0.046270892 -0.025695728 -0.026125856 0.035375472 0.05131319 0.06793729 0.06641502 -0.0136271035 -0.047076117 -0.043257818 -0.0008496357 0.010344762 0.07563385 -0.020791866 -0.07314945 0.02144963
whole 0.003872764 -0.0941662 -0.072783165 0.09929973 -0.00064087496 0.07778221 0.020699432 0.08840116 -0.058842987 -0.07200318 -0.03854591 0.059972133 0.090668604 -0.0837007 0.02134544 -0.08256684
bit -0.038238652 0.10627341 0.090434186 -0.031204754 0.10899982 -0.09105211 -0.079079404 -0.050388172 -0.002733593 0.029672176 0.09256023 -0.07246194 -0.05596159 0.10881619 0.06028918 0.092393965
music -0.033660162 -0.01734436 0.008323033 -0.017041884 0.0028286912 0.0040530697 -0.02504364 0.03406688 -0.0011208887 0.013326527 -0.006517186 -0.063789405 -0.027350541 -0.021784151 0.029739715 0.034119774
script 0.06228531 -0.017642027 -0.056695435 0.06383855 -0.01530013 0.06561115 -0.023519443 0.0762384 -0.08784268 -0.058312967 -0.06026004 0.025836837 0.12132674 -0.112384304 -0.030576669 -0.08773445
far 0.06027214 0.0036117572 -0.06644668 0.05919533 0.0013984307 0.0273487 -0.04692684 0.018419253 0.01332673 0.012561539 -0.066040635 -0.019819109 -0.0073132464 -0.040012263 0.056100797 -0.008342118
making -0.021145182 -0.020539563 -0.0015851264 -0.003249293 -0.016837042 -0.0067138337 -0.02485653 0.052481472 -0.02633223 0.009245838 -0.0391508 0.0061935005 0.032601327 0.0034410353 0.030274462 0.004914612
guy -0.03211438 0.0044990447 -0.03619781 -0.015536024 -0.014052065 -0.005383335 -0.034070127 0.0077922177 -0.067262314 -0.030091817 0.022632862 0.022151118 -0.008724678 -0.0034194458 -0.008521019 -0.030117324
anything 0.03044193 -0.031403765 -0.029858785 -0.03889212 0.054544196 -0.035194244 -0.043193102 0.048480246 -0.028516889 0.006766212 -0.012091191 -0.04712124 -0.025428409 -0.051953666 0.00014744175 0.0024675562
minutes -0.003094899 -0.04267325 -0.07359403 -0.0078805145 -0.04850446 0.016933989 0.024693977 -0.020158127 -0.006059106 -0.036709446 -0.01179511 0.05432249 0.0036829947 -0.05385986 -0.07959264 0.0075914003
feel 0.001855214 -0.012620031 0.031835016 -0.007686097 0.007282945 -0.029409038 -0.021639898 0.062121253 0.06557716 0.031684358 0.013307212 -0.041853577 9.7694196e-05 0.050300706 0.019422045 0.031932652
last -0.033766314 -0.047137104 -0.0076906835 -0.0017732792 -0.08102472 -0.02922755 0.043393835 0.0054841912 0.039533466 0.0032856616 -0.009208161 0.00011263439 0.0032049818 -0.026726294 -0.06255691 -0.06654169
since 0.020163009 0.02105917 0.0032613773 0.017437112 0.058891322 -0.06989424 0.0015702385 -0.027025102 0.044694606 0.048267238 0.03142181 -0.036837053 0.038318694 0.028558165 -0.013121049 -0.0035509912
might 0.039871644 -0.015608286 -0.01775447 0.074083395 -0.052558884 0.052490205 -0.059284583 0.07384329 -0.059344526 -0.0168189 -0.029618097 -0.018874532 0.073001124 -0.06401507 -0.021130212 -0.03383704
performance 0.019272994 -0.04973246 -0.017705405 0.039470658 -0.05039831 0.007658148 -0.02232174 0.0684599 -0.030399434 -0.05270387 0.0075592753 0.036978543 -0.018781893 -0.020200023 -0.009406725 -0.0068784547
he's 0.021819204 -0.034360584 -0.011428241 0.045733843 0.056768082 0.048477948 -0.051522408 -0.0045141033 -0.0024203006 0.01438674 -0.008294112 -0.0059212693 0.028119864 -0.048890643 0.03291603 -0.046984855
2 0.051962633 -0.08087776 -0.011752905 0.03406908 -0.04619322 0.011355997 0.040181324 0.088614516 -0.070633054 -0.031133387 -0.016470123 0.08207173 0.026759475 -0.021942021 -0.06179538 -0.08749289
probably -0.017191106 -0.058754254 0.007895471 0.003077367 -0.047095373 0.0008793244 0.072924905 0.0043688407 -0.006127151 0.011547542 0.00022512273 -0.0020899638 0.04831045 0.015241326 -0.052989453 -0.050931532
kind -0.0570015 0.051213335 -0.03890558 0.019125683 0.00021648 0.008386257 -0.028056927 -0.006089868 0.04375666 -0.016128303 0.04151427 -0.04226883 0.029178452 -0.00027762674 0.017241161 -0.037710864
am 0.05796205 -0.03677258 -0.0021331268 0.04959954 -0.03585388 0.05003091 -0.037527904 0.030232957 -0.07076873 -0.012861268 -0.021909911 0.027960716 0.07313202 0.0028223211 -0.026439682 -0.03898261
away -0.019871466 0.041531816 -0.028326066 -0.049475685 0.024350625 -0.037387174 -0.08525637 0.033677217 0.004891417 -0.028614132 -0.039984643 0.010229372 0.032612108 -0.023373256 0.031557858 -0.03875668
yet 0.0054561603 0.07890632 0.031964116 -0.024668856 0.056262337 0.006222128 -0.048251763 0.04637612 0.00096593087 0.027948994 0.07688001 -0.051307097 0.0184967 0.06686066 0.00087551126 -0.006123205
rather 0.012776648 -0.010039579 0.04853767 0.009492268 0.04145191 -0.0028746508 -0.051190473 0.015161756 0.043896202 0.029478366 0.059260722 -0.026586054 -0.0055751437 0.03758089 -0.0005017383 0.00775938
tv -0.020377753 0.075093366 -0.017855315 -0.047442548 0.07071049 -0.048780385 -0.09356268 0.05360171 0.0037516807 0.06955343 0.014320824 -0.042728208 0.018161846 -0.013626219 0.05269475 0.022618763
worst 0.16846257 -0.2004651 -0.2065421 0.21576561 -0.1857616 0.18920873 0.053993665 0.21999708 -0.20019616 -0.19470203 -0.20957673 0.21038467 0.21902625 -0.18066134 -0.15224788 -0.21128522
girl 0.0012356648 0.06151839 0.046571743 -0.017058883 0.0128454985 -0.0064519485 0.039546497 0.020667331 0.03546291 0.047285743 0.045097213 -0.046018433 0.016047353 4.88215e-05 0.002150587 -0.030309377
day -0.032416135 0.04894618 0.009803176 -0.033381123 0.017396012 0.03617212 -0.061095502 0.073912 -0.0114558395 0.049022492 0.0394374 -0.0043588057 -0.0130029 0.018565863 -0.012199776 0.016209954
sure 0.005542735 0.007034008 -0.0022743496 -0.041009374 0.033973902 -0.012374546 -0.08341538 0.12137822 -0.027237546 0.036860086 -0.02721407 -0.035258137 0.022448147 -0.055783696 0.022306588 -0.052946858
fun -0.06714759 0.104577154 0.1025174 -0.12642235 0.13322853 -0.108358726 -0.13183345 -0.009127894 0.048100963 0.109725505 0.072708905 -0.14874606 -0.039420653 0.0991728 0.0798404 0.14340344
hard 0.02767869 -0.026837496 0.003402715 0.03622903 0.0044616116 -0.0020787038 0.025322326 0.028659044 0.021835951 0.021809056 -0.007123655 -0.033390496 -0.018632567 0.013602758 0.033018164 -0.05095733
woman 0.0030134567 0.009345138 -0.009406162 0.04675608 -0.044830635 -0.018992594 0.013203636 -0.042294327 -0.036257602 0.024801526 -0.004401373 0.03916117 -0.022180032 -0.05547281 -0.016050542 0.021903196
played -0.04382917 0.0045677824 -0.036905043 -0.026366794 0.005898888 -0.027348319 -0.007848107 0.013619914 0.024172077 0.017483745 -0.05068296 -0.009627106 0.03247794 -0.0024122773 0.00928242 -0.039370425
each -0.0065457965 0.06867438 0.07106354 -0.083070755 -0.003921911 0.0063697696 -0.05510142 -0.022042178 0.02484239 0.0009305298 0.008901905 -0.030710634 -0.083234206 0.043240048 0.104835205 0.08947956
found 0.014659719 0.011900416 0.029343266 0.00082408055 0.08941197 -0.03629188 -0.03628859 -0.005028162 -0.004688316 0.060042024 -0.004402726 -0.08098611 -0.027087485 0.023702504 0.09318508 0.066438675
anyone 0.008930144 0.0078114863 0.03590048 0.037061248 -0.0060315067 -0.03921808 -0.043087553 0.10409461 -0.05560349 -0.024014598 -0.04862393 0.02370519 0.0011158795 -0.042390414 0.010618471 0.014231894
having 0.044099856 0.012525687 -0.03128554 -0.03442665 0.047863983 -0.04366132 -0.008805971 0.021706866 0.010469586 -0.023019666 -0.018211259 -0.028732223 0.013422763 0.037046887 0.032397456 0.047544785
although -0.09033763 0.05740154 0.008574081 -0.065947406 0.050651606 -0.039148137 -0.068610646 -0.038155545 0.10006706 0.058121637 0.024027523 -0.07650122 -0.087986745 0.00732238 -0.007033132 0.05216521
especially -0.014696524 0.08930503 0.05275216 -0.06300615 0.029125186 -0.1125245 -0.059773687 -0.05424018 0.05611331 0.026677124 0.005107564 -0.09323152 -0.083522335 0.008845029 0.053637106 0.05630779
our -0.07741773 0.08018023 0.08726376 -0.027346058 0.049102765 -0.018252786 -0.102769144 -0.06774411 0.059958685 0.066606835 0.03674503 -0.06382554 -0.07384297 0.08708246 0.05832915 0.119509615
believe 0.024529077 -0.02133907 0.014991355 -0.025038458 -0.0035805171 0.029637609 0.051130433 0.0342141 -0.001170395 -0.06328696 -0.0019069719 0.012843235 0.05908427 0.05115409 0.011383566 0.0073265624
course 0.007477754 0.018028596 0.06471168 0.006090813 0.003295462 0.013488728 -0.0773174 -0.02945387 0.06528126 0.06964152 0.03871049 -0.034265738 -0.054637168 0.023839729 0.048173875 0.06271327
comes 0.023082938 0.06698783 0.023700196 0.03176736 0.07265873 -0.031973984 -0.06288771 -0.007857497 0.0043985248 -0.03804478 -0.0404438 -0.0019586105 0.027346328 0.02911206 -0.025715064 0.04551921
looking -0.011267693 -0.05313206 -0.055599928 0.028740037 0.0261059 0.028712304 0.057292532 0.031578474 -0.04785572 -0.038890075 -0.06484211 -0.045035478 0.027119149 -0.02774155 -0.011333497 0.023998925
screen -0.08196786 0.02228989 0.09378924 -0.044873722 0.090377904 -0.074102156 -0.034829874 -0.027059209 0.02518395 0.03625298 0.06632687 -0.071926005 -0.01692092 0.022296358 0.06602105 0.055183914
trying 0.019910935 0.015762769 -0.047864426 -0.033068534 0.005695252 -0.01541938 -0.016455537 0.031253837 -0.04795042 0.022904132 0.0037875604 0.043650422 0.029270906 0.022444114 -0.019219141 0.015861448
set -0.042862516 -0.030818583 0.018588834 0.03820184 0.068126805 -0.050996244 -0.00093217404 -0.04173642 -0.035786953 -0.003120438 -0.021061653 0.04149937 -0.013349969 0.023232834 -0.047532972 0.048573602
goes 0.034323666 -0.034633156 -0.028121687 0.02207048 -0.02471471 0.014770793 0.030424291 0.036083017 -0.015951555 -0.07198643 -0.06453663 0.039331283 0.016929027 -0.060257193 0.012498509 -0.03656845
looks 0.11384183 -0.1071798 -0.11134272 0.0512019 -0.028773643 0.027411709 0.079064645 0.082877524 -0.03187811 -0.106482 -0.06991577 0.061857052 0.08920848 -0.10184154 -0.05125548 -0.032189246
place -0.010448426 -0.029723156 -0.05402121 0.06866107 0.006458139 0.009608428 -0.017220873 0.055005297 -0.05454117 -0.009132 0.005235998 -0.008504214 0.015707446 -0.010102393 0.02892272 0.0066726394
book 0.027783873 0.009122112 -0.040322505 0.04667273 0.06602392 -0.029954864 -0.026177526 0.023417732 -0.033595674 -0.023682648 -0.031110134 0.033754263 0.03312846 0.022948654 0.020611603 -0.013647394
different -0.0063626426 0.04360961 0.03798367 -0.027673556 0.016262647 -0.0390986 -0.06231496 -0.0010179811 -0.0059228525 -0.0364344 0.038902678 -0.016328894 -0.011522813 -0.02725322 0.04656877 0.018126136
put 0.011526789 0.018516378 -0.02637219 -0.033811335 -0.019570444 -0.037115328 -0.009965605 -0.006335082 -0.0033583648 -0.0050441027 0.011891966 -0.022588372 0.053493496 -0.027907128 -0.05959703 0.03503098
ending -0.03708776 0.02096806 0.03163048 -0.020950763 0.102330744 -0.023106765 -0.0414803 0.07438835 -0.037091214 0.060010724 0.017282205 -0.054585394 -0.033064943 0.06968396 0.062234182 -0.020754296
money 0.043982822 -0.09368236 -0.051130597 0.038514696 -0.05658396 0.035787158 -0.010254339 0.072520375 -0.08683699 -0.0991998 -0.091327 -0.009318099 0.054862175 -0.110754676 -0.01866501 -0.091025226
maybe -0.008970932 -0.008612021 0.01739173 0.023154482 0.050664373 -0.008350392 -0.008964791 0.03526962 -0.08222286 -0.031765252 -0.0050342795 0.032692216 0.025174873 0.014694694 0.009227056 -0.0397716
once -0.049666107 0.019020129 0.016148832 -0.07662427 0.04657396 -0.040120423 -0.019455822 -0.07938482 0.04379627 -0.021535456 0.0033956922 -0.001616078 -0.03707763 0.06657971 0.042616032 0.025392849
sense -0.032254152 -0.023499016 0.019569337 0.049658343 0.027238399 -0.04030613 -0.020919967 0.04847737 -0.002557194 -0.04599245 -0.013825835 -0.017448451 -0.02560298 0.03430511 0.042815745 0.047167294
reason 0.00991206 -0.03674117 -0.022183338 0.05024622 -0.008757655 0.018131362 -0.025174888 -0.020363493 -0.0797991 -0.054089986 -0.07183895 -0.021164428 0.06061113 0.012572185 -0.034443893 0.023982935
true -0.09264183 0.073490836 0.016107969 -0.10016742 0.0468886 -0.05204162 -0.11219279 -0.026679724 0.07662145 0.01698375 0.07713689 -0.1195671 -0.09885159 0.036996163 0.0763861 0.05981019
actor -0.035881825 -0.015655583 -0.035517775 0.03692204 -0.012277218 -0.072042845 -0.012791453 0.036762174 -0.011086394 0.03594881 0.033679433 -0.01709611 -0.038559888 0.019033307 -0.014000123 -0.019048052
everything -0.07807746 0.023246003 0.015888553 -0.054170832 0.06788971 -0.065618776 -0.035460707 0.0071267695 0.07286582 0.0117507465 0.05732225 -0.029768314 -0.014573086 0.048971802 0.060748685 0.058365986
wasn't 0.045958098 -0.028680896 -0.036740422 -0.016881984 0.015983727 -0.0022754318 -0.020110525 0.010057912 0.0026030373 0.013758293 -0.042386685 0.012302795 -0.033757128 0.019107297 0.0068112253 -0.03214009
shows -0.09385195 0.07387013 0.07437797 -0.09820898 0.07146887 -0.09125058 -0.08224727 -0.01797512 0.1393347 0.083563335 0.11540513 -0.1672938 -0.1298299 0.09887885 0.14315176 0.10467569
dvd -0.10928587 0.080338284 0.04148976 -0.05613037 0.061218582 -0.06699198 -0.14859284 -0.003124896 0.051229823 0.030675407 0.028402163 -0.1406175 -0.027753871 0.08710249 0.072457336 0.032207098
three 0.012542225 0.056810316 -0.021192657 0.024517132 -0.047311187 -0.029195154 -0.01273633 0.08091436 0.0575304 -0.039297614 -0.02209226 -0.074798085 0.0321549 0.034988493 -0.0077627352 0.01651771
worth -0.056859214 0.10987846 0.11316663 -0.05599156 0.10180398 -0.09337218 -0.13106853 0.03876853 0.05303367 0.01586875 0.036072675 -0.11148786 -0.0678448 0.05989234 0.11904763 0.08494283
year -0.018001314 0.026241714 -0.03475306 0.008787056 -0.015387668 -0.030448837 0.01324686 -0.0034445685 0.004546029 -0.007981406 0.021804705 0.034799658 -0.030606756 0.0052611623 0.07724041 -0.050062794
job -0.052164383 0.09728678 0.06868756 -0.013632524 0.09279616 -0.05449743 -0.05320711 0.047970116 0.06015669 0.058363054 0.07741412 -0.10667155 -0.039309323 0.0022008247 0.057294965 0.09764158
main 0.0141135445 -0.04258083 -0.009394056 0.009746707 0.0057323244 -0.05053482 -0.05912543 0.036103565 -0.030216882 -0.0029037818 0.021218218 -0.00059547456 -0.022714471 0.016929915 -0.018705374 -0.034680918
someone 0.06269499 -0.1015226 -0.049080618 0.10152289 -0.018910216 0.056412954 0.07517409 0.034536663 -0.076078326 -0.1236485 -0.09921375 0.12352793 0.09142354 -0.03887267 -0.018253526 -0.08706696
together -0.02672358 0.031315196 -0.015645178 -0.012673285 0.04411558 -0.03927802 -0.026964689 -0.001339238 0.0033715917 -0.004582955 -0.00977746 0.0037116278 0.018287854 0.028621001 0.052649118 0.061697535
watched 0.03526619 -0.03765187 -0.017231302 0.018055627 0.043817822 -0.026224429 -0.047633708 0.029310059 0.017185792 0.02176019 -0.041170444 -0.00017549947 0.036313757 -0.02915003 0.06392902 -0.014668928
play -0.0023614955 0.031689227 0.030974496 -0.028215833 -0.024661753 -0.040648833 0.0024288683 0.0025722317 0.031378515 -0.040836234 0.014006786 0.034831654 0.027957885 -0.03602207 -0.0033398436 0.003439218
american -0.060689088 0.019527543 0.042182866 -0.041360337 0.06312538 -0.07659961 -0.054431416 -0.033906173 0.07456357 0.027430937 0.013202703 -0.09608943 -0.085976444 0.05050651 0.013059609 -0.010321063
plays -0.037154514 0.018971695 0.010537005 0.021411689 0.0494721 -0.026437098 -0.10442151 0.030890852 -0.03440139 0.0023911316 0.013439546 -0.0018265444 0.02294068 -0.03670952 0.014084244 -0.008688114
1 0.07695398 -0.07447214 -0.11149037 0.094751835 -0.088857286 0.018443568 -0.00059686496 0.1345035 -0.039611474 -0.05770097 -0.06845345 0.049280424 0.057439823 -0.119309105 -0.19823839 -0.062372323
said -0.021715824 -0.024228651 -0.03637036 -0.013231874 0.02312411 0.0434343 -0.037132066 0.018529199 0.009366201 -0.031763937 0.028977502 0.0009580715 0.048525084 -0.017970454 -0.033057056 -0.009340054
effects -0.014299351 -0.011266883 -0.0498309 0.00088470685 -0.022837436 0.013592914 -0.024811994 -0.015964849 0.0020662479 -0.040202882 -0.00859869 0.023078885 -0.012253124 0.0029566255 0.016070798 -0.02940502
later -0.05849533 0.043741185 0.05553213 0.0022187757 -0.025770904 -0.014509578 -0.052135784 0.07049354 -0.02791474 0.016246345 -0.012807711 -0.0415872 -0.04327586 0.00028040688 0.047992367 0.045604736
takes 0.013770009 0.035251807 0.04456574 -0.061667345 0.035190575 0.015774248 -0.059484445 0.0019505245 0.027759586 0.061845645 -0.011071891 0.006716693 -0.06383639 0.008221205 0.034853794 -0.008470178
instead 0.06365311 -0.088992886 -0.07034949 0.103008024 -0.045902476 0.06453599 0.011316004 0.150367 -0.046814058 -0.110223815 -0.08898658 0.08597201 0.08819321 -0.08371904 -0.077194594 -0.054165542
seem 0.08394749 -0.11230356 -0.09295144 0.104067154 -0.002984847 0.037560564 0.027487468 0.13202104 -0.03234861 -0.027841719 -0.07785052 0.043701306 0.055413473 -0.03816714 -0.106255464 -0.12334447
beautiful -0.021225438 0.067657694 0.067348346 -0.096187584 0.022505185 -0.068843186 -0.123957716 -0.04682903 0.06163245 0.09319236 0.036297437 -0.0720994 -0.10614117 0.0300262 0.08622677 0.052352026
john -0.033912875 -0.0415857 -0.027417865 0.01761541 0.07719318 -0.056412704 -0.10166626 0.10738263 0.030654814 -0.023424266 -0.035316154 -0.0360148 0.032818817 -0.01067095 0.040564664 0.049525913
himself -9.791547e-05 -0.03095156 -0.0030240875 0.026839975 -0.010830695 -0.044256505 -0.00902829 0.049325716 -0.03151891 -0.059563983 -0.045082137 -0.01970356 0.06785934 0.03983385 0.019915067 0.0006430278
version -0.006239587 0.028288491 -0.005020704 -0.021977454 -0.02127264 -0.012743965 -0.041758694 0.011633705 -0.0050373706 0.00033569697 -0.013191971 0.026794147 -0.0498988 0.015260698 0.045331612 0.04827114
audience 0.04057257 0.0086499965 0.0063018873 0.010648876 -0.04332658 -0.019897418 0.008766634 0.07229259 -0.032173 0.0072071427 -0.09248125 0.040740643 0.02088794 -0.08422902 -0.009263748 -0.063247316
high 0.0020633228 0.049110368 -0.008821487 -0.04400879 0.00533182 -0.047766656 0.024869125 0.014655051 0.030724814 -0.04308809 0.027709588 0.007378084 -0.021427989 -0.0010563196 -0.0061946986 0.009006878
house -0.00752745 0.0537768 -0.0042247744 -0.04728193 0.008501581 0.000289765 -0.09872603 -0.0036991944 0.0055868914 0.0089991875 -0.00904663 -0.061167188 -0.01964648 0.06099346 0.04363796 0.066373006
night -0.009488427 -0.02242367 -0.044190124 0.030031176 0.05940377 0.021145608 -0.072016 -0.056230407 0.03609455 0.01433591 -0.032654732 0.03023276 -0.03321597 0.057889562 0.02662989 0.038240943
during 0.01907687 0.055266064 -0.0034368227 -0.061184283 0.051075663 -0.0012564788 -0.021469433 -0.03737484 0.047028955 0.02115882 0.010608368 0.006814769 -0.050686155 -0.025426622 -0.015570364 0.05356613
everyone -0.11659481 0.09420062 0.07314862 -0.10013444 0.044859886 -0.09473621 -0.056906637 0.10173781 0.02783164 0.07338752 0.06359537 -0.05652167 -0.05216556 0.07746089 0.075914375 0.09973488
left 0.084335305 -0.046240833 -0.012843783 0.010329558 -0.0041960874 0.05300753 0.031352088 0.05289099 -0.043530714 -0.012294176 -0.06404472 0.071204215 0.0107315425 -0.024565348 -0.0520625 -0.047174748
special -0.03546424 0.07839936 0.052662212 -0.085691996 0.075877026 -0.06716616 -0.041351546 -0.053493 0.08848343 0.024292774 0.07479514 -0.087543644 -0.09589496 0.038035065 0.033708043 0.058245298
seeing 0.00035478183 0.026353488 -0.034405544 -0.047391158 0.017851843 -0.04397556 -0.128124 -0.029329937 0.033178546 0.016551223 -0.039870504 0.014007047 0.044602778 -0.05041613 -0.011352008 0.043242242
half 0.064074464 -0.07522987 -0.10785874 0.10645725 -0.01876194 0.11742555 0.063318215 0.09333147 -0.118549675 -0.118633345 -0.09996439 0.06699837 0.042124305 -0.035073694 -0.07068959 -0.07190397
excellent -0.18562314 0.16186588 0.15891013 -0.1465147 0.109464735 -0.20636125 -0.18477085 -0.14482066 0.17969008 0.11568452 0.14890724 -0.19444445 -0.14181529 0.10698927 0.17127034 0.1418562
wife 0.025054013 0.03335601 0.007709247 -0.029774424 0.0035692637 -0.049844 -0.03034061 -0.010489686 -0.00013790431 0.04676966 0.043012723 0.05176272 0.008244752 -0.028793234 -0.0057481453 0.030809175
star 0.025238492 0.042276766 -0.028653387 0.043922797 -0.0010840726 -0.021380283 0.06372552 0.057239458 -0.008825773 -0.0025258972 -0.01760545 8.4329164e-05 -0.021264575 -0.0066335443 -0.011614408 -0.036137175
shot -0.048000038 0.051078852 0.0679211 -0.068986915 0.00786535 -0.020388426 -0.083106935 -0.043136515 0.0007191712 0.016002005 -0.018038228 -0.012656947 -0.0063904994 0.060917147 0.06758442 -0.0049774
war -0.026177095 0.065500274 0.035059556 -0.034273546 0.048731953 -0.03889045 -0.108055584 -0.024647264 0.037553415 0.0596748 0.07342564 -0.009098809 -0.024609461 0.052364632 0.0848775 0.007786151
idea 0.06794167 -0.07565879 -0.03441097 0.023797074 -0.02222866 0.0897688 0.12094044 0.089922056 -0.08673056 -0.07101555 -0.077442564 0.030499786 0.08439719 -0.026485298 -0.016898371 -0.057966243
nice -0.04709339 0.10402972 0.0863162 -0.026175503 0.0294432 -0.042462334 -0.017994182 0.031947307 0.08006275 0.038700353 0.03122531 -0.0724877 -0.024195777 0.08220962 0.10010509 0.031591877
black 0.013827501 -0.019812172 -0.08089448 0.036802936 -0.04955177 0.060922053 0.006453811 0.03603589 0.005407914 -0.0127864145 -0.046787314 0.0073272954 0.010452012 -0.030549375 -0.07152086 -0.09406952
less 0.07036219 0.018205145 -0.00035898667 -0.0099656815 -0.030012531 -0.0014295572 0.089623466 0.049816888 -0.04878647 0.0039074076 -0.002350916 0.028141946 0.032791685 -0.021628847 -0.0234578 -0.032780793
mind 0.015427056 0.02021345 0.030597713 0.026096692 -0.007865068 -0.027660627 -0.01958178 0.09962242 0.063615836 0.047113385 -0.038890272 -0.0052813618 0.03440943 -0.046675004 0.007768581 0.027730906
simply 0.064206205 -0.0024682789 -0.02311255 0.024647607 -0.0037529874 -0.0063803387 0.05260946 0.0576762 -0.0054796715 -0.07348435 -0.027943533 0.09264939 0.07260202 -0.033422977 0.04997547 -0.04654409
read 0.07806118 -0.015523937 -0.015258695 0.052135363 -0.03569659 0.026656883 0.020808367 0.07268557 -0.085879326 -0.040089227 -0.04985128 -0.016054478 0.059991002 -0.031889852 0.014602028 -0.02092155
second -0.01088565 -0.012459841 -0.030296283 0.005272685 -0.020534627 0.014941603 -0.007722139 0.102571614 -0.020142404 -0.030737126 -0.076569356 0.058250137 -0.0066842516 -0.026257042 -0.06369707 -0.0068915
else 0.022943199 -0.018664075 -0.04240349 0.016017236 -0.037754208 0.08544865 0.047548026 0.07805241 -0.11435757 -0.058590453 -0.06368048 0.06339363 0.09060374 -0.01909789 -0.01869946 -0.02751333
you're -0.040265914 -0.015305907 0.030687004 -0.0023658792 0.06780399 -0.063253716 -0.08320759 -0.049623884 -0.030805493 0.028815767 0.044637583 -0.02202075 -0.0052011292 0.043185495 -0.0063112476 -0.01615939
father -0.043708287 -0.021569738 0.0014873489 -0.020598983 0.024567954 0.0010580136 0.025760174 0.04391256 0.004187029 0.0007790601 0.05558127 -0.046598904 -0.037609883 0.049546394 -0.008083815 -0.030276068
fan 0.020944731 -5.75218e-05 -0.0025650722 -0.013617441 0.06503184 -0.04156341 -0.054329045 0.10430722 0.037249494 -0.042929057 0.003196437 0.002001102 -0.03792014 0.014827906 0.02704688 0.05429281
poor 0.15620813 -0.11522379 -0.14093813 0.17025718 -0.1678373 0.16480553 0.14164723 0.15161613 -0.09244955 -0.085969485 -0.1299862 0.15539315 0.120476335 -0.16118574 -0.1163083 -0.13287556
help -0.014750074 0.016406242 0.013267466 0.037300292 -0.0027239514 0.039504226 0.033018764 0.028304232 -0.07924952 -0.081031024 -0.058681738 -0.024939323 0.026482742 -0.05966035 0.010423479 -0.031484988
completely 0.016270721 -0.026711006 -0.038432367 0.046942998 0.03018633 0.010721519 0.064315155 0.08360919 -0.10543833 -0.0098095415 -0.017979681 0.01817689 0.001388598 -0.010488883 -0.03709998 -0.06744597
death 0.0046182866 -0.0071405456 0.06129524 -0.042922817 0.034649353 0.002680756 -0.022198709 0.056886084 0.033315256 -0.026227137 0.024903081 -0.05759806 0.015150591 0.043712202 0.034914725 0.07080878
3 0.083445944 0.0050318358 -0.06891343 0.070998825 -0.11884361 0.081252754 0.057218865 0.023150917 0.012286999 0.022565141 -0.00834901 0.060905047 0.04499455 -0.08704369 -0.1493097 -0.015536003
used -0.05412148 0.038380846 -0.013756735 -0.040960405 0.05962882 0.033208996 -0.017746905 -0.092230245 0.022212358 0.040836293 -0.02178256 0.043387327 -0.06423096 0.017833818 0.009834063 0.02747434
home 0.0109295985 -0.015281275 0.039962664 -0.028852398 0.039357252 0.010019014 -0.017376019 0.06942501 0.01672442 -0.018553939 0.029666156 -0.034181595 -0.042583987 -0.04300703 0.010051218 -0.0044378405
either -0.014421055 -0.061505888 -0.010078774 0.02071403 -0.030793367 0.047325224 0.023105463 0.0714101 -0.033366702 0.006100768 -0.035685353 0.031101659 0.048913784 0.010832588 0.00532011 0.00634911
short -0.032247316 0.0008418963 0.0122355595 -0.012286661 0.041028395 -0.053384475 -0.06639115 -0.056838818 -0.020209583 -0.010516749 0.049204156 -0.049477793 9.820005e-05 0.009843875 0.021253547 0.00057572185
line -0.0028339734 0.021084268 -0.052221138 0.001079967 -0.028064635 0.0013906695 -0.067895174 -0.0190466 0.011760593 0.039783727 0.006055983 -0.020167293 -0.04376363 -0.0047775246 -0.016455915 0.012727661
given -0.0030523401 2.3087181e-05 0.053499777 -0.032846335 0.055010676 -0.083999015 -0.13226564 -0.030838821 0.013328408 0.070155084 0.046683267 -0.03737687 -0.008263478 0.07857657 0.012428717 0.054075498
men 0.033688236 -0.020868538 -0.02664777 -0.018259438 0.01346687 0.0808421 -0.0063497256 0.01671236 -0.011247032 -0.07142534 -0.06717774 -0.03130434 -0.001359377 -0.07461598 0.006422288 0.011365222
top -0.016714903 0.10927865 0.07797653 -0.05418057 0.015253479 -0.06977396 -0.12174301 0.010781235 0.07911234 0.05226951 0.05387763 -0.05686597 -0.09813752 0.050552897 0.04296508 0.08615453
dead 0.058656123 -0.052019298 -0.015863614 0.018148758 -0.039642915 0.055012338 -0.023543825 0.003410126 -0.07400358 -0.067144096 -0.008541435 0.036541425 -0.006677429 -0.019974997 0.011372658 -0.033381503
budget -0.002024193 0.012717659 0.049989175 0.0035519346 0.022581577 -0.022338007 -0.029908499 -0.022333 0.017162276 -0.016450427 0.03025792 -0.019130655 0.022705633 0.032363 0.10190445 0.006026669
try 0.0461682 -0.058008738 -0.04362352 0.07930508 0.00581703 0.022980748 0.019753862 0.016495775 -0.08455998 -0.009460697 -0.082005754 0.071045056 0.06623289 -0.06428371 -0.026628504 -0.013136166
performances -0.05379264 0.1019469 0.07529983 -0.035709236 0.028026931 -0.018883955 -0.07457585 0.007229599 0.06741599 0.047053106 0.021520626 -0.11590475 -0.015363857 0.011994343 0.07582997 0.01352272
wrong -0.02988473 -0.018040728 0.0399927 -0.01899323 0.062381074 -0.015541972 -0.062398672 -0.05426528 -0.021975648 -0.01440877 -0.008597961 -0.013377974 -0.05933283 -0.011818005 0.014301846 0.020464467
classic -0.056209505 0.064834416 0.08741556 -0.021763323 0.0951222 -0.09633615 -0.06494535 0.053452104 0.08187509 0.0158229 0.050518285 -0.087668255 -0.07637193 -0.028671784 0.08477548 0.033322997
boring 0.13820863 -0.10592685 -0.11048348 0.17712238 -0.15570745 0.12887889 0.06452792 0.11562984 -0.18258826 -0.15652998 -0.13858484 0.12183674 0.12858899 -0.11806495 -0.18105799 -0.14364067
enjoy -0.058087274 0.09512939 0.037282884 -0.094108626 0.06908272 -0.113917075 -0.14778818 -0.044949815 0.123839274 0.035756536 0.06375774 -0.07891535 -0.006066324 0.029398154 0.1017831 0.10793934
need 0.026458342 -0.026653213 0.013738548 0.027870947 0.011385622 -0.0038520535 -0.024589948 0.033070464 -0.029300267 -0.033592157 0.042500034 -0.044619348 0.0065947855 -0.037213475 0.04636331 -0.033939864
rest 0.00072893064 0.010184278 -0.073866576 0.08222026 -0.013599891 0.049581222 0.040565707 0.07759948 -0.026164398 -0.030001884 -0.049566265 0.064233124 0.07891374 -0.00053563167 0.02022312 -0.05215096
use 0.03516474 0.01657618 0.014265616 0.01821028 -0.06450601 0.01538241 -0.02372992 0.07086167 -0.04752076 -0.035490695 -0.021636391 -0.0011342466 0.0748129 -0.051930774 0.0043578716 -0.055968557
kids 0.025103427 0.045225512 0.051432066 -0.043133266 -0.013565558 -0.050049078 -0.0674956 -0.0072128987 -0.015067691 0.040544845 0.012637048 -0.067976676 -0.032586984 -0.012876649 -0.0036585636 -0.012821274
hollywood 0.03670412 -0.010657505 0.0026841636 -0.015919521 0.0150645375 -0.009410443 -0.0031806366 0.0919912 -0.040043205 -0.0005306901 0.009178364 0.01575917 -0.0053448244 -0.0021993588 -0.04631507 -0.020988487
low 0.018457646 -0.07797355 -0.11981085 0.046945952 -0.0005408455 0.029746389 0.021071734 0.0646804 -0.093193576 -0.023118827 -0.113394015 0.033849463 0.069253735 -0.020371858 0.006561122 -0.03347547
production 0.035276115 0.0021113912 0.01981585 -0.0149091445 0.008799811 0.03542168 0.010144546 0.037358712 -0.059300344 -0.052905556 -0.027249968 -0.022540558 -0.030344795 0.0065153227 0.03189232 -0.017706884
until -0.029340329 0.027357902 0.05356264 -0.042810977 0.03534349 -0.026399752 -0.051200222 -0.021111306 0.023198374 0.05143743 -0.0010512474 -0.012428861 -0.056357864 0.0038283577 -0.03136314 -0.039484233
along 0.0018121301 0.037537184 0.002537106 0.011737113 0.021140646 -0.00577093 -0.07929179 -0.028065875 0.0003303253 0.059376914 0.061792985 -0.091226146 -0.036848385 -0.02715976 0.04910459 0.007062315
full -0.08871521 0.02033926 0.11404967 -0.055228896 0.0780101 -0.05553977 -0.11129662 -0.042383503 0.027273063 0.06420706 0.035865795 -0.051825598 -0.10658512 0.089948416 0.12648405 0.08351411
friends -0.0012332569 0.0040827105 -0.036560718 0.014906183 0.053221144 0.00510316 -0.006060675 0.0017160582 -0.05611986 0.045275148 0.026249448 -0.01993668 0.037115835 0.00635095 0.02766941 0.018499132
camera 0.039676763 -0.0843584 -0.072388 0.062765285 -0.032716684 0.07870474 0.026746744 0.13239038 -0.020896625 -0.019199796 -0.0430267 0.074637584 0.06578943 -0.0957253 -0.022402264 -0.097552925
truly -0.004781317 0.014117052 -0.029804515 -0.009322586 0.0521546 -0.024298852 -0.08790141 0.090340175 0.0160126 -0.00056395476 -0.0708278 -0.020752424 0.056976043 -0.02061301 -0.015156344 -0.0008916762
women 0.021339824 0.014520621 -0.033958893 0.037086643 -0.035725556 0.013855611 0.011645131 0.030304756 0.011929824 -0.026158702 -0.05126647 -0.0033164169 -0.00031029637 -0.020484759 -0.032504044 -0.030807357
awful 0.17921986 -0.11010106 -0.17528135 0.16712245 -0.17071712 0.09023706 0.13107936 0.18435717 -0.16129102 -0.11347212 -0.14612792 0.07375313 0.15109712 -0.09255081 -0.14200608 -0.14634481
video -0.0842683 0.04962852 -0.0038832212 -0.039198946 0.070109814 -0.07367221 -0.113601476 0.066968784 0.04934002 -0.002603228 0.05532901 -0.040966127 -0.0079058325 0.07154213 0.08295425 0.06340258
next -0.042943865 0.00024185503 0.053831827 -0.010928437 0.088410065 -0.019079588 -0.050675765 0.0055509494 -0.028718105 0.009324055 0.00601034 0.0156846 -0.018506486 0.022151116 0.027331268 -0.0041488144
tell 0.011170919 0.03285806 -0.023196125 0.011215405 -0.013469396 -0.0024478643 0.048486803 0.008105169 0.0026335663 0.017972197 -0.039837178 -0.014957553 -0.04038772 -0.013007029 0.009776694 -0.03680699
remember -0.003984403 0.038938668 0.021762952 -0.044538155 0.06432596 -0.030645408 0.0027301083 -0.0028524275 0.059606023 0.0008359514 0.016675811 -0.05146546 -0.04386339 0.011246264 0.054010823 0.0417776
couple 0.0082282275 -0.013715674 0.01474359 0.03544827 0.010652316 0.001211817 -0.034951426 -0.025498511 -0.050153304 0.035472527 -0.05129352 -0.033218987 0.05539172 0.003230058 -0.04861005 0.029154494
stupid 0.094688505 -0.0717647 -0.04484653 0.07105327 -0.04896858 0.11311596 0.045415323 0.07322146 -0.09742098 -0.113264956 -0.043917585 0.12735736 0.104033135 -0.077460125 -0.016198555 -0.11895362
start -0.0072699157 0.009561791 -0.020546643 -0.0069529167 -0.049574737 -0.017889412 0.04371751 0.033598233 -0.013679455 0.029261794 -0.0073547717 -0.014688759 -0.032153916 -0.05424043 -0.03328547 -0.0050330297
stars -0.03361372 0.0312849 0.015101444 -0.048724737 0.11809733 -0.031105908 -0.08494481 0.029749215 0.0155982375 0.008488583 -0.03335253 -0.019506415 -0.019586477 -0.026179792 0.05455187 0.04132063
perhaps 0.020284377 0.036516596 0.00936025 0.016184174 0.0062757772 0.019364849 -0.045807324 -0.0049346136 0.011121791 0.026116567 0.011394592 -0.0038352795 -0.014241384 -0.007638165 -0.023388887 -0.055368334
sex 0.037808083 0.00029295817 -0.028899958 0.007094144 0.0059090527 -0.012934494 0.061336257 -0.060601234 -0.07261689 0.005675208 0.0002853148 0.03813952 0.014374225 -0.024259921 0.011612838 -0.02491988
mean -0.015491428 0.049984273 0.0036507868 -0.022784771 0.0631116 -0.0011904927 -0.038807455 0.0041566784 0.029306179 0.00086097885 0.020363733 -0.070070975 -0.07441711 0.07052131 0.07960515 0.070722744
came -0.035920043 0.01796578 0.0053338017 -0.011635821 0.0051227836 0.0102915885 0.057021942 0.03284211 0.0059865857 -0.020287206 0.010304817 0.008734449 -0.00024926435 -0.029986113 0.0005479339 -0.045777354
recommend -0.07334198 0.057801995 0.00078728294 0.018870173 0.07647849 0.0060864533 -0.092618585 0.12622039 0.017714504 0.0048846155 0.010501362 -0.06282717 -0.02090669 -0.019249953 0.08604765 -0.016827932
let 0.022131264 -0.042433113 -0.026645157 0.018633552 -0.010066655 0.0007501198 0.037701726 0.067034386 0.0019877986 0.0071425554 0.0059995498 0.03222202 -0.0036333778 -0.07035222 -0.014428701 -0.023720631
moments -0.07610074 -0.0018812593 0.08459008 -0.023155473 -0.0004445346 -0.04992572 -0.04662046 -0.042234983 0.0011015877 -0.0144194625 0.043810382 -0.077469826 -0.024623249 0.0073352037 0.027345069 0.06424369
wonderful -0.10838851 0.1333223 0.14345504 -0.08043391 0.12691887 -0.1055619 -0.18043433 -0.041888736 0.119379334 0.13276635 0.16136259 -0.18257415 -0.071897164 0.080539696 0.115277745 0.068972155
episode -0.048237063 0.05999913 -0.0058226413 -0.010513847 0.088222526 -0.004407957 -0.038152363 0.10205153 -0.03439586 0.04884646 0.053334735 0.010114697 -0.050337117 -0.027793529 0.09693167 0.060239956
understand -0.033585012 -0.03569843 0.020240098 0.004433504 0.06452273 -0.03822983 -0.022145431 -0.01723709 -0.026583312 -0.016985497 -0.020068804 -0.04255736 -0.0011563287 0.0415719 -0.028462611 0.049718075
small -0.03341984 0.082647674 0.07072914 -0.06690153 0.09007782 -0.0037326028 -0.09137113 0.015284218 0.06849189 0.010466087 0.061328106 -0.079756126 -0.07915412 0.03325508 0.029663542 0.054009788
face -0.0001816513 0.028695151 -0.027416041 -0.047327787 -0.024442283 -0.014127076 0.030315189 0.04746233 -0.0009774629 -0.009727613 -0.031729456 0.014639746 -0.033821788 -0.02025029 -0.011353219 0.005865804
terrible 0.13458326 -0.12824164 -0.08995627 0.074050255 -0.08568191 0.040165477 0.002583775 0.13920777 -0.122268654 -0.08091401 -0.082957536 0.07250318 0.1085207 -0.066385455 -0.13745293 -0.085478395
playing 0.023653409 -0.053693146 -0.048346702 0.05061199 -0.009538805 0.06446837 -0.007816823 0.014813568 -0.10474891 -0.06697797 -0.11332496 0.08909142 0.05911537 -0.091973975 -0.025350867 -0.023509536
school 0.022994246 -0.038107004 -0.0028585126 0.031333018 0.013426942 -0.044959128 -0.07402839 0.009398359 0.004153209 -0.012711326 0.027429875 0.0060257786 0.015641121 -0.021620106 0.011779255 -0.027347906
getting 0.0152294 0.019871088 -0.008103507 -0.023928126 0.09459524 -0.07146153 -0.016171722 -0.029612875 -0.020098226 -0.0016049072 0.04117381 0.010488304 -0.002694335 0.08043511 0.055324472 0.06470193
written 0.002380456 -0.07874297 -0.04812503 0.018073699 -0.04854688 0.06041381 -0.021709526 0.0802817 -0.00047497594 -0.019313535 -0.035928313 0.08244829 0.06508681 -0.049024235 -0.03363619 -0.012430894
doing 0.05226968 -0.008048337 -0.005241923 -0.03533779 0.03457246 0.06052982 -0.041707948 0.08411792 -0.05399802 -0.052559625 -0.040406644 -0.00060750946 0.028214617 -0.039553408 0.03496243 -0.03800545
often -0.05997846 0.06829479 0.11888957 -0.054592595 0.03889749 -0.04412434 -0.12600182 0.00940598 0.059585854 0.033155493 0.08993805 -0.09346247 -0.06589682 0.06547162 0.031381495 0.052999754
keep 0.01770427 -0.043422375 0.01835547 0.052782647 -0.035527177 0.0006650649 0.04388626 -0.008462607 0.008177259 0.0009067522 0.047209743 -0.007012286 0.03472936 -0.05418915 -0.02198888 0.0104164
early -0.01888283 1.14744325e-05 0.009365254 0.031058226 -0.058826663 -0.004239133 -0.0038367212 0.02044609 0.020710474 0.02074268 -0.0020594627 0.018826917 0.031208873 -0.06503027 0.03701815 -0.022390882
name 0.0076882606 -0.097915694 -0.08193584 0.025994299 0.010540377 0.024765858 0.058403127 0.03595617 -0.08711236 -0.042685084 -0.057183675 0.09716957 0.0906666 -0.097127244 -0.026170712 -0.07496038
perfect -0.18269588 0.21233793 0.15400678 -0.21131693 0.14856333 -0.2169836 -0.23093173 -0.12833142 0.2055155 0.15335466 0.18117289 -0.22737955 -0.13314809 0.16191001 0.14424232 0.14272742
style 0.021912195 -0.034846798 -0.0019277626 0.062428117 -0.01261909 0.053092655 0.042787477 -0.0013092398 0.020510074 0.015608074 0.029307978 0.0029581075 0.042100456 -0.01966663 0.036145408 -0.054811127
human -0.038773473 0.11398809 0.050497577 -0.07390325 0.022914028 -0.03550772 -0.05344108 -0.075948805 0.045033064 0.09912993 0.014403475 -0.10732092 -0.10297432 0.093200594 0.11388697 0.049708523
definitely -0.090471156 0.057964016 0.12017526 -0.10254654 0.13603024 -0.14418817 -0.15386981 0.06645507 0.09581506 0.053347997 0.10407621 -0.13715993 -0.07313619 0.02138654 0.14843424 0.07303392
gives -0.05410294 0.012986287 -0.0019463951 -0.024095261 0.049556036 -0.06116817 0.00018927157 0.0074934755 0.009895069 0.0053350395 0.046435967 -0.04974345 -0.06816973 0.063543126 0.0005233296 0.06613023
others -0.034309264 -0.005861098 -0.015224607 -0.02584292 0.036584176 -0.0011339092 -0.10107466 -0.04118159 0.03414358 0.0062764245 -0.012973233 -0.0848886 -0.049805548 0.054325614 0.07391017 0.049516257
itself 0.038398307 0.008410108 -0.06253345 0.010909056 0.011830776 -0.0064701387 0.02988782 0.098629855 -0.006129484 -0.069116704 -0.057591338 0.024280282 0.08313946 -0.06261363 -0.0074955313 -0.09267002
lines 0.058921307 -0.021272093 -0.021546153 -0.019669129 -0.035978165 0.021214873 -0.055984713 0.022860928 0.033190858 -0.008058719 -0.047085483 0.0238915 0.002384781 0.025094856 -0.038416866 -0.044148516
live -0.060375903 0.11018108 0.070926115 -0.060869116 0.045413833 -0.07455803 -0.036849797 -0.011626186 0.032532856 0.053729095 0.036108024 -0.037735105 -0.035524715 0.10265477 0.10465313 0.10558404
become -0.06656304 0.013241912 0.005686237 -0.029906768 0.05870926 -0.111682 -0.06318147 -0.068787396 0.010150526 0.09646142 0.09774523 -0.07234306 -0.055321675 0.028745089 0.034398444 -0.0049000005
dialogue 0.08228184 -0.015783709 -0.043172915 0.08842299 0.017044816 -0.014473182 0.047578655 0.04477963 -0.06557361 -0.013624652 -0.027279086 -0.0078108464 0.02851473 -0.028872494 -0.0020594392 -0.017456746
person -0.020947818 0.033776734 0.048952397 -0.030641342 -0.03610576 -0.025829919 -0.028634654 -0.02930997 0.040111925 0.0076042656 0.0018043572 -0.016368967 0.01765963 0.046581153 0.03035482 0.003116308
lost 0.03545993 0.01672226 -0.019480068 0.03735782 -0.0070498516 0.030431943 0.015315575 0.027153533 -0.071695484 -0.06904851 -0.0023491827 -0.008835959 0.02929971 -0.073469974 -0.0017224215 -0.02878621
finally -0.008551831 -0.008046597 -0.030328782 0.032206472 0.043701004 -0.057244435 0.0043952693 0.029495563 0.03307544 0.016914312 -0.0038726307 0.027943097 -0.005649735 -0.0022699852 0.004547333 0.0087324
piece -0.008581242 0.025648024 -0.015603013 -0.044655476 0.04715179 -0.011591357 -0.094910406 0.0056044096 0.0047664 0.010659872 -0.044437155 0.011148962 -0.023930548 0.02423121 0.076650314 0.009661726
head -0.04144972 -0.06024379 0.024890453 -0.021656461 0.032754436 -0.012591199 -0.036719743 -0.06440461 -0.029994093 -0.033936884 0.029734831 0.059665643 -0.042893175 -0.028523762 0.06416525 -0.016708847
case -0.016840754 0.0006708172 0.020582763 -0.04323616 0.048810914 -0.031917065 -0.0028438373 0.051252756 0.029195124 0.049405262 0.036001313 -0.0075974823 -0.022933919 0.027908836 0.02094141 0.012063898
felt 0.03043183 0.0054706815 -0.04156873 0.027354348 -0.0045902804 0.046890117 -0.007701974 -0.0354983 -0.03828701 0.027342487 -0.05027491 -0.0077990214 0.038654264 0.035915054 -0.012086518 0.016198825
yes 0.025923684 -0.04194021 -0.021514826 -0.028932646 0.009827231 -0.028098725 -0.028790273 0.058926675 -0.053682398 -0.016069843 -0.028879447 -0.053418808 0.010572597 -0.048424397 -0.026175018 0.05319495
liked -0.12406636 0.11475199 0.099399574 -0.06338303 0.07270992 -0.086986296 -0.061564 -0.097634576 0.12941426 0.12191574 0.13230228 -0.13457815 -0.13410638 0.12232236 0.08517511 0.058833543
supposed 0.06091316 -0.12606119 -0.10753406 0.13071056 -0.09583847 0.046970673 0.085035525 0.09272272 -0.06448637 -0.11025575 -0.09135578 0.13073279 0.10593921 -0.09717413 -0.030755699 -0.05905084
title 0.033233084 -0.005554961 -0.07230354 -0.019709356 0.0111773 0.024737848 -0.016046818 0.026560267 0.009958159 -0.021358656 -0.02444133 0.042560853 -0.004620242 -0.03201005 0.021017618 0.013766324
couldn't 0.0153342495 -0.11160183 -0.11408301 0.043321855 -0.0100660315 0.099753365 0.013665451 0.060000975 -0.09899493 -0.05306758 -0.059258014 0.106192224 0.03217762 -0.01312463 -0.045274563 -0.045213316
absolutely 0.023114286 0.042512015 0.017178867 0.0026983356 -0.006974487 -0.015668591 -0.024173222 0.104927085 -0.023393072 -0.06268122 0.027589604 0.022016509 0.047211953 -0.039908633 0.0195802 0.0034045402
white -0.018369598 0.0041827327 0.060727783 -0.018021228 0.006584271 -0.04784523 -0.048332904 -0.0025285403 0.009790699 0.026034877 0.05800115 -0.032662604 -0.035703063 -0.006053147 0.0017040784 0.053362302
against -0.050617643 -0.012877498 0.01259573 0.0029436562 -0.019092957 -0.034109797 -0.060633257 -0.016319575 0.02259682 -0.00835849 0.073048666 0.008312096 -0.032531027 -0.032779284 0.045259207 -0.012007439
boy 0.017522702 0.006792912 0.008593733 -0.015212192 0.012252577 -0.010657024 0.059067167 0.04052082 -0.025137743 -0.033489324 -0.016276069 -0.03938246 -0.048731852 -0.021572834 -0.04547289 0.023994945
picture 0.028568538 0.035841934 -0.00013248174 -0.013032905 0.05019682 0.026799977 -0.018847685 0.031269003 -0.022511112 -0.027499901 0.023299187 -0.03453264 -0.042866487 -0.01591871 -0.010057933 0.029609649
sort 0.022396034 0.046954554 0.04562839 -0.055225175 -0.027291702 0.0072934986 -0.021599974 0.017854799 0.026071008 -0.023308929 -0.00021926733 -0.0016507234 0.032686006 0.050180737 -0.008831893 -0.0062642116
worse 0.12586966 -0.15265095 -0.106873296 0.097884774 -0.08103369 0.07147014 0.11015207 0.12586531 -0.08476543 -0.08230308 -0.175759 0.17454194 0.09312622 -0.13008769 -0.13791096 -0.11580705
certainly -0.07084719 0.036049187 0.08504973 -0.07483143 0.06469045 -0.05868716 -0.014472124 -0.010672061 0.0076613547 0.022561973 -0.008137908 -0.11385713 -0.00608374 -0.021509754 0.035523795 0.047422033
went 0.02893815 -0.027748045 -0.018874072 0.02823589 0.016486218 0.0943269 0.070282534 0.031920075 -0.03302028 -0.022031177 -0.08822172 0.03575911 0.014975556 -0.036276836 -0.014576713 -0.011246196
entire 0.0056232205 -0.05620562 -0.04649652 0.07326244 -0.017584352 0.07536277 0.0055223834 0.0446004 -0.06223631 -0.023570944 -0.02695902 0.08185658 0.08801698 -0.012568636 -0.02803815 -0.079563834
waste 0.24021369 -0.23679413 -0.20581536 0.18721206 -0.18002847 0.2728376 0.14127974 0.24408992 -0.25067085 -0.28284347 -0.27941957 0.26493636 0.22997926 -0.28811687 -0.28785762 -0.2182463
cinema -0.03678034 0.026715148 0.0617688 0.006729314 0.08372481 -0.004590647 -0.044836752 0.09790427 0.052084588 -0.013978557 0.04750907 -0.010953898 0.0031893067 0.0310952 0.027613198 0.08015841
problem 0.058262497 -0.056590814 -0.054463796 0.037556965 -0.09388351 0.037637584 0.03678111 0.0072608595 -0.050818413 -0.004472715 -0.06653441 0.00467285 0.088888295 -0.009971147 -0.08059039 -0.026444597
hope -0.086067244 0.053949066 0.029015126 -0.023580518 0.015283218 -0.034985084 -0.10905327 0.035712454 0.08861999 0.019187517 0.05593673 -0.029615965 0.0068861335 0.052387916 0.014800937 0.0540335
entertaining -0.1245368 0.07001662 0.10465349 -0.13065556 0.09099849 -0.13693497 -0.12201344 -0.008258036 0.12489143 0.10199322 0.1125185 -0.113772474 -0.04412974 0.08748855 0.16662058 0.045484196
she's 0.011155476 -0.04272082 0.00453147 0.005447821 0.0072864657 0.006434967 -0.036585763 -0.031133061 -0.03199526 0.04449669 -0.013829047 0.02913854 -0.026902957 0.048291933 -0.009931932 -0.015910998
mr -0.07401017 0.05855696 0.011413048 -0.045691814 -0.0027214866 -0.08822446 -0.06463646 0.012045524 0.0427724 0.025842296 0.023276428 -0.02193729 -0.03657935 0.063785404 -0.030640777 0.0008247653
overall -0.059145425 -0.002283575 0.017966555 0.0029588193 0.034648452 -0.0075422446 -0.065271385 0.1444225 -0.03511098 -0.0022099835 0.0428751 -0.087672144 -0.062385328 0.025640773 0.05232846 -0.016669769
evil 0.061058618 -0.0344699 0.026362095 0.025305366 -0.08798211 0.0052995863 0.016613375 0.0059473827 -0.08026624 -0.07242982 -0.024339726 0.03212586 0.05917741 -0.05385757 0.019835653 -0.0648023
called -0.03376007 -0.018099828 0.02061867 -0.00078606623 -0.035167776 0.009579033 -0.02869188 0.03543192 -0.05578526 0.0050961347 -0.058170248 0.04399019 0.0067824 -0.05499298 -0.06581976 -0.00032996797
loved -0.1463724 0.16696465 0.15861695 -0.1422947 0.13767222 -0.090595834 -0.15404113 -0.05034162 0.10704272 0.082529746 0.08195038 -0.18018347 -0.13223438 0.14637618 0.13831764 0.11803404
based 0.021113044 0.044157993 -0.028046327 0.016765978 -0.0049284576 -0.05139497 -0.045930255 0.006917778 -0.024895033 0.01969829 -0.0055022812 -0.034643713 0.0012743328 0.0019328262 0.046005875 0.03131757
oh 0.078708015 -0.040483247 -0.14394681 0.055960353 -0.09250191 0.11272915 0.06611631 0.06990412 -0.08845104 -0.096391134 -0.08305626 0.06747472 0.11273457 -0.0523255 -0.11681124 -0.08783735
several -0.06922559 0.0025061835 0.03968761 -0.058139816 0.07183302 -0.085687906 -0.08540259 0.021857329 -0.001095844 0.08318508 0.051169403 -0.10085257 -0.05686218 -0.0004537427 0.02970849 0.051491994
fans -0.030808052 0.052923173 -0.002887472 -0.03842903 0.05417209 -0.062384784 -0.076052435 0.06002294 0.008565043 0.01482524 0.00828334 -0.032170527 -0.05775831 -0.02856261 0.0022290542 0.018231781
mother 0.056221742 -0.03245625 -0.01104461 0.031377994 -0.03956616 0.010661198 0.09639748 -0.002480778 -0.086339824 -0.007153376 -0.048996698 0.0026447994 0.031009978 -0.04978982 0.0009880402 -0.015826877
drama 0.022710042 0.053745057 -0.01150223 0.009768854 -0.004495531 -0.020415017 -0.041928086 0.024072759 -0.032470524 -0.018911123 -0.021235997 -0.009437077 0.019161602 -0.00955918 0.048218835 0.042586867
beginning -0.026249278 0.07054938 0.020580595 -0.030486288 0.07126008 -0.026207304 -0.056976628 -0.034784894 0.03397555 0.052605025 0.032814827 -0.036126032 -0.05411478 0.07215422 0.03564823 0.098759785
killer 0.018003672 -0.029840624 0.01985219 -0.06905913 0.047189113 -0.026195744 -0.09920417 -0.038669255 0.04704612 0.056584325 0.03837286 -0.045504875 -0.0515278 0.06339001 0.031310134 0.049710665
lives -0.048051707 0.05750394 0.077974625 -0.04897283 -0.0064899446 -0.033905055 -0.008240152 0.0017292817 0.029580988 0.0150360605 -0.026261052 -0.08905796 -0.051569134 -0.012820418 0.03602101 0.052237466
5 -0.049710985 0.0060274494 0.016800685 -0.029760567 0.0024628802 0.006421489 -0.0670482 0.14900191 -0.0038794912 0.037409175 -0.021335522 -0.06537554 -0.0042219004 -0.02729964 -0.0021783006 0.02639175
direction 0.050204538 -0.055278223 -0.032944474 0.062844336 0.0064729014 0.049733706 0.04226832 0.06436667 -0.048660982 -0.09614373 -0.023732236 0.0594148 0.038005486 -0.0774741 -0.10842041 -0.0774662
care 0.07445578 -0.062708795 -0.022958232 0.055526786 -0.05643759 0.050286304 0.033877227 0.13664368 -0.06477259 -0.0388505 -0.022890912 0.06393933 0.116025314 -0.040417604 -0.046770256 -0.08427882
already -0.0028922362 -0.02508901 -0.019732397 0.06534269 0.03126908 0.002567988 0.047624737 -0.00021801286 0.0082786735 -0.011264828 -0.028838411 -0.021605937 -0.03002698 0.008690506 -0.019232687 -0.0076477076
becomes 0.07480143 -0.014333363 -0.022747453 -0.021416666 -0.059022695 -0.002156499 0.012740475 0.024385959 -0.024004271 -0.078883596 -0.020005565 0.053548947 0.013673371 -0.049346063 -0.0028418703 -0.03941613
laugh -0.038614526 -0.024290448 0.020917926 0.037105504 -0.016263044 0.02414578 -0.01244932 0.004688975 0.03241312 0.0030936624 0.0009677511 -0.035451528 -0.027762322 0.007957298 0.027956838 -0.06347066
example 0.1024844 -0.09569434 -0.11366587 0.112135924 0.0025093353 0.08812522 0.03299255 0.08424745 -0.041053906 -0.10657466 -0.05956366 0.027047727 0.09809956 -0.07701495 -0.072409615 -0.09467287
friend -0.0055845347 0.04246184 -0.035233773 0.009414966 0.027873656 -0.019249234 -0.08995684 0.033873864 0.0033573757 -0.011321094 0.033728495 5.068202e-05 0.032089803 -0.054554816 -0.021967279 -0.029197996
dark -0.041220933 0.040670455 0.081488125 -0.07664366 0.09925107 -0.096986786 -0.026231475 0.015117866 0.04199555 0.017463723 0.101804554 -0.06297936 -0.036077466 0.09536373 0.02796285 0.0450918
despite 0.025000483 -0.046304755 -0.010820633 -0.006447342 0.0070472485 0.03371229 0.024905015 0.0022045325 -0.013830449 -0.038458657 -0.041564077 -0.005665067 0.005786923 -0.003672704 -0.06557404 -0.01799101
under 0.011091288 -0.006408783 0.042563323 0.0129325185 -0.036881533 -0.014553971 0.027816204 0.03380751 0.01823012 -0.006215205 -0.021004787 -0.04475275 0.018878056 0.013090313 -0.01794778 -0.028507771
seemed -0.042300448 -0.028403822 0.03974342 -0.009226343 0.020340107 -0.056724947 -0.08395521 -0.03606506 -0.010614404 0.04154342 0.033438534 -0.031074632 0.025853485 0.039594844 -0.02591789 0.02829051
throughout 0.021586996 0.0121864965 0.048129216 -0.005436224 0.011186096 0.0003496441 -0.120399505 0.0093215415 0.07679555 0.051816214 -0.033788364 -0.021610258 0.044912446 0.022318488 0.024246702 -0.0051570022
4 0.10992516 -0.14669429 -0.08809387 0.1848341 -0.1814216 0.12437699 0.21332106 0.120601974 -0.1634461 -0.11641889 -0.13757633 0.07853053 0.13601182 -0.16531816 -0.1865732 -0.13621035
turn 0.028387154 -0.007430214 -0.018251197 0.043538548 -0.04849767 -0.017787164 0.04788647 0.041831635 -0.060112625 -0.052623916 -0.0043545524 0.034807436 0.04256871 -0.06891553 0.018064056 -0.050967596
unfortunately 0.08730765 -0.0343583 -0.10727101 0.049876224 -0.052772995 0.030941501 0.0010571161 0.062244844 -0.1142535 -0.08978752 -0.06512575 0.101435296 0.08598583 -0.03560444 -0.043341473 -0.02643129
wanted -0.07409754 0.009857601 -0.031572077 -0.00502271 0.0020508654 -0.022493837 -0.05032684 -0.06376436 0.07608458 0.017989768 0.054451365 0.010182122 0.022678908 0.040750742 0.014923288 -0.021448318
i'd -0.048869856 -0.0143651115 -0.016262209 0.022083465 0.04138002 0.019900108 -0.07608494 0.047619797 -0.0025010547 0.032234836 0.018414756 -0.023694327 -0.019725954 0.026985098 0.04428163 -0.013254026
 0.049076214 -0.057433657 -0.042006504 -0.029708581 0.009754298 -0.0270673 -0.049915303 0.059082285 -0.039317925 -0.0532436 0.026330523 -0.0024894462 -0.019275462 -0.05627278 0.026582498 -0.0020578986
children 0.005247777 0.024848469 -0.038182743 -0.03974834 0.013869399 -0.04940031 -0.031976707 -0.02496534 0.0017789453 -0.0038986653 0.016577726 0.023000069 -0.0448326 -0.01285686 0.045615435 0.014432084
final -0.070009075 0.030466918 0.013303972 -0.0011622277 0.05567848 -0.048089042 -0.009142948 -0.047105275 0.026482308 0.051625736 0.05444669 0.006928447 -0.042719968 0.017492363 0.06294725 0.027109718
fine -0.10159465 0.07610675 0.0752825 -0.08835911 0.067356735 -0.08059197 -0.020589754 -0.017824516 0.04283951 0.059738215 0.004672084 -0.06610929 -0.03991488 0.0590336 -0.005021598 0.04308702
history 0.011657871 0.0067652827 0.04576818 -0.013047774 -0.014276273 0.042648587 -0.053799976 0.028664809 -0.028999753 -0.03802242 -0.03476788 -0.052371733 0.038483255 0.03162703 0.029587017 -0.0038060264
amazing -0.1420344 0.07340207 0.067621276 -0.07996698 0.12525389 -0.08407923 -0.11620192 -0.022307346 0.107102 0.107357465 0.15190594 -0.1392741 -0.11796566 0.10493158 0.069894105 0.114503644
sound 0.023776226 -0.044243507 -0.026969802 -0.030225445 -0.023599636 -0.0058593745 0.040763617 -0.023127807 -0.0013007415 -0.055378407 -0.05082734 0.018558338 0.036266956 0.0038114816 0.014359257 -0.063647434
guess 0.08389602 -0.11322633 -0.13960725 0.02865763 -0.07931241 0.05458811 0.049727906 0.0195883 -0.06701441 -0.07341626 -0.07951325 0.11393089 0.1344542 -0.042742092 -0.09542196 -0.0899094
heart -0.102888696 0.04310343 0.06681574 -0.107659094 0.04864649 -0.11311399 -0.051470827 0.012623357 0.0853178 0.08712642 0.116161674 -0.07859462 -0.05459754 0.045968585 0.09740675 0.06535464
totally -0.027592199 0.003701822 -0.053130418 0.019003062 0.07552083 -0.040783238 -0.06429853 -0.015377148 0.014881717 -0.0018776825 0.03598727 -0.039605424 0.009736061 0.0241487 -0.019079736 0.015970903
lead -0.036564693 0.060684577 -0.012626495 0.008700701 0.033649832 0.020145146 0.0144887455 0.0599674 0.03948032 0.024940874 -0.028287271 -0.031468038 -0.05095084 0.0061863023 0.025161881 -0.027536305
humor -0.11273605 0.09993785 0.073575206 -0.061177038 0.07944825 -0.027164903 -0.051998526 -0.058326773 0.034310553 0.07534276 0.05521515 -0.11161675 -0.102769926 0.059844516 0.12371861 0.120409444
writing 0.0029612174 -0.046400096 -0.050679892 0.057048198 -0.04113732 0.03499974 0.0040508807 0.061507013 -0.023558205 0.0037447687 -0.062048946 0.035296913 -0.011875356 -0.033833742 -0.013562061 -0.036752995
michael -0.09224479 0.05083204 0.008877586 0.003724005 0.029354146 -0.093544714 -0.07034528 -0.023954844 -0.019246183 0.06552092 0.02026928 -0.02299197 -0.0314863 0.004876161 0.0775082 0.029577054
quality 0.017420199 0.009180305 0.05846315 -0.00031808717 0.07070456 -0.00034908624 -0.08228992 0.002732858 -0.025215091 -0.0031050763 0.03804389 0.019293092 -0.011090859 0.048564784 0.05088301 0.02173655
you'll 0.011650386 -0.010400332 0.06382365 -0.0156775 0.07499811 -0.07635634 -0.10007998 -0.017786628 0.06591628 0.061550956 0.046132673 -0.094258 0.010341148 0.008295119 0.022031654 -0.015582732
close -0.05765175 -0.0015408185 0.010634126 -0.0309192 0.08358433 -0.044982467 -0.057026584 -0.027736627 0.07572189 0.02831769 0.038194444 -0.08832124 -0.07263742 -0.018605081 0.009418381 0.037651468
son -0.0017424808 -0.0064961812 -0.0010545906 -0.014295509 -0.012661975 -0.05388428 -0.055784114 0.023787215 0.05824127 0.027739951 0.022906924 -0.07179052 -0.00037363957 -0.013366585 0.05853213 0.04175884
guys -0.011759757 -0.013475358 0.060710933 -0.021775752 0.02917316 -0.028225116 -0.012049811 0.01413423 0.023158083 -0.008264843 0.019910857 -0.07577874 0.019010792 -0.0011722047 0.07617953 0.0005076377
wants -0.014677868 0.049718335 0.023723044 -0.013614843 -0.022640968 -0.016717207 -0.015356132 -0.010339118 0.01678485 0.058048528 -0.011444912 -0.094292134 -0.033707492 -0.012277013 -0.0140639525 0.0040910174
works -0.024041165 0.05931805 0.03947407 -0.0620803 0.00420244 -0.08968995 -0.074334405 -0.09598184 0.055666868 0.046578873 0.096823305 -0.05450996 -0.017494496 0.0074271695 0.035659768 -0.0063353633
behind -0.087154485 0.031582505 0.08423232 -0.025782173 0.039144132 -0.04755764 -0.09292822 -0.06145696 0.008520379 0.04702287 0.066561945 -0.017057555 -0.0037200467 -0.0043321038 0.11320017 0.05163092
tries 0.13948108 -0.15422589 -0.14958195 0.18362384 -0.094750516 0.14850071 0.114609286 0.093407154 -0.14198628 -0.14096183 -0.16398454 0.101008445 0.10503664 -0.14807081 -0.14507711 -0.18082388
art -0.020446967 0.007779304 0.03501613 -0.00016792235 -0.03567155 0.004055065 -0.021656474 0.056269728 0.042445343 0.00525757 0.0073236763 -0.028364897 -0.028069902 -0.048617896 -0.009966606 -0.017685384
side 0.012622183 0.020568235 0.04194354 -0.033670288 0.054528713 0.0037319118 -0.01428727 0.016609145 0.02611476 0.03133766 -0.0073871915 0.0044394117 0.014124844 0.0010764087 0.0068010357 0.0039196895
